~o
<STREAMINFO> 1 39
<VECSIZE> 39<NULLD><MFCC_D_A_0><DIAGC>
~h "a"
<BEGINHMM>
<NUMSTATES> 5
<STATE> 2
<MEAN> 39
 3.580369e+00 -7.652123e+00 -4.938535e+00 -1.273845e+01 -3.354607e+00 7.341451e+00 -1.322445e+01 8.652516e+00 -7.364934e+00 9.223713e+00 -4.560091e+00 -8.065290e+00 7.899287e+01 2.714701e-02 8.020595e-02 -1.781155e-01 2.338749e-01 3.331567e-01 1.153909e-02 -1.924867e-02 3.259911e-01 -3.641318e-01 2.589950e-02 -5.958582e-02 -2.641480e-01 -2.072921e-01 -1.094768e-01 2.821634e-01 9.047499e-02 2.334702e-01 5.015745e-02 -1.225956e-01 1.031137e-01 -4.952934e-02 -3.573378e-02 -4.625566e-02 4.554038e-02 1.491259e-01 -2.760239e-01
<VARIANCE> 39
 6.407508e+00 1.499665e+01 2.612142e+01 2.698690e+01 2.556665e+01 3.942780e+01 2.356860e+01 3.310781e+01 2.316489e+01 1.999241e+01 3.330992e+01 2.534715e+01 7.675605e+00 2.732020e-01 6.849906e-01 9.437983e-01 1.039935e+00 1.319324e+00 1.378245e+00 1.272175e+00 1.617931e+00 1.252874e+00 1.029988e+00 1.283463e+00 8.878841e-01 4.362377e-01 1.057863e-01 9.461636e-02 1.393991e-01 2.228227e-01 2.513855e-01 1.985139e-01 3.015491e-01 2.708593e-01 2.199905e-01 2.201631e-01 1.810431e-01 1.408583e-01 9.973495e-02
<GCONST> 8.789140e+01
<STATE> 3
<MEAN> 39
 3.320199e+00 -3.558012e+00 -3.775567e+00 -8.597373e+00 -2.329228e+00 5.879189e+00 -1.527183e+01 1.261682e+01 -1.139239e+01 9.498777e+00 -4.004285e+00 -8.322263e+00 7.428800e+01 -1.857589e-01 1.378956e+00 7.723410e-01 1.613533e+00 2.575015e-01 -3.213503e-01 8.783104e-01 -8.673274e-01 -8.442318e-02 -2.200865e-01 2.084515e-01 2.827143e-01 -2.454867e+00 -1.071654e-01 1.092212e-02 5.205724e-02 3.481709e-01 2.762999e-02 9.440495e-02 5.653501e-01 -7.534110e-01 5.453891e-01 -3.429922e-01 5.724651e-02 7.301168e-02 -5.879990e-01
<VARIANCE> 39
 7.734879e+00 2.036538e+01 4.099954e+01 3.912777e+01 3.804986e+01 6.962215e+01 2.387571e+01 4.688069e+01 2.625726e+01 2.549904e+01 3.015059e+01 4.676701e+01 2.913862e+01 5.154549e-01 1.007402e+00 2.204598e+00 2.039459e+00 2.832175e+00 1.990488e+00 3.013049e+00 4.667955e+00 3.279757e+00 2.022683e+00 1.779709e+00 1.927072e+00 2.508985e+00 1.129581e-01 2.341445e-01 5.961317e-01 4.020105e-01 4.018730e-01 4.561848e-01 4.153542e-01 5.775767e-01 5.232863e-01 4.039005e-01 3.859448e-01 4.178720e-01 2.332075e-01
<GCONST> 1.123953e+02
<STATE> 4
<MEAN> 39
 8.265222e-01 -9.299927e-01 -3.491389e+00 -1.425598e+00 7.519107e-01 4.840985e+00 -6.857092e+00 5.453177e+00 -5.140977e+00 6.216897e+00 -2.972218e+00 -7.451940e+00 5.881688e+01 -8.457376e-01 -1.290488e-03 -3.039518e-02 8.691011e-01 -7.696217e-02 -2.302053e-01 1.422749e+00 -1.353761e+00 1.277546e+00 -9.509044e-01 4.066055e-01 6.454560e-01 -2.297880e+00 -1.651726e-01 -2.191985e-01 -1.110316e-01 -3.898290e-01 -1.855581e-01 -9.460983e-02 -3.429806e-01 2.290683e-01 -1.595956e-01 9.252364e-02 2.270658e-02 8.077673e-02 6.247960e-01
<VARIANCE> 39
 1.155172e+01 2.265991e+01 2.384915e+01 4.042674e+01 4.001784e+01 5.537645e+01 2.826446e+01 3.283348e+01 3.375753e+01 2.584893e+01 2.452858e+01 2.445866e+01 6.307204e+01 1.043879e+00 1.621551e+00 2.675700e+00 3.028928e+00 2.188188e+00 2.316435e+00 2.528100e+00 3.436834e+00 2.533083e+00 2.352921e+00 2.098592e+00 2.113403e+00 2.461750e+00 2.106343e-01 3.024714e-01 2.688862e-01 3.911728e-01 3.934091e-01 3.731935e-01 3.837873e-01 4.379058e-01 4.454168e-01 4.406618e-01 4.107896e-01 3.535400e-01 4.479613e-01
<GCONST> 1.134762e+02
<TRANSP> 5
 0.000000e+00 1.000000e+00 0.000000e+00 0.000000e+00 0.000000e+00
 0.000000e+00 8.563688e-01 1.436312e-01 0.000000e+00 0.000000e+00
 0.000000e+00 0.000000e+00 6.892790e-01 3.107210e-01 0.000000e+00
 0.000000e+00 0.000000e+00 0.000000e+00 7.173145e-01 2.826854e-01
 0.000000e+00 0.000000e+00 0.000000e+00 0.000000e+00 0.000000e+00
<ENDHMM>
~h "b"
<BEGINHMM>
<NUMSTATES> 5
<STATE> 2
<MEAN> 39
 8.033562e+00 4.820222e+00 2.045126e+00 -3.760082e+00 9.864333e-02 1.062993e+01 -3.630367e+00 -5.564593e+00 -1.235378e+01 7.634325e-02 -7.313573e-01 -1.093668e+01 5.881240e+01 -7.471716e-01 6.640341e-01 4.356312e-01 1.747653e+00 1.108838e+00 -3.991530e-01 2.993248e-01 -4.307933e-01 4.542846e-01 -4.065021e-01 -3.565811e-01 7.167016e-02 -1.251107e+00 -3.620481e-01 -4.767782e-01 -5.580990e-01 -6.579977e-01 -1.532074e-01 -2.771081e-01 -1.524437e-01 4.883205e-01 4.146896e-01 -6.784711e-02 4.286342e-01 6.035876e-01 1.318240e+00
<VARIANCE> 39
 3.495505e+00 4.029720e+00 6.262341e+00 7.600722e+00 2.008793e+01 1.035266e+01 1.771705e+01 8.990827e+00 1.316863e+01 1.436679e+01 1.264474e+01 1.072980e+01 9.517830e+00 2.320941e+00 6.667369e-01 1.408994e+00 2.381881e+00 1.244355e+00 1.926943e+00 1.748159e+00 2.048212e+00 1.941378e+00 1.710298e+00 2.358212e+00 3.136950e+00 5.187614e+00 2.706884e-01 1.025784e-01 1.593039e-01 5.215154e-01 5.114168e-01 3.107498e-01 3.123894e-01 3.322032e-01 3.014521e-01 3.310200e-01 2.739850e-01 3.327822e-01 5.162630e-01
<GCONST> 9.410688e+01
<STATE> 3
<MEAN> 39
 -8.251879e-01 3.590803e+00 -1.397679e+00 -8.042365e-02 6.775966e-01 3.773312e+00 -2.627773e+00 -2.465539e+00 -5.076928e+00 -2.269790e+00 1.420680e+00 -4.257493e+00 6.971066e+01 -2.416829e-01 -1.345449e+00 -1.798915e+00 -3.302463e+00 -1.800797e+00 -5.155880e-01 -5.195372e-01 2.165249e+00 1.014314e+00 7.787831e-01 1.451305e+00 2.036831e+00 5.829757e+00 1.275346e+00 -1.878203e-01 -5.706282e-02 -1.831883e+00 -4.320016e-01 1.008575e+00 -4.728195e-01 2.931249e-01 -9.615386e-01 6.346964e-01 1.285705e-01 -1.598773e-01 -2.077127e-01
<VARIANCE> 39
 2.495327e+01 1.331601e+01 1.269063e+01 2.157213e+01 1.859291e+01 2.407365e+01 1.357447e+01 3.083606e+01 2.618075e+01 1.598569e+01 1.407937e+01 2.203540e+01 9.289098e+01 5.790625e+00 6.484256e-01 7.066365e-01 9.800567e+00 2.110910e+00 4.544531e+00 2.184886e+00 1.747380e+00 4.098118e+00 1.707533e+00 2.216264e+00 2.527724e+00 2.443588e+00 4.033961e-01 1.744905e-01 2.476429e-01 6.434498e-01 5.237448e-01 5.575593e-01 3.660330e-01 7.150910e-01 6.243145e-01 3.100711e-01 5.273005e-01 4.767633e-01 2.191983e+00
<GCONST> 1.136632e+02
<STATE> 4
<MEAN> 39
 6.439212e+00 -4.355117e-01 -5.937522e+00 -2.094672e+01 -5.123210e+00 1.007321e+01 -7.867467e+00 3.558310e+00 -1.109021e+01 3.928260e+00 5.978717e+00 -3.939429e-01 7.972073e+01 7.677733e-01 -1.072162e+00 -7.254438e-01 -3.191724e+00 -3.321470e-01 1.215677e+00 -1.114150e+00 5.465361e-01 -1.669070e+00 1.858453e+00 -1.778870e-01 -4.218194e-01 7.948865e-01 -5.274815e-01 1.003160e-01 2.725924e-01 1.372531e+00 6.246106e-01 -3.145146e-01 1.561419e-01 -4.882934e-01 3.404203e-01 -9.946988e-02 -5.142963e-01 -6.968604e-01 -7.376448e-01
<VARIANCE> 39
 3.144529e+00 7.087890e+00 7.811924e+00 2.305014e+01 1.156142e+01 1.453314e+01 1.658809e+01 1.562991e+01 1.663201e+01 2.432296e+01 2.585587e+01 1.720185e+01 1.704993e+00 2.130173e+00 3.187165e-01 6.082231e-01 7.445404e+00 1.848641e+00 2.406104e+00 1.381020e+00 2.513917e+00 2.000074e+00 1.562177e+00 2.391074e+00 2.843681e+00 1.115188e+00 2.426214e-01 7.111580e-02 1.237169e-01 5.352567e-01 2.728644e-01 3.890679e-01 2.916781e-01 3.300116e-01 5.353875e-01 3.032697e-01 2.883312e-01 3.003255e-01 5.442597e-01
<GCONST> 9.408508e+01
<TRANSP> 5
 0.000000e+00 1.000000e+00 0.000000e+00 0.000000e+00 0.000000e+00
 0.000000e+00 8.313941e-01 1.686058e-01 0.000000e+00 0.000000e+00
 0.000000e+00 0.000000e+00 6.794716e-01 3.205284e-01 0.000000e+00
 0.000000e+00 0.000000e+00 0.000000e+00 7.443396e-01 2.556604e-01
 0.000000e+00 0.000000e+00 0.000000e+00 0.000000e+00 0.000000e+00
<ENDHMM>
~h "d"
<BEGINHMM>
<NUMSTATES> 5
<STATE> 2
<MEAN> 39
 1.338430e-01 5.879975e+00 3.449614e+00 1.114776e+00 -2.393630e+00 6.978513e+00 -6.314056e+00 -1.531413e+00 -7.849289e+00 4.910725e+00 -4.160141e+00 -7.162316e+00 5.806123e+01 -7.562888e-01 -1.401607e-01 -5.952270e-02 -4.374896e-01 -3.417130e-01 -6.793745e-01 -2.169230e-01 -8.419775e-01 3.704671e-01 -6.452395e-01 2.584844e-01 3.849115e-01 2.320906e+00 3.715553e-02 -2.429330e-01 -1.382317e-01 -2.785182e-01 -1.716673e-01 7.630493e-03 -3.019589e-01 7.007028e-02 1.647332e-01 8.115212e-02 1.748808e-01 1.094947e-01 4.153971e-01
<VARIANCE> 39
 4.609200e+01 2.369185e+01 6.292497e+01 3.533221e+01 1.061110e+02 5.294281e+01 3.762154e+01 1.228861e+02 3.775430e+01 2.656525e+01 1.764005e+01 3.189096e+01 6.001291e+01 7.313330e+00 3.190819e+00 9.236047e+00 3.526337e+00 1.182382e+01 4.297188e+00 4.108145e+00 1.109499e+01 4.907563e+00 2.143864e+00 2.229047e+00 3.058069e+00 9.018717e+00 1.423162e+00 5.020130e-01 1.509517e+00 8.318560e-01 2.167696e+00 9.033574e-01 1.073022e+00 1.933116e+00 7.853271e-01 6.459503e-01 4.811420e-01 5.746569e-01 1.800731e+00
<GCONST> 1.415600e+02
<STATE> 3
<MEAN> 39
 -4.143427e+00 1.709172e+00 7.490610e-02 -6.656326e+00 -1.148542e+00 9.692556e-01 -1.327501e+01 -1.550335e+00 -2.254750e+00 3.746592e+00 6.126896e-02 -4.031564e+00 7.640009e+01 2.541838e+00 -2.277439e-01 1.466348e+00 -2.711025e+00 -1.384648e+00 2.299580e+00 -3.854548e+00 -6.484231e-01 -9.102411e-01 1.898315e+00 1.629580e+00 -4.110063e-01 1.919341e+00 1.004621e+00 2.672404e-01 8.556715e-01 1.773564e-01 -8.785877e-02 9.810668e-01 1.107411e-01 -6.121255e-01 -6.222886e-01 1.408654e-01 4.446392e-02 -4.353711e-02 -1.673635e+00
<VARIANCE> 39
 2.169171e+01 1.105045e+01 2.023161e+01 3.504634e+01 3.461429e+01 2.275423e+01 3.847329e+01 2.783138e+01 1.667355e+01 2.129648e+01 1.278155e+01 1.453963e+01 6.251400e+00 2.941485e+00 2.354528e+00 3.105247e+00 2.260732e+00 2.577590e+00 3.257669e+00 2.887297e+00 3.191350e+00 2.294649e+00 3.393691e+00 2.053686e+00 1.831848e+00 4.836843e+00 1.008674e+00 2.785708e-01 6.193824e-01 3.661890e-01 7.807065e-01 7.743760e-01 1.199638e+00 5.410524e-01 5.129985e-01 8.089199e-01 2.670665e-01 4.252760e-01 2.924323e-01
<GCONST> 1.155092e+02
<STATE> 4
<MEAN> 39
 3.149205e+00 5.331442e-01 4.733342e+00 -1.311081e+01 -3.339143e+00 9.419095e+00 -1.919512e+01 -3.816573e+00 -6.490874e+00 8.002362e+00 4.058925e+00 -3.988271e+00 7.574881e+01 1.273826e+00 -2.757944e-01 1.096534e+00 -1.032812e+00 -5.397600e-01 1.929527e+00 1.109066e-01 -6.403834e-01 -7.665331e-01 -5.127610e-01 1.455338e+00 1.103047e+00 -6.199650e-01 -7.145736e-01 1.522548e-01 -4.799837e-01 7.572029e-01 1.963601e-01 -4.991441e-01 1.242417e+00 7.938425e-02 4.067493e-01 -8.834054e-01 -2.459733e-01 3.195999e-01 -3.138070e-01
<VARIANCE> 39
 3.243303e+00 4.990347e+00 1.678632e+01 3.488584e+01 1.907035e+01 2.269062e+01 2.261939e+01 1.567145e+01 1.302563e+01 1.750462e+01 1.788428e+01 1.010770e+01 4.358064e+00 1.377553e+00 6.944408e-01 1.554843e+00 1.486382e+00 1.780658e+00 3.290543e+00 4.981136e+00 2.059166e+00 1.364406e+00 2.667743e+00 1.157911e+00 9.314839e-01 2.170376e-01 2.071381e-01 1.509462e-01 1.498579e-01 2.732450e-01 3.093394e-01 2.485394e-01 5.846655e-01 3.077214e-01 2.360978e-01 5.479195e-01 3.915071e-01 3.142777e-01 1.680280e-01
<GCONST> 9.273721e+01
<TRANSP> 5
 0.000000e+00 1.000000e+00 0.000000e+00 0.000000e+00 0.000000e+00
 0.000000e+00 8.710714e-01 1.289286e-01 0.000000e+00 0.000000e+00
 0.000000e+00 0.000000e+00 5.789750e-01 4.210250e-01 0.000000e+00
 0.000000e+00 0.000000e+00 0.000000e+00 5.545867e-01 4.454133e-01
 0.000000e+00 0.000000e+00 0.000000e+00 0.000000e+00 0.000000e+00
<ENDHMM>
~h "e"
<BEGINHMM>
<NUMSTATES> 5
<STATE> 2
<MEAN> 39
 -4.173808e+00 2.483092e-01 2.237585e+01 -7.279275e+00 -1.628313e+01 1.338650e+00 -1.474696e+01 6.239443e+00 -1.650910e+01 -4.716084e-02 9.245703e-01 2.144075e+00 7.429704e+01 2.375996e-01 -4.386861e-01 -6.586310e-01 3.706175e-02 -2.709053e-01 -4.074475e-01 6.049439e-02 5.180651e-01 4.589044e-01 8.349181e-02 5.740120e-02 2.046604e-01 3.214455e-01 1.079414e-01 -1.097418e-01 -3.600199e-01 1.518858e-01 1.346636e-01 -8.657642e-02 -1.445821e-02 1.748952e-01 2.313486e-01 2.582983e-03 -5.573123e-02 -9.528778e-02 1.937535e-02
<VARIANCE> 39
 9.943769e+00 2.150757e+01 1.821909e+01 1.291785e+01 2.932289e+01 1.524589e+01 1.824235e+01 3.519950e+01 1.672078e+01 2.195960e+01 1.388649e+01 1.194411e+01 1.389374e+01 5.620610e-01 1.360512e+00 1.795269e+00 7.715371e-01 1.848841e+00 1.169979e+00 1.156090e+00 1.626267e+00 1.381586e+00 1.042802e+00 7.267092e-01 5.959499e-01 4.658887e-01 7.286654e-02 1.532716e-01 1.632192e-01 1.587474e-01 3.140448e-01 2.053302e-01 2.762346e-01 1.980090e-01 2.602097e-01 1.706781e-01 1.550921e-01 1.084776e-01 6.138422e-02
<GCONST> 8.515955e+01
<STATE> 3
<MEAN> 39
 -3.352379e-01 -5.339821e+00 9.147919e+00 -5.278440e+00 -1.557474e+01 -8.269960e-01 -1.509881e+01 1.618489e+01 -9.227361e+00 1.244553e+00 -2.626922e+00 -3.094796e-01 7.783157e+01 5.324887e-01 -1.423981e-01 -2.159758e+00 3.966596e-01 1.769203e+00 2.576159e-01 -3.751244e-01 7.412730e-01 1.360304e+00 6.896354e-02 -1.077409e+00 -1.241832e+00 -3.160024e-01 3.910830e-03 2.789471e-01 1.382412e-01 -6.380496e-03 2.012914e-01 3.457071e-01 5.300256e-02 -4.311499e-01 -1.939616e-01 9.116570e-02 1.291815e-01 -2.978056e-01 -3.469631e-01
<VARIANCE> 39
 4.762549e+00 8.558523e+00 2.691651e+01 1.167127e+01 2.714784e+01 1.307739e+01 1.206845e+01 2.074182e+01 2.012772e+01 1.526610e+01 2.325923e+01 2.613589e+01 6.473464e+00 3.294321e-01 7.304382e-01 1.502107e+00 1.031925e+00 1.407648e+00 1.587005e+00 1.768667e+00 1.868701e+00 2.207605e+00 1.061128e+00 1.184942e+00 1.289628e+00 5.326907e-01 4.687752e-02 8.535373e-02 1.946684e-01 1.834600e-01 2.526567e-01 2.363886e-01 2.798089e-01 2.944536e-01 3.786409e-01 2.515028e-01 3.331283e-01 2.441966e-01 6.670386e-02
<GCONST> 8.645805e+01
<STATE> 4
<MEAN> 39
 1.496504e+00 -1.112866e+00 4.052914e+00 -8.877999e-01 -5.601118e+00 2.120800e+00 -1.196009e+01 1.229971e+01 -6.937867e+00 1.864738e+00 -4.540025e+00 -5.350782e+00 6.685416e+01 -1.496737e-01 6.359158e-01 -2.557588e-01 1.182832e+00 9.689221e-01 4.521016e-01 1.419370e+00 -1.850656e+00 1.757953e-01 -6.793535e-02 4.299948e-01 -2.609951e-01 -2.798426e+00 -2.520656e-01 -1.321408e-01 3.673380e-01 -4.333148e-02 -4.206735e-01 -1.257716e-01 2.060967e-01 -2.175744e-01 -1.207513e-01 -8.668425e-02 7.937679e-02 4.440095e-01 -9.454124e-02
<VARIANCE> 39
 9.073286e+00 1.328515e+01 3.801221e+01 3.236789e+01 2.882298e+01 2.916232e+01 3.964561e+01 6.280008e+01 2.970129e+01 2.455906e+01 3.400802e+01 3.747061e+01 7.688367e+01 1.239139e+00 1.453677e+00 2.446399e+00 2.303364e+00 2.676485e+00 1.808832e+00 2.707777e+00 3.722886e+00 4.008750e+00 2.333282e+00 2.629064e+00 2.853583e+00 1.676653e+00 1.606230e-01 3.017434e-01 5.423423e-01 5.767382e-01 4.635787e-01 3.243130e-01 6.837878e-01 6.566951e-01 7.263864e-01 3.306302e-01 5.587264e-01 4.256981e-01 4.329512e-01
<GCONST> 1.166118e+02
<TRANSP> 5
 0.000000e+00 1.000000e+00 0.000000e+00 0.000000e+00 0.000000e+00
 0.000000e+00 8.641409e-01 1.358591e-01 0.000000e+00 0.000000e+00
 0.000000e+00 0.000000e+00 8.041579e-01 1.958421e-01 0.000000e+00
 0.000000e+00 0.000000e+00 0.000000e+00 8.159213e-01 1.840787e-01
 0.000000e+00 0.000000e+00 0.000000e+00 0.000000e+00 0.000000e+00
<ENDHMM>
~h "f"
<BEGINHMM>
<NUMSTATES> 5
<STATE> 2
<MEAN> 39
 -1.269355e+01 -1.114754e+00 -5.366050e+00 1.667642e+00 -3.277987e+00 2.850222e+00 -3.767736e+00 -1.131688e-01 -1.937941e+00 1.017610e+00 -1.909387e+00 5.773411e-02 6.905476e+01 -3.661999e-01 7.460902e-02 -3.815220e-01 1.574392e-01 -4.824474e-01 -9.975162e-02 -2.794511e-01 -8.703244e-02 -2.038325e-01 -1.468044e-01 -7.946526e-02 4.618268e-02 9.777444e-01 3.500298e-01 8.576681e-02 -1.860299e-02 -1.102210e-01 5.234830e-02 -6.663446e-03 3.035070e-02 3.040214e-02 -6.101476e-03 -2.722249e-02 4.514594e-02 -7.232983e-02 -1.873615e-01
<VARIANCE> 39
 1.824368e+01 1.520914e+01 1.261152e+01 1.170042e+01 1.994640e+01 1.461762e+01 1.473812e+01 1.235355e+01 1.354537e+01 1.562695e+01 1.287094e+01 1.090901e+01 1.882721e+01 1.747077e+00 7.914842e-01 7.712958e-01 9.448144e-01 1.683649e+00 1.759167e+00 1.588355e+00 1.523998e+00 1.655924e+00 1.954534e+00 1.422817e+00 1.311303e+00 7.301992e-01 1.093847e-01 1.575658e-01 1.649656e-01 2.007609e-01 3.358569e-01 3.309851e-01 3.216140e-01 3.168270e-01 3.800973e-01 4.031744e-01 3.001867e-01 2.376685e-01 1.201549e-01
<GCONST> 9.128899e+01
<STATE> 3
<MEAN> 39
 -5.301462e+00 6.467304e-01 -6.608985e+00 -2.535818e+00 -3.534907e+00 -2.102125e+00 -4.772476e+00 -1.467957e+00 -2.665696e+00 -1.641189e+00 -1.244298e+00 -2.813502e+00 7.416406e+01 7.050508e-01 4.219583e-01 3.669624e-02 -1.031825e-01 1.278189e-01 -6.176100e-02 1.740081e-01 -6.997311e-02 5.923487e-02 -1.810521e-01 9.505454e-02 -7.218943e-02 -4.119582e-01 1.745783e-01 1.062612e-01 1.947225e-01 -1.642185e-01 3.964656e-02 2.662527e-01 1.133335e-01 1.089196e-01 -6.686997e-03 9.409421e-02 4.032482e-02 8.453885e-02 -2.547208e-01
<VARIANCE> 39
 1.191741e+01 7.810020e+00 1.379819e+01 1.631223e+01 1.465669e+01 1.505196e+01 1.340091e+01 1.278185e+01 1.350921e+01 1.296059e+01 1.337855e+01 1.084772e+01 1.176440e+01 1.093582e+00 7.002674e-01 8.600949e-01 1.072215e+00 1.067327e+00 1.397810e+00 1.312869e+00 1.560746e+00 1.490388e+00 1.684376e+00 1.460963e+00 1.108002e+00 1.093610e+00 1.372706e-01 1.091523e-01 1.943305e-01 4.281760e-01 2.561711e-01 3.481711e-01 2.741104e-01 3.518328e-01 3.244303e-01 3.012843e-01 2.923879e-01 2.123355e-01 6.896972e-02
<GCONST> 8.781422e+01
<STATE> 4
<MEAN> 39
 9.227244e-01 4.838484e+00 -5.015983e+00 -7.176735e+00 -7.350226e+00 3.423758e+00 -3.148872e+00 1.611605e+00 -3.339115e+00 -1.735287e+00 -8.395705e-01 -1.531354e+00 7.054939e+01 2.165836e+00 2.438357e-01 9.269714e-01 -3.546170e+00 -1.706800e+00 1.229316e+00 1.397430e-01 1.184474e+00 -7.807668e-01 1.094573e-01 -1.230047e-01 3.460484e-01 -8.171277e-02 -3.990090e-01 -4.481739e-01 -8.250044e-02 -2.187352e-01 -2.669152e-01 6.406977e-03 -1.790408e-01 8.614501e-02 -1.646675e-01 1.415073e-01 -1.308934e-01 8.935890e-02 3.178518e-01
<VARIANCE> 39
 2.711206e+01 1.295026e+01 1.338597e+01 1.123257e+02 6.112231e+01 2.682496e+01 1.897875e+01 2.721610e+01 2.072331e+01 1.344168e+01 1.292195e+01 1.352689e+01 5.290088e+01 3.686005e+00 2.638814e+00 1.484235e+00 1.298372e+01 4.753281e+00 4.257064e+00 2.835468e+00 2.081536e+00 2.758016e+00 1.341181e+00 1.728401e+00 1.548976e+00 4.143682e+00 4.715304e-01 2.834802e-01 2.683442e-01 2.160046e+00 7.483199e-01 6.748071e-01 3.827203e-01 5.271125e-01 4.883644e-01 2.853773e-01 3.115391e-01 2.840839e-01 2.372772e-01
<GCONST> 1.163199e+02
<TRANSP> 5
 0.000000e+00 1.000000e+00 0.000000e+00 0.000000e+00 0.000000e+00
 0.000000e+00 8.943899e-01 1.056101e-01 0.000000e+00 0.000000e+00
 0.000000e+00 0.000000e+00 8.392751e-01 1.607249e-01 0.000000e+00
 0.000000e+00 0.000000e+00 0.000000e+00 7.580752e-01 2.419249e-01
 0.000000e+00 0.000000e+00 0.000000e+00 0.000000e+00 0.000000e+00
<ENDHMM>
~h "g"
<BEGINHMM>
<NUMSTATES> 5
<STATE> 2
<MEAN> 39
 5.182891e+00 7.003133e+00 9.494193e+00 -1.276890e+00 -8.791836e+00 3.361211e+00 -5.336119e+00 -2.429933e+00 -8.907382e+00 -4.559623e-01 3.732242e-01 -7.333689e+00 5.501775e+01 -1.043951e+00 -2.890303e-01 -1.635348e+00 -9.538062e-01 1.146799e+00 -1.060751e-01 3.296962e-01 4.338383e-01 4.572195e-01 -9.142839e-02 -5.118592e-01 4.163721e-01 9.277582e-01 -4.477409e-01 -4.375646e-01 -7.035392e-01 -1.008894e+00 2.604006e-01 2.609120e-01 -5.069382e-01 5.566016e-01 1.288283e-01 4.439415e-02 2.339782e-01 1.704825e-01 1.213461e+00
<VARIANCE> 39
 9.342045e+00 2.350846e+01 2.208636e+01 3.346012e+01 5.008614e+01 3.998409e+01 3.843525e+01 3.904282e+01 2.865986e+01 3.581231e+01 2.925680e+01 2.523958e+01 1.878824e+01 2.768337e+00 2.484343e+00 6.424286e+00 9.860536e+00 7.541443e+00 4.774971e+00 4.417421e+00 5.498155e+00 2.998223e+00 2.403159e+00 2.229264e+00 2.221610e+00 8.116694e+00 3.360204e-01 3.718144e-01 5.983350e-01 1.167931e+00 1.363209e+00 7.846061e-01 6.899728e-01 7.233794e-01 5.259199e-01 5.236326e-01 4.873891e-01 3.598966e-01 8.964818e-01
<GCONST> 1.273756e+02
<STATE> 3
<MEAN> 39
 -3.753893e+00 3.093666e+00 -4.591386e+00 -1.481179e+01 -8.252030e-01 4.645068e+00 -7.063514e+00 3.611058e+00 -6.552612e+00 -2.744072e-02 6.074646e-01 -4.625683e+00 7.006314e+01 -2.859007e-01 5.665365e-02 -1.775291e-01 -2.550286e+00 -2.509694e-01 3.652420e-01 -6.232427e-01 3.132207e-01 -6.551141e-01 -7.771864e-01 8.804023e-01 4.874240e-01 3.338437e+00 1.142774e+00 3.240486e-01 1.824131e+00 7.835809e-01 -1.101550e+00 -1.076587e-01 -6.501003e-02 -4.978343e-01 -6.085523e-01 -3.114739e-01 7.470233e-02 -1.856595e-01 -8.547205e-01
<VARIANCE> 39
 2.193522e+01 6.020306e+01 5.682627e+01 1.560327e+02 3.631620e+01 7.547309e+01 4.024607e+01 4.663102e+01 3.030318e+01 4.120270e+01 2.732137e+01 1.818726e+01 2.900966e+01 4.571893e+00 3.158761e+00 1.155474e+01 8.686201e+00 6.132378e+00 5.269553e+00 4.193954e+00 5.016580e+00 4.420750e+00 3.935234e+00 1.656060e+00 1.940791e+00 4.475298e+00 3.594015e-01 5.769222e-01 9.299192e-01 1.469826e+00 9.912242e-01 1.199465e+00 9.795409e-01 8.811202e-01 6.471543e-01 6.290212e-01 4.192832e-01 4.215319e-01 5.722824e-01
<GCONST> 1.350104e+02
<STATE> 4
<MEAN> 39
 3.803058e+00 6.173800e+00 5.696574e+00 -1.960670e+01 -9.034493e+00 7.352134e+00 -8.646979e+00 1.538376e+00 -1.403237e+01 -5.556232e+00 3.702316e+00 -4.237731e+00 7.207449e+01 1.325640e+00 -7.977406e-01 1.148429e+00 -5.565090e-02 -1.888973e+00 7.108736e-01 -1.250060e+00 2.974753e-01 -1.490587e+00 1.004937e-01 1.519041e-01 3.144783e-01 9.047847e-01 -2.418796e-01 -2.063721e-01 -8.126544e-01 5.249491e-01 2.697347e-01 9.446141e-02 1.264595e-02 -3.179630e-02 3.693482e-01 4.763544e-01 -9.718968e-02 9.922843e-02 -2.823229e-01
<VARIANCE> 39
 1.181816e+01 4.240141e+01 2.821625e+01 6.052887e+01 3.619474e+01 4.443526e+01 4.743723e+01 4.497451e+01 3.101494e+01 4.205086e+01 2.483286e+01 1.887650e+01 1.371578e+01 1.372406e+00 1.689899e+00 5.234535e+00 2.063345e+00 2.192141e+00 2.940953e+00 2.857923e+00 2.463179e+00 3.732065e+00 3.816999e+00 2.100510e+00 1.912141e+00 1.175470e+00 2.549938e-01 3.280543e-01 5.941776e-01 4.937390e-01 3.720457e-01 6.047205e-01 6.677032e-01 7.064893e-01 5.248283e-01 4.728518e-01 3.300201e-01 3.387616e-01 2.857988e-01
<GCONST> 1.167843e+02
<TRANSP> 5
 0.000000e+00 1.000000e+00 0.000000e+00 0.000000e+00 0.000000e+00
 0.000000e+00 7.815569e-01 2.184431e-01 0.000000e+00 0.000000e+00
 0.000000e+00 0.000000e+00 6.539145e-01 3.460856e-01 0.000000e+00
 0.000000e+00 0.000000e+00 0.000000e+00 6.989183e-01 3.010816e-01
 0.000000e+00 0.000000e+00 0.000000e+00 0.000000e+00 0.000000e+00
<ENDHMM>
~h "i"
<BEGINHMM>
<NUMSTATES> 5
<STATE> 2
<MEAN> 39
 -3.487303e+00 -1.701273e+00 2.114049e+01 -4.452749e+00 -1.776219e+01 -9.536859e-01 -1.479236e+01 5.505477e+00 -1.894683e+01 -3.577111e-01 4.802966e-01 -2.459532e-01 7.542783e+01 3.758426e-01 -7.044853e-02 -1.999717e-01 2.041134e-01 -1.952634e-01 8.457272e-02 -9.567036e-02 6.453404e-01 -2.248887e-01 1.400772e-01 1.963967e-02 -2.763459e-01 -3.123270e-01 -3.057129e-01 3.353547e-01 -6.296763e-01 2.529204e-01 5.360960e-01 -1.764993e-01 6.866738e-01 -2.750125e-01 6.923382e-01 -1.641011e-01 -7.909370e-03 2.705765e-02 -2.484321e-01
<VARIANCE> 39
 5.930458e+00 1.391365e+01 2.875905e+01 1.445988e+01 1.681782e+01 1.827761e+01 1.784644e+01 2.828525e+01 2.214767e+01 1.892095e+01 1.147770e+01 9.867033e+00 7.852521e+00 1.071859e+00 1.102528e+00 2.211224e+00 1.207748e+00 1.845621e+00 1.684274e+00 2.979832e+00 1.851276e+00 2.522104e+00 1.332565e+00 8.777235e-01 9.993644e-01 3.881630e-01 2.462205e-01 1.520829e-01 3.393524e-01 2.686609e-01 3.105668e-01 2.525764e-01 5.138839e-01 4.306559e-01 3.553639e-01 2.705439e-01 2.145265e-01 1.654579e-01 7.955351e-02
<GCONST> 9.308212e+01
<STATE> 3
<MEAN> 39
 -2.026426e+00 -5.275862e-01 1.657842e+01 -3.003458e+00 -1.548944e+01 -1.680527e+00 -1.215629e+01 9.090322e+00 -1.530827e+01 -2.148123e+00 2.006576e-01 -9.768964e-01 7.260645e+01 1.602948e-01 1.032061e+00 -1.972340e+00 1.143074e+00 1.801264e+00 -3.274300e-01 1.234084e+00 -4.086568e-01 1.986492e+00 -4.879437e-01 -2.483331e-01 -2.865318e-01 -1.511422e+00 -2.200392e-01 1.412330e-01 -1.780507e-01 2.211450e-01 4.044802e-01 1.898285e-01 3.378908e-01 -5.738684e-01 2.683278e-01 1.742331e-01 -9.297375e-02 5.247405e-02 -3.812414e-01
<VARIANCE> 39
 1.066409e+01 2.114326e+01 4.176423e+01 2.128981e+01 2.465536e+01 2.692786e+01 3.815373e+01 6.046384e+01 3.427605e+01 2.754011e+01 1.840902e+01 1.508203e+01 2.029946e+01 1.518457e+00 1.225803e+00 1.682211e+00 2.165792e+00 2.035693e+00 3.544610e+00 3.314904e+00 3.751269e+00 2.352868e+00 2.029623e+00 1.770412e+00 2.174204e+00 1.686981e+00 1.919691e-01 1.677323e-01 3.364152e-01 3.213236e-01 3.448604e-01 4.832244e-01 6.170087e-01 8.825900e-01 4.742262e-01 4.005544e-01 3.116414e-01 2.798849e-01 1.628830e-01
<GCONST> 1.094847e+02
<STATE> 4
<MEAN> 39
 -3.830891e+00 2.417571e+00 1.075478e+01 2.449636e+00 -8.187112e+00 -1.888850e+00 -6.946811e+00 3.696004e+00 -7.873204e+00 -2.710565e+00 -1.627923e-01 -5.527405e-01 6.054930e+01 -5.904027e-01 1.275053e-01 -1.382315e+00 7.930570e-01 1.302954e+00 2.887416e-01 8.888120e-01 -1.222998e+00 1.036658e+00 2.025422e-01 8.233816e-02 -2.634970e-02 -1.866085e+00 -2.098334e-01 -2.515604e-01 9.333998e-02 -3.252750e-01 -2.406946e-01 1.830116e-01 -1.253737e-01 5.386243e-02 -3.299226e-01 2.012848e-01 9.581449e-02 7.723814e-02 3.106475e-01
<VARIANCE> 39
 2.435402e+01 2.649341e+01 4.378518e+01 3.134272e+01 2.926910e+01 3.276888e+01 4.572411e+01 6.142450e+01 3.825103e+01 3.040778e+01 2.452758e+01 3.008060e+01 1.061981e+02 2.121148e+00 2.057482e+00 2.753433e+00 2.135757e+00 2.714706e+00 3.042910e+00 3.652096e+00 4.042165e+00 3.342904e+00 2.571669e+00 2.302561e+00 2.188859e+00 3.394908e+00 3.388806e-01 3.313740e-01 5.223249e-01 3.332759e-01 5.094175e-01 5.251521e-01 6.829818e-01 6.774820e-01 5.807264e-01 4.563565e-01 4.101822e-01 4.552191e-01 5.382303e-01
<GCONST> 1.218955e+02
<TRANSP> 5
 0.000000e+00 1.000000e+00 0.000000e+00 0.000000e+00 0.000000e+00
 0.000000e+00 6.918041e-01 3.081959e-01 0.000000e+00 0.000000e+00
 0.000000e+00 0.000000e+00 5.313129e-01 4.686871e-01 0.000000e+00
 0.000000e+00 0.000000e+00 0.000000e+00 6.630175e-01 3.369825e-01
 0.000000e+00 0.000000e+00 0.000000e+00 0.000000e+00 0.000000e+00
<ENDHMM>
~h "k"
<BEGINHMM>
<NUMSTATES> 5
<STATE> 2
<MEAN> 39
 -7.981923e+00 -5.619661e+00 -9.920037e+00 -6.599430e+00 1.173155e+00 -8.448436e-01 -6.435814e+00 5.063473e+00 -4.988472e+00 5.830753e+00 -2.623646e+00 -3.814802e+00 6.062064e+01 -9.262617e-01 -3.934594e-01 -2.056199e+00 -1.641248e+00 3.033718e-01 -3.660924e-01 -1.174566e+00 4.397730e-01 -8.883201e-01 1.575565e+00 -1.543863e+00 -4.452922e-01 5.746755e+00 -1.378834e-01 3.863290e-01 4.569018e-01 5.132645e-01 6.064404e-02 1.898404e-01 5.454373e-01 9.981467e-02 1.495986e-01 1.574046e-01 1.688861e-01 -8.836703e-02 -3.075459e-01
<VARIANCE> 39
 1.805828e+01 5.665302e+01 5.110199e+01 1.094252e+02 2.616227e+01 4.500586e+01 5.558192e+01 1.815934e+01 3.720151e+01 3.519111e+01 3.216267e+01 2.658320e+01 1.932366e+02 2.506142e+00 5.328386e+00 4.516340e+00 9.340407e+00 2.985398e+00 3.966532e+00 7.723336e+00 2.617268e+00 4.054662e+00 2.942424e+00 3.513868e+00 3.217220e+00 1.116838e+01 3.428877e-01 7.219990e-01 1.232290e+00 1.606385e+00 4.687105e-01 6.437817e-01 1.249108e+00 4.057725e-01 8.021824e-01 5.605515e-01 7.486758e-01 4.644451e-01 4.235681e+00
<GCONST> 1.365434e+02
<STATE> 3
<MEAN> 39
 -1.142162e+01 -6.172098e+00 -5.202374e+00 9.003116e-01 7.122690e+00 -2.224362e+00 -3.867586e+00 7.902608e+00 -4.012367e+00 1.144328e+01 -6.111023e+00 -3.458798e+00 6.647784e+01 5.045670e-01 9.874758e-01 8.570951e-01 8.467396e-01 2.891318e-01 3.885179e-01 1.292989e+00 -1.149036e-01 4.249991e-01 -4.222997e-01 1.610689e-01 -1.315608e-01 -8.728875e-01 4.423767e-01 4.410328e-02 1.456740e-01 -1.044923e-01 -1.939421e-01 2.645485e-02 -6.387726e-02 -3.547417e-02 -6.734333e-02 -3.487605e-01 2.079329e-01 2.085135e-02 -4.834729e-01
<VARIANCE> 39
 2.405367e+01 2.286036e+01 4.115107e+01 4.577665e+01 2.224106e+01 2.702693e+01 4.489776e+01 2.421714e+01 2.621589e+01 2.934236e+01 2.155172e+01 1.998012e+01 4.278293e+01 2.302095e+00 1.341297e+00 2.137574e+00 1.536829e+00 1.773747e+00 2.050059e+00 2.433162e+00 2.087074e+00 2.018426e+00 2.610310e+00 1.591001e+00 1.734711e+00 2.190004e+00 6.307739e-01 2.580933e-01 5.890093e-01 3.014551e-01 3.402302e-01 4.601890e-01 6.752911e-01 4.589349e-01 4.045931e-01 4.751424e-01 4.049941e-01 3.585680e-01 5.076288e-01
<GCONST> 1.132526e+02
<STATE> 4
<MEAN> 39
 -2.707560e+00 1.880367e+00 -5.861634e+00 -9.392635e+00 -4.736028e-01 8.394568e-01 -2.585474e+00 7.882229e+00 -7.488929e+00 6.142171e+00 -1.832826e+00 -6.708488e+00 7.224341e+01 2.955644e+00 -3.497707e-01 1.515534e+00 -1.733434e+00 -1.750399e+00 8.263008e-02 -1.623501e+00 9.886557e-01 -1.074869e+00 -1.187963e+00 8.891444e-01 1.702091e-02 7.593444e-01 -7.968300e-02 -5.962571e-01 -3.718698e-01 -4.270310e-01 -2.204810e-01 2.124200e-01 -4.297994e-01 -1.428810e-01 -6.864904e-03 -3.430515e-02 -5.438224e-02 8.461691e-02 1.041461e-01
<VARIANCE> 39
 4.107957e+01 6.532972e+01 3.068493e+01 1.256362e+02 4.608157e+01 3.640840e+01 8.606221e+01 4.088235e+01 3.925512e+01 5.068719e+01 3.602826e+01 2.012140e+01 7.312122e+01 3.312090e+00 2.490124e+00 4.331241e+00 3.813986e+00 3.176131e+00 3.030279e+00 5.277168e+00 2.916249e+00 3.404810e+00 2.186630e+00 1.650470e+00 2.543715e+00 2.665725e+00 1.033476e+00 3.250262e-01 5.282627e-01 9.007002e-01 8.204023e-01 5.282310e-01 1.283315e+00 7.099397e-01 6.804807e-01 6.908738e-01 3.529950e-01 3.132306e-01 2.194354e-01
<GCONST> 1.289929e+02
<TRANSP> 5
 0.000000e+00 1.000000e+00 0.000000e+00 0.000000e+00 0.000000e+00
 0.000000e+00 7.683159e-01 2.316841e-01 0.000000e+00 0.000000e+00
 0.000000e+00 0.000000e+00 8.126844e-01 1.873156e-01 0.000000e+00
 0.000000e+00 0.000000e+00 0.000000e+00 6.820767e-01 3.179233e-01
 0.000000e+00 0.000000e+00 0.000000e+00 0.000000e+00 0.000000e+00
<ENDHMM>
~h "l"
<BEGINHMM>
<NUMSTATES> 5
<STATE> 2
<MEAN> 39
 5.987903e+00 9.708773e+00 6.724734e+00 -2.747486e+01 -8.651048e+00 9.091452e+00 -1.206578e+01 1.218058e+01 -1.764562e+01 -4.047590e+00 1.676251e+00 -7.962357e+00 6.889991e+01 -5.472451e-01 -3.460819e-01 -3.861687e-01 -2.650498e-01 2.022435e+00 -4.118274e-01 1.242095e+00 -2.163045e+00 -1.093247e+00 4.218013e-01 1.142666e-02 1.554626e+00 2.813646e-01 -2.085898e-01 -2.332934e-01 -4.273327e-01 3.188966e-01 2.479820e-01 7.042020e-02 -2.703366e-01 -6.279592e-01 3.558370e-01 2.977838e-01 2.261230e-01 3.276406e-01 4.667854e-01
<VARIANCE> 39
 3.923376e+00 9.350769e+00 2.309257e+01 1.560906e+01 1.988758e+01 1.734970e+01 2.098779e+01 4.022020e+01 3.861189e+01 2.417204e+01 1.347115e+01 1.997518e+01 4.561518e+00 3.372598e-01 6.606453e-01 1.284048e+00 1.007860e+00 1.733358e+00 1.326803e+00 1.923232e+00 2.904889e+00 2.107986e+00 2.100411e+00 2.337414e+00 2.058136e+00 5.896575e-01 4.055361e-02 9.790223e-02 1.428792e-01 3.047375e-01 3.069105e-01 2.116032e-01 4.762340e-01 3.582651e-01 5.511285e-01 2.932031e-01 4.058418e-01 5.125265e-01 2.719680e-02
<GCONST> 9.137749e+01
<STATE> 3
<MEAN> 39
 2.966540e+00 7.805777e+00 2.373851e+00 -2.473060e+01 -1.948891e+00 7.892980e+00 -9.791621e+00 -1.565725e-02 -1.782251e+01 -1.334384e+00 3.741881e+00 -1.322880e+00 7.253075e+01 -6.928656e-01 -1.905406e+00 -6.940098e-01 1.974091e+00 7.345197e-01 3.129906e-01 -1.878639e+00 -2.931927e+00 1.629097e+00 1.871480e+00 1.139797e+00 -1.173491e-02 1.664069e+00 1.903208e-01 -5.007751e-01 4.678758e-01 5.349375e-01 -7.704208e-01 3.172998e-02 -9.631914e-01 8.234316e-01 6.747885e-01 2.404513e-01 -2.050250e-01 -9.454644e-01 7.558633e-02
<VARIANCE> 39
 6.975965e+00 1.571721e+01 2.343206e+01 2.524891e+01 2.389829e+01 2.460101e+01 2.416455e+01 3.415555e+01 2.923485e+01 2.668300e+01 1.851586e+01 1.713828e+01 7.566669e+00 3.926979e-01 7.378546e-01 1.192794e+00 1.692564e+00 1.973864e+00 2.092326e+00 3.489065e+00 3.532446e+00 3.309223e+00 2.399005e+00 2.901758e+00 3.278228e+00 2.753797e-01 8.192167e-02 1.485760e-01 2.080930e-01 2.956071e-01 4.059253e-01 4.089552e-01 5.581015e-01 5.891663e-01 5.594053e-01 2.874330e-01 7.106200e-01 4.308040e-01 9.668875e-02
<GCONST> 1.012685e+02
<STATE> 4
<MEAN> 39
 2.500603e+00 5.167823e-01 3.476970e+00 -1.803132e+01 -3.949754e+00 8.832031e+00 -1.931276e+01 -2.998242e+00 -1.093238e+01 4.291740e+00 5.726981e+00 -6.650251e+00 7.697603e+01 -8.178914e-02 -2.240110e+00 1.005656e+00 2.507268e+00 -1.090608e+00 -8.228463e-01 -2.459089e+00 1.092559e+00 1.662010e+00 1.177114e+00 -1.135039e+00 -1.138631e+00 8.387873e-01 9.638003e-02 2.753624e-01 3.812134e-01 -8.637257e-02 -3.123650e-01 -3.931963e-01 4.931991e-01 1.160554e+00 -6.711017e-01 -6.270452e-01 -6.902127e-01 4.169677e-01 -4.544189e-01
<VARIANCE> 39
 3.567489e+00 1.075711e+01 3.129529e+01 2.123963e+01 1.480742e+01 1.945244e+01 3.015042e+01 1.891117e+01 2.569219e+01 3.270472e+01 2.388095e+01 2.076482e+01 4.999864e+00 3.874864e-01 6.573164e-01 1.159156e+00 2.045435e+00 1.496445e+00 2.374482e+00 1.930577e+00 2.432148e+00 2.446733e+00 2.582615e+00 2.081996e+00 1.515935e+00 3.883379e-01 4.257524e-02 7.832661e-02 1.494674e-01 1.588622e-01 2.116053e-01 3.012426e-01 3.154148e-01 3.984514e-01 4.904520e-01 2.313219e-01 3.318590e-01 3.815491e-01 3.503399e-02
<GCONST> 9.087459e+01
<TRANSP> 5
 0.000000e+00 1.000000e+00 0.000000e+00 0.000000e+00 0.000000e+00
 0.000000e+00 7.028894e-01 2.971105e-01 0.000000e+00 0.000000e+00
 0.000000e+00 0.000000e+00 6.092896e-01 3.907104e-01 0.000000e+00
 0.000000e+00 0.000000e+00 0.000000e+00 6.064330e-01 3.935670e-01
 0.000000e+00 0.000000e+00 0.000000e+00 0.000000e+00 0.000000e+00
<ENDHMM>
~h "m"
<BEGINHMM>
<NUMSTATES> 5
<STATE> 2
<MEAN> 39
 4.016517e+00 3.643345e+00 6.584307e+00 -5.380116e+00 -1.342887e+01 1.990252e+01 -4.706586e+00 -2.438144e+00 -1.448430e+01 -1.011107e+01 -1.910928e+00 -1.412667e+01 6.780285e+01 1.280812e-02 -7.999208e-02 2.362006e-01 -5.225039e-03 -4.538327e-02 5.242784e-01 -4.803234e-02 2.453488e-01 -2.839332e-01 -3.519299e-01 4.195796e-02 -3.989080e-01 -9.476516e-02 4.941389e-02 8.470319e-02 -3.451530e-01 -6.541984e-02 -1.015912e-01 -3.924801e-01 -4.911522e-02 3.075523e-02 4.137194e-01 2.807728e-01 5.890571e-02 2.935414e-01 1.166001e-01
<VARIANCE> 39
 3.885927e+00 1.010379e+01 9.947145e+00 1.866503e+01 2.105066e+01 2.414725e+01 9.775517e+00 1.679752e+01 1.960093e+01 2.774409e+01 1.696984e+01 2.178207e+01 3.622086e+00 1.778418e-01 2.258619e-01 4.282750e-01 4.382246e-01 5.805373e-01 8.665655e-01 4.865396e-01 5.804456e-01 8.843609e-01 8.117478e-01 4.905664e-01 6.594616e-01 1.114375e-01 5.485085e-02 4.730864e-02 1.838799e-01 1.057064e-01 1.319612e-01 2.956624e-01 1.134421e-01 1.288133e-01 2.923035e-01 1.709329e-01 1.053106e-01 1.916714e-01 4.016634e-02
<GCONST> 6.743002e+01
<STATE> 3
<MEAN> 39
 4.350191e+00 3.394617e+00 5.373539e+00 -7.436681e+00 -1.163815e+01 1.674010e+01 -5.078043e+00 -4.883001e-01 -1.494871e+01 -7.291265e+00 -2.966282e+00 -1.211657e+01 6.798687e+01 -1.331284e-01 7.759928e-01 -1.817824e+00 -2.920477e-01 -4.446588e-01 -2.872536e+00 -2.291208e-01 1.094014e-01 2.211163e+00 1.008646e+00 8.207915e-01 1.609221e+00 8.448098e-01 1.630927e-01 2.621829e-01 -6.349031e-01 -4.201917e-01 -3.432837e-01 -5.431585e-01 -2.586610e-01 3.474387e-01 5.305888e-01 3.183893e-01 4.177420e-01 5.183748e-01 3.097323e-01
<VARIANCE> 39
 3.966026e+00 1.186640e+01 1.462751e+01 2.592249e+01 2.234542e+01 3.079652e+01 1.405373e+01 2.195816e+01 2.686493e+01 2.491813e+01 1.629109e+01 1.911445e+01 4.318073e+00 7.222835e-01 1.025341e+00 1.741488e+00 1.338793e+00 2.436278e+00 3.912923e+00 1.553791e+00 1.810573e+00 2.475976e+00 1.483167e+00 1.573232e+00 2.291220e+00 6.072133e-01 8.057670e-02 1.250099e-01 2.027304e-01 1.963893e-01 3.300177e-01 6.946945e-01 2.641330e-01 4.023625e-01 3.754485e-01 2.208790e-01 2.287830e-01 2.863579e-01 6.511656e-02
<GCONST> 9.387962e+01
<STATE> 4
<MEAN> 39
 5.553672e+00 7.670329e+00 -3.417977e+00 -1.345561e+01 -1.529190e+01 7.817836e+00 -8.034815e+00 4.577467e+00 -6.258199e+00 -3.468399e+00 1.723040e+00 -5.180031e+00 7.237128e+01 4.069110e-01 6.456639e-01 -9.032149e-01 -2.173538e+00 -2.732987e-01 1.583180e-01 -1.423633e+00 2.419989e+00 4.412019e-01 4.648795e-01 5.633103e-01 6.404736e-01 6.549692e-01 -8.527260e-02 -2.150458e-01 7.318507e-01 -9.998234e-02 3.492898e-01 7.099499e-01 -2.387274e-01 2.775061e-01 -7.605703e-01 -2.148689e-01 -3.238494e-01 -5.357312e-01 -2.043956e-01
<VARIANCE> 39
 1.000354e+01 2.033657e+01 2.085243e+01 4.874134e+01 2.931979e+01 5.762986e+01 3.202356e+01 5.076708e+01 2.616667e+01 2.313198e+01 3.160242e+01 2.201598e+01 7.660563e+00 8.414710e-01 1.287233e+00 3.109481e+00 2.174093e+00 4.108429e+00 5.566753e+00 3.523649e+00 2.471523e+00 4.392319e+00 2.395855e+00 3.077248e+00 2.824959e+00 5.702916e-01 2.099811e-01 1.228239e-01 3.044879e-01 5.198710e-01 6.279950e-01 1.191922e+00 5.265489e-01 6.224693e-01 5.011356e-01 4.569027e-01 6.263905e-01 4.130679e-01 8.086437e-02
<GCONST> 1.127218e+02
<TRANSP> 5
 0.000000e+00 1.000000e+00 0.000000e+00 0.000000e+00 0.000000e+00
 0.000000e+00 8.401961e-01 1.598040e-01 0.000000e+00 0.000000e+00
 0.000000e+00 0.000000e+00 5.653648e-01 4.346351e-01 0.000000e+00
 0.000000e+00 0.000000e+00 0.000000e+00 7.449425e-01 2.550575e-01
 0.000000e+00 0.000000e+00 0.000000e+00 0.000000e+00 0.000000e+00
<ENDHMM>
~h "n"
<BEGINHMM>
<NUMSTATES> 5
<STATE> 2
<MEAN> 39
 3.598265e+00 4.009042e-02 9.358276e+00 3.334312e-01 -1.281145e+01 1.042302e+01 -1.132293e+01 -3.790361e+00 -1.285361e+01 5.042068e+00 -2.586518e+00 -8.575013e+00 6.832965e+01 9.341160e-02 1.278528e-01 7.444082e-01 3.141804e-02 -2.895725e-01 8.436566e-01 -3.731829e-02 -1.040207e+00 -1.444962e-01 1.063176e-02 -3.093351e-02 2.179899e-01 -4.626598e-01 -1.705565e-01 1.268118e-01 -5.026296e-01 -2.587476e-01 2.985401e-01 -3.952219e-01 -8.705731e-02 7.954112e-01 1.329069e-01 -1.913912e-01 8.814736e-02 6.422035e-02 2.790979e-01
<VARIANCE> 39
 2.934134e+00 6.007992e+00 1.372593e+01 1.092619e+01 1.823629e+01 2.371172e+01 2.152437e+01 2.332977e+01 1.535188e+01 2.009903e+01 1.484512e+01 1.617917e+01 5.688282e+00 2.109507e-01 4.703600e-01 2.519126e+00 8.647934e-01 1.162876e+00 1.758924e+00 1.839304e+00 3.902630e+00 1.178223e+00 1.429012e+00 1.363714e+00 1.146276e+00 4.292060e-01 5.631432e-02 8.552114e-02 4.192162e-01 2.023631e-01 2.806349e-01 3.093068e-01 3.684040e-01 4.863984e-01 2.513723e-01 2.746638e-01 2.706131e-01 3.255573e-01 8.682588e-02
<GCONST> 8.656152e+01
<STATE> 3
<MEAN> 39
 3.202917e+00 2.425749e+00 8.037816e+00 -2.495433e-02 -1.242465e+01 1.106545e+01 -1.076027e+01 -2.976892e+00 -1.327114e+01 5.271679e+00 -3.069890e+00 -8.855081e+00 6.723785e+01 -1.179785e+00 1.286537e+00 -1.650648e+00 -5.515638e-01 2.137074e+00 -1.871090e+00 1.276204e+00 5.883615e-01 9.513766e-01 -6.235933e-01 2.836783e-01 4.964050e-01 2.165168e-01 -4.774102e-01 4.724673e-02 -4.660223e-01 -1.209865e-01 5.696326e-01 -6.834533e-01 2.913025e-01 4.445679e-01 4.331372e-01 -4.125231e-01 2.708524e-01 2.859345e-01 2.081752e-01
<VARIANCE> 39
 4.054564e+00 1.371070e+01 2.286222e+01 1.546333e+01 2.199744e+01 2.402560e+01 1.937086e+01 2.784589e+01 1.963264e+01 2.011094e+01 2.158102e+01 1.486366e+01 1.163018e+01 1.168421e+00 1.235477e+00 2.192926e+00 3.763786e+00 3.485958e+00 4.217986e+00 3.690932e+00 3.982403e+00 2.067602e+00 2.574507e+00 1.733674e+00 1.529336e+00 2.233195e+00 3.301330e-01 2.674387e-01 4.273212e-01 4.020859e-01 4.670628e-01 5.452306e-01 6.277527e-01 7.957422e-01 4.306081e-01 3.736747e-01 2.961720e-01 2.341741e-01 1.780714e-01
<GCONST> 1.071593e+02
<STATE> 4
<MEAN> 39
 -7.324408e-01 4.502017e+00 4.129635e+00 -9.274445e-01 -5.764022e+00 1.925456e+00 -4.811495e+00 -9.280415e-01 -1.095456e+01 5.859727e-01 -1.836606e-01 -7.188135e+00 6.416467e+01 -7.446430e-01 9.630037e-02 -1.035897e+00 -4.130252e-01 7.677438e-01 -6.323684e-01 2.928008e-01 1.024268e+00 8.233352e-01 -1.002933e+00 8.622490e-01 5.316401e-01 -3.151572e-01 2.279080e-02 -3.413471e-01 2.489724e-01 -6.198372e-02 -4.661694e-01 5.378279e-01 -2.696869e-01 4.712728e-02 1.863060e-03 1.561781e-01 -1.509870e-01 2.266217e-01 2.149528e-01
<VARIANCE> 39
 1.604458e+01 1.506485e+01 3.550727e+01 5.646340e+01 3.854879e+01 3.967118e+01 4.872931e+01 4.144968e+01 4.881348e+01 3.167032e+01 3.342046e+01 2.943055e+01 1.170589e+02 2.805595e+00 1.521763e+00 3.992574e+00 3.391466e+00 4.303615e+00 5.800965e+00 5.120176e+00 8.259052e+00 4.643797e+00 3.232744e+00 2.487348e+00 2.775712e+00 4.410705e+00 4.276448e-01 3.291608e-01 6.553613e-01 4.356731e-01 7.705234e-01 7.305901e-01 5.382332e-01 9.244982e-01 9.065443e-01 6.356823e-01 4.892756e-01 6.003523e-01 1.021676e+00
<GCONST> 1.296116e+02
<TRANSP> 5
 0.000000e+00 1.000000e+00 0.000000e+00 0.000000e+00 0.000000e+00
 0.000000e+00 8.056983e-01 1.943018e-01 0.000000e+00 0.000000e+00
 0.000000e+00 0.000000e+00 5.355957e-01 4.644043e-01 0.000000e+00
 0.000000e+00 0.000000e+00 0.000000e+00 7.184951e-01 2.815049e-01
 0.000000e+00 0.000000e+00 0.000000e+00 0.000000e+00 0.000000e+00
<ENDHMM>
~h "o"
<BEGINHMM>
<NUMSTATES> 5
<STATE> 2
<MEAN> 39
 5.961969e+00 2.791398e+00 -2.931952e+00 -2.280829e+01 -1.344014e+01 1.109897e+01 -6.949466e+00 4.834694e+00 -1.058019e+01 -2.447515e+00 1.672283e+00 2.140134e-01 7.690619e+01 1.385266e-01 -1.797609e-01 -1.049506e-01 -1.671694e-01 -1.538100e-01 4.989541e-01 -1.312841e-01 4.993980e-02 -5.170112e-01 -6.956004e-02 1.158210e-01 5.561839e-01 -6.869558e-02 -1.654698e-01 1.649866e-02 -1.007269e-01 5.048266e-01 3.974889e-01 -9.719115e-02 5.660927e-03 -2.196788e-01 8.199620e-02 2.180173e-01 8.123011e-02 -2.815644e-02 -1.609900e-01
<VARIANCE> 39
 6.985364e+00 1.098595e+01 2.194335e+01 2.986019e+01 3.337440e+01 4.066506e+01 1.945316e+01 2.284783e+01 2.945286e+01 2.002302e+01 3.128716e+01 2.759492e+01 1.330532e+01 4.376658e-01 6.202502e-01 9.621530e-01 1.980625e+00 2.126030e+00 1.803308e+00 1.666389e+00 1.573696e+00 1.619212e+00 1.570595e+00 1.449089e+00 1.362158e+00 5.662374e-01 1.293201e-01 9.899068e-02 2.135877e-01 4.377990e-01 3.209181e-01 3.365543e-01 3.376466e-01 3.398519e-01 3.812082e-01 3.382322e-01 2.787895e-01 2.251717e-01 8.478492e-02
<GCONST> 9.583212e+01
<STATE> 3
<MEAN> 39
 5.972877e+00 9.121649e-01 -2.168743e+00 -1.922541e+01 -1.112490e+01 1.221682e+01 -1.257358e+01 3.024637e+00 -1.600681e+01 1.397810e+00 5.523926e+00 1.331267e+00 7.683338e+01 -3.201725e-01 -7.337284e-01 -2.173881e-01 2.822391e+00 1.331004e+00 -1.968010e-01 -1.593170e+00 -7.884787e-01 6.320979e-01 1.656175e+00 5.932958e-02 -2.650786e-01 -6.328389e-01 -1.850140e-01 -1.305578e-02 3.208158e-01 5.807062e-01 1.748772e-01 -6.245331e-01 3.173667e-01 5.334746e-02 7.367771e-01 -1.935712e-01 -5.246410e-01 -3.573305e-01 -4.380561e-01
<VARIANCE> 39
 5.522278e+00 1.231695e+01 2.570503e+01 4.410460e+01 3.192708e+01 2.055134e+01 6.054618e+01 2.830023e+01 3.750166e+01 3.844133e+01 5.238952e+01 2.410021e+01 1.296658e+01 4.603968e-01 1.412670e+00 2.556803e+00 2.589835e+00 1.699122e+00 2.676930e+00 7.527065e+00 5.585340e+00 3.600994e+00 2.905168e+00 3.604677e+00 2.000683e+00 2.497591e+00 1.041454e-01 1.252984e-01 5.028877e-01 4.163638e-01 3.955542e-01 3.808075e-01 9.216941e-01 7.217242e-01 4.445542e-01 7.903375e-01 7.497586e-01 4.463553e-01 2.484829e-01
<GCONST> 1.140559e+02
<STATE> 4
<MEAN> 39
 1.601381e+00 5.954242e-01 5.064049e-01 -8.771940e+00 -6.189666e+00 7.284322e+00 -1.112424e+01 2.745464e+00 -9.913463e+00 3.250992e+00 1.696905e+00 3.616178e-01 6.729110e+01 -1.392666e+00 -8.534651e-02 7.796044e-01 2.176067e+00 7.986094e-01 -1.600769e+00 1.312730e+00 -3.722651e-01 1.301488e+00 -7.444459e-01 -5.101474e-01 7.479047e-02 -1.711573e+00 -2.364805e-01 1.268379e-01 -2.895125e-03 -5.733762e-01 -1.166926e-01 2.921431e-02 3.014574e-01 4.802222e-02 -1.309425e-01 -4.217242e-01 1.483788e-01 5.664381e-02 3.158426e-01
<VARIANCE> 39
 2.838177e+01 2.321330e+01 8.742332e+01 3.518258e+01 5.976995e+01 4.574568e+01 1.363558e+02 7.780571e+01 3.855220e+01 3.265992e+01 2.882204e+01 2.546453e+01 1.293900e+02 2.338746e+00 1.797101e+00 6.188519e+00 4.964345e+00 4.877541e+00 2.957000e+00 4.621011e+00 5.221474e+00 4.347936e+00 3.003271e+00 3.927339e+00 2.425843e+00 3.772022e+00 2.914144e-01 3.088195e-01 6.527166e-01 6.150746e-01 7.640888e-01 5.741373e-01 1.260992e+00 8.700004e-01 6.514701e-01 8.390325e-01 5.490915e-01 4.431551e-01 6.011680e-01
<GCONST> 1.322675e+02
<TRANSP> 5
 0.000000e+00 1.000000e+00 0.000000e+00 0.000000e+00 0.000000e+00
 0.000000e+00 8.471298e-01 1.528702e-01 0.000000e+00 0.000000e+00
 0.000000e+00 0.000000e+00 6.526553e-01 3.473447e-01 0.000000e+00
 0.000000e+00 0.000000e+00 0.000000e+00 6.472179e-01 3.527821e-01
 0.000000e+00 0.000000e+00 0.000000e+00 0.000000e+00 0.000000e+00
<ENDHMM>
~h "p"
<BEGINHMM>
<NUMSTATES> 5
<STATE> 2
<MEAN> 39
 -1.001613e+01 -1.678703e+00 -8.494038e-01 4.190320e+00 3.767519e-01 1.354857e+00 2.616906e+00 2.477322e+00 3.100261e-01 1.875577e+00 2.633536e+00 1.504033e+00 4.582064e+01 1.115762e+00 4.447308e-01 -1.463550e-01 -4.845392e-01 -5.980322e-01 -3.702004e-01 -6.248088e-01 -2.693048e-01 6.041269e-02 -4.063345e-01 -4.291369e-01 -1.447153e-01 6.170297e+00 5.651616e-01 1.059371e-01 1.660077e-01 -5.127466e-01 -3.906149e-01 1.258884e-02 -1.971010e-01 -7.699510e-02 -2.897112e-01 7.526787e-02 -1.035161e-01 -1.551674e-01 1.710266e+00
<VARIANCE> 39
 7.750552e+00 1.055635e+01 9.776005e+00 1.244502e+01 1.553505e+01 1.356028e+01 1.915308e+01 1.827654e+01 1.694870e+01 1.566007e+01 1.427338e+01 1.209781e+01 1.766762e+02 2.087073e+00 1.060919e+00 1.527122e+00 2.074588e+00 1.968184e+00 1.670844e+00 2.217443e+00 2.104658e+00 2.226355e+00 2.092226e+00 1.599408e+00 1.488668e+00 3.011308e+01 2.256631e-01 2.120676e-01 3.920037e-01 3.480891e-01 3.661153e-01 3.529581e-01 3.619760e-01 3.555306e-01 6.639515e-01 4.012559e-01 3.083659e-01 3.216614e-01 3.967062e+00
<GCONST> 1.071051e+02
<STATE> 3
<MEAN> 39
 -7.201677e-01 6.937287e-01 -1.381327e+00 -1.459841e+00 -4.130736e+00 -8.485842e-01 -2.919860e-01 9.374856e-01 -1.043115e+00 8.957389e-01 2.202720e-01 5.105462e-02 8.006730e+01 2.260081e+00 -3.894095e-01 2.019631e+00 -2.056778e+00 -2.190449e+00 4.210149e-01 -2.114583e+00 6.005602e-01 -2.036104e+00 7.798737e-02 4.407656e-02 -2.094161e-01 4.124940e+00 -8.169906e-01 -5.463507e-01 7.562312e-01 1.161855e-01 -1.633952e-01 4.660313e-01 -5.162634e-01 3.323920e-01 -5.003095e-01 1.234102e-01 2.585407e-01 8.091912e-02 -3.306555e+00
<VARIANCE> 39
 1.490238e+01 1.087701e+01 3.132450e+01 1.523306e+01 1.391126e+01 1.981869e+01 2.086411e+01 1.595531e+01 1.830730e+01 1.642101e+01 1.361431e+01 1.100069e+01 7.871952e+00 2.441345e+00 2.179912e+00 9.026258e+00 4.676387e+00 3.370889e+00 4.220205e+00 4.148459e+00 2.333946e+00 7.130052e+00 2.121413e+00 2.132353e+00 2.202906e+00 1.963176e+01 3.967736e-01 3.651249e-01 7.043990e-01 5.603873e-01 5.535243e-01 4.801416e-01 7.843341e-01 5.560533e-01 8.369005e-01 5.210459e-01 3.886813e-01 3.910016e-01 6.082029e-01
<GCONST> 1.164914e+02
<STATE> 4
<MEAN> 39
 2.751608e+00 -4.062774e+00 8.251657e-01 -9.583546e+00 -6.981692e+00 6.726436e+00 -8.650420e+00 5.358318e+00 -9.635457e+00 3.679554e+00 3.271106e+00 -3.713406e+00 7.932417e+01 -4.546334e-01 -1.380395e+00 1.804370e+00 -8.726087e-01 -1.186504e+00 7.603276e-01 -2.923484e+00 1.077579e+00 -1.269702e+00 2.307257e-01 -5.621063e-01 -6.725258e-01 -3.476279e-01 -8.023921e-01 2.364585e-01 -8.683793e-03 7.231349e-01 2.788069e-01 -5.878173e-01 3.373675e-01 -1.647699e-02 6.833122e-01 -3.131453e-01 -4.595795e-01 2.648790e-01 -6.225392e-01
<VARIANCE> 39
 2.261986e+01 2.086403e+01 1.485637e+02 7.291655e+01 4.412386e+01 5.109154e+01 3.847070e+01 2.066936e+01 5.133995e+01 2.477250e+01 2.424624e+01 3.180267e+01 8.471349e+00 1.375959e+00 1.605781e+00 7.213103e+00 4.623393e+00 4.388040e+00 3.351090e+00 3.075807e+00 2.645108e+00 8.460393e+00 2.644606e+00 3.711098e+00 2.513932e+00 2.120022e+00 3.390971e-01 3.827370e-01 9.025688e-01 7.621197e-01 6.047118e-01 5.346065e-01 9.666272e-01 3.880588e-01 1.133711e+00 3.571943e-01 6.070220e-01 5.337972e-01 6.630652e-01
<GCONST> 1.256654e+02
<TRANSP> 5
 0.000000e+00 1.000000e+00 0.000000e+00 0.000000e+00 0.000000e+00
 0.000000e+00 7.873914e-01 2.126085e-01 0.000000e+00 0.000000e+00
 0.000000e+00 0.000000e+00 5.872782e-01 4.127219e-01 0.000000e+00
 0.000000e+00 0.000000e+00 0.000000e+00 4.963951e-01 5.036049e-01
 0.000000e+00 0.000000e+00 0.000000e+00 0.000000e+00 0.000000e+00
<ENDHMM>
~h "r"
<BEGINHMM>
<NUMSTATES> 5
<STATE> 2
<MEAN> 39
 -1.577535e+00 -2.880596e+00 -3.590529e+00 -5.244462e+00 -5.526843e+00 5.505161e+00 -4.783704e+00 -6.403440e+00 1.126135e+00 4.936052e+00 -2.136892e+00 -1.572490e+00 7.480008e+01 3.276842e-01 -2.718795e-01 1.550138e-01 4.267826e-01 -7.174146e-01 1.423508e-01 -2.677372e-01 -4.301527e-01 3.144490e-01 -2.786841e-01 1.028373e-01 1.413597e-01 6.953783e-02 5.031026e-01 -1.396260e-01 1.404337e-01 -4.549950e-01 -2.903548e-01 2.801313e-01 -5.147294e-01 8.536824e-01 -6.930247e-01 2.576995e-01 -2.213188e-01 -6.327021e-02 1.748496e-01
<VARIANCE> 39
 3.582664e+01 1.664331e+01 3.857932e+01 3.131176e+01 2.801113e+01 2.392314e+01 3.765912e+01 5.381155e+01 3.188525e+01 3.491802e+01 2.546993e+01 2.050674e+01 2.253995e+01 5.674049e+00 1.856223e+00 1.888115e+00 4.640774e+00 4.446992e+00 2.956111e+00 4.403533e+00 6.236957e+00 4.515907e+00 3.502433e+00 2.343197e+00 2.638802e+00 3.482362e+00 9.765985e-01 3.399162e-01 4.925514e-01 1.084015e+00 9.882410e-01 5.734570e-01 8.653021e-01 1.139839e+00 8.910966e-01 6.255659e-01 3.994030e-01 4.843845e-01 7.382700e-01
<GCONST> 1.270769e+02
<STATE> 3
<MEAN> 39
 7.598489e+00 -5.191421e+00 -4.607618e+00 -7.683524e+00 -1.287582e+01 9.361584e+00 -1.043094e+01 -2.069091e+00 -4.206496e+00 7.332607e+00 -4.938890e+00 -1.556191e+00 7.598956e+01 1.677087e+00 -9.029382e-01 1.496068e+00 -1.010650e+00 -1.324148e+00 1.325374e+00 -2.068434e+00 2.686755e+00 -2.560783e+00 4.658300e-01 -5.470076e-01 -8.493025e-01 -1.773071e-01 -7.681605e-01 2.660453e-01 5.025123e-01 1.721623e-02 7.904589e-01 -1.288598e-01 4.646297e-01 -1.467289e-01 -1.147572e-01 -5.419595e-01 3.287734e-01 -1.250656e-01 -4.130513e-01
<VARIANCE> 39
 1.150585e+01 4.892480e+01 2.861667e+01 1.712070e+01 2.992511e+01 2.892870e+01 6.890803e+01 4.374834e+01 2.018432e+01 4.697894e+01 2.072267e+01 3.215372e+01 1.021449e+01 2.815710e+00 2.191125e+00 3.042553e+00 2.134890e+00 3.373715e+00 2.325439e+00 3.044447e+00 3.201890e+00 2.319759e+00 3.096754e+00 2.438000e+00 2.269592e+00 1.319613e+00 2.947498e-01 2.709901e-01 2.158189e-01 3.155652e-01 5.074385e-01 5.034065e-01 5.784464e-01 7.077493e-01 6.293486e-01 5.055398e-01 2.866794e-01 3.557339e-01 2.303485e-01
<GCONST> 1.142791e+02
<STATE> 4
<MEAN> 39
 5.793540e+00 -3.297046e+00 1.929404e+00 -6.874711e+00 -9.215093e+00 1.135513e+01 -1.072062e+01 -1.875027e+00 -8.570891e+00 3.219857e+00 -1.500973e+00 -4.632052e+00 7.018396e+01 -6.595485e-01 7.495182e-01 1.657212e+00 1.233664e-01 1.580784e+00 3.005554e-01 6.308436e-01 1.984307e-01 -1.325053e+00 -1.791841e+00 4.013867e-01 -5.654573e-01 -1.792119e+00 -3.748206e-01 2.093998e-01 -3.825712e-01 1.780775e-01 3.503467e-01 -3.674586e-01 5.749106e-01 -3.883394e-01 5.100667e-01 -8.177000e-02 -9.599444e-02 1.592055e-01 -3.049045e-02
<VARIANCE> 39
 9.258248e+00 4.669921e+01 2.739025e+01 3.403741e+01 4.540532e+01 2.477890e+01 7.381159e+01 4.869618e+01 2.496610e+01 6.262755e+01 4.534404e+01 3.001670e+01 4.500657e+01 8.122321e-01 1.710754e+00 2.889117e+00 2.459299e+00 2.049912e+00 3.443677e+00 3.334004e+00 3.078020e+00 3.671531e+00 2.917568e+00 2.547585e+00 2.887757e+00 3.165697e+00 2.814675e-01 3.990769e-01 2.692368e-01 2.648848e-01 5.882409e-01 4.445266e-01 6.830939e-01 4.996835e-01 4.148478e-01 7.382483e-01 5.642663e-01 2.868399e-01 2.741993e-01
<GCONST> 1.187248e+02
<TRANSP> 5
 0.000000e+00 1.000000e+00 0.000000e+00 0.000000e+00 0.000000e+00
 0.000000e+00 8.000138e-01 1.999862e-01 0.000000e+00 0.000000e+00
 0.000000e+00 0.000000e+00 5.722821e-01 4.277180e-01 0.000000e+00
 0.000000e+00 0.000000e+00 0.000000e+00 5.280328e-01 4.719672e-01
 0.000000e+00 0.000000e+00 0.000000e+00 0.000000e+00 0.000000e+00
<ENDHMM>
~h "s"
<BEGINHMM>
<NUMSTATES> 5
<STATE> 2
<MEAN> 39
 -1.970253e+01 5.980067e+00 -2.489575e+00 1.631224e+00 1.533741e+00 3.704551e+00 -4.615973e+00 5.008730e-01 3.880801e+00 -2.227198e+00 5.781297e-01 -5.965096e-01 7.395304e+01 -4.321129e+00 -6.387060e-01 -1.163628e+00 -1.844214e-01 1.027466e+00 -1.087205e+00 3.734849e-01 1.388846e+00 9.337898e-01 -1.244896e+00 3.824029e-01 6.492346e-01 1.342184e+00 9.088406e-01 -3.382908e-01 1.490481e-01 -9.370596e-01 -3.418967e-01 6.759052e-01 -6.957424e-01 1.615209e-01 -1.040693e+00 4.565147e-01 -7.249064e-02 -6.658215e-02 -2.038010e-01
<VARIANCE> 39
 3.320807e+01 1.713699e+01 1.972371e+01 2.347085e+01 2.618551e+01 5.535678e+01 5.989503e+01 3.881105e+01 2.530819e+01 2.089558e+01 1.524854e+01 1.729600e+01 1.105194e+01 4.054396e+00 1.820373e+00 1.297835e+00 5.983674e+00 2.749614e+00 4.294311e+00 4.396923e+00 3.148647e+00 5.322227e+00 3.001245e+00 1.736390e+00 3.134896e+00 1.294304e+00 4.491046e-01 4.550409e-01 2.701000e-01 7.957861e-01 5.074709e-01 5.609333e-01 9.040369e-01 7.024121e-01 4.758320e-01 5.335336e-01 3.396430e-01 6.096660e-01 2.574223e-01
<GCONST> 1.181674e+02
<STATE> 3
<MEAN> 39
 -2.609603e+01 3.483445e+00 -6.114132e+00 -3.027840e+00 3.621127e+00 9.721381e-01 -6.008737e+00 4.344581e+00 -7.557802e-01 -1.593573e+00 6.173419e-01 1.613191e-01 7.690604e+01 3.110635e-01 -1.583990e-01 -1.449863e-01 1.626932e-01 1.633887e-01 -6.443031e-01 2.518059e-01 6.774662e-02 -2.976429e-01 3.434767e-01 -2.592739e-01 -8.977817e-02 4.197001e-02 4.233567e-01 2.592349e-02 1.163794e-01 2.001902e-01 -4.392126e-02 -4.827755e-03 4.393842e-02 -1.128319e-01 1.562598e-01 8.308762e-02 -1.003204e-01 -6.506786e-02 -1.727571e-01
<VARIANCE> 39
 6.160352e+00 6.132654e+00 1.013141e+01 1.580653e+01 2.387370e+01 5.182505e+01 4.278087e+01 2.468349e+01 2.393459e+01 1.856645e+01 1.696806e+01 1.279635e+01 5.794326e+00 1.088865e+00 5.979537e-01 8.173532e-01 1.636575e+00 1.368358e+00 2.261311e+00 1.712716e+00 1.795854e+00 2.197010e+00 1.790685e+00 1.484041e+00 1.214843e+00 3.258872e-01 1.198213e-01 1.398710e-01 1.531517e-01 2.695043e-01 2.388915e-01 3.719987e-01 3.266637e-01 3.555917e-01 3.914912e-01 3.955996e-01 2.570589e-01 2.701481e-01 5.983963e-02
<GCONST> 9.145661e+01
<STATE> 4
<MEAN> 39
 -1.080864e+01 1.267663e+00 -4.315872e+00 -2.780949e+00 2.861956e+00 -9.587054e-01 -6.591231e+00 3.311153e+00 -9.193503e-01 5.183409e+00 -3.119896e+00 -3.464614e+00 7.327292e+01 3.886747e+00 -5.750855e-01 8.177515e-01 -1.695304e+00 -1.402631e+00 1.520062e+00 -1.858900e+00 -2.712396e-01 -7.701458e-01 1.614975e+00 -6.384543e-02 -1.104338e+00 -2.165625e-01 -1.170070e-01 -1.075010e-01 3.461999e-02 -4.287780e-01 -3.137022e-01 2.768627e-01 -3.104356e-01 1.559151e-01 -4.043930e-01 -7.852519e-02 1.861606e-01 -9.619632e-04 2.913334e-01
<VARIANCE> 39
 9.577136e+01 1.245722e+01 1.768606e+01 4.903448e+01 3.683542e+01 3.799451e+01 5.885556e+01 2.551174e+01 2.895757e+01 3.899045e+01 2.090273e+01 2.251705e+01 3.181052e+01 3.660557e+00 1.379477e+00 1.909564e+00 5.418686e+00 3.758549e+00 2.470094e+00 4.943326e+00 2.692056e+00 4.139382e+00 3.411072e+00 1.927356e+00 1.740840e+00 4.067986e+00 1.273058e+00 2.170733e-01 3.037775e-01 1.199510e+00 6.878713e-01 6.179577e-01 9.974048e-01 5.309260e-01 6.621253e-01 7.825618e-01 3.779469e-01 3.409652e-01 4.950720e-01
<GCONST> 1.235655e+02
<TRANSP> 5
 0.000000e+00 1.000000e+00 0.000000e+00 0.000000e+00 0.000000e+00
 0.000000e+00 7.220289e-01 2.779712e-01 0.000000e+00 0.000000e+00
 0.000000e+00 0.000000e+00 9.034131e-01 9.658694e-02 0.000000e+00
 0.000000e+00 0.000000e+00 0.000000e+00 8.095108e-01 1.904892e-01
 0.000000e+00 0.000000e+00 0.000000e+00 0.000000e+00 0.000000e+00
<ENDHMM>
~h "t"
<BEGINHMM>
<NUMSTATES> 5
<STATE> 2
<MEAN> 39
 -1.418398e+01 -4.593575e+00 -6.240003e+00 -1.518155e+00 -2.644923e+00 -1.806910e+00 -1.869666e+00 8.499905e-01 7.327844e-01 2.530983e-01 1.250456e+00 1.751109e+00 6.254036e+01 2.835075e-01 6.752666e-02 -1.521565e+00 -8.041877e-01 -3.803497e-01 9.235151e-02 -4.291017e-01 4.087253e-01 7.321184e-01 1.434261e-02 -5.039066e-01 2.213675e-01 7.646405e+00 1.171270e+00 6.999283e-01 8.197858e-01 -2.130348e-03 1.496112e-01 5.922676e-01 -3.949814e-01 1.480198e-01 -1.256670e-01 4.350438e-01 -2.981686e-01 -4.899662e-01 -2.200425e-01
<VARIANCE> 39
 1.480247e+01 3.161835e+01 4.024782e+01 3.866543e+01 3.228414e+01 2.152927e+01 2.871432e+01 2.265763e+01 1.907869e+01 1.761946e+01 1.247666e+01 1.577338e+01 2.105841e+02 5.375074e+00 4.056507e+00 4.801971e+00 3.972813e+00 3.334767e+00 3.123071e+00 4.274051e+00 3.092051e+00 4.432000e+00 3.096879e+00 2.218266e+00 3.237168e+00 9.711481e+00 4.786749e-01 6.021066e-01 9.888000e-01 6.294421e-01 5.784219e-01 4.994343e-01 8.364348e-01 6.439926e-01 5.663199e-01 5.410601e-01 4.789921e-01 6.808940e-01 4.530371e+00
<GCONST> 1.280954e+02
<STATE> 3
<MEAN> 39
 -8.165793e+00 3.065545e+00 -3.647271e+00 1.507802e+00 -3.540613e-01 6.275501e-01 -1.329069e+00 2.473971e+00 4.089587e+00 9.086480e-01 -1.208696e+00 7.345063e-01 7.326210e+01 3.696414e+00 1.353771e+00 1.845036e+00 -1.208982e+00 -1.419435e-02 1.707538e+00 -2.126507e+00 4.103199e-01 -8.260972e-01 1.386803e+00 -9.948924e-01 -1.770440e+00 9.855327e-01 1.998219e-01 -7.281312e-01 3.788982e-01 -7.171203e-01 -4.247010e-01 1.538605e-01 -6.037425e-01 -1.215173e-01 -6.895160e-01 2.185215e-01 -4.157068e-05 -3.695251e-01 -1.631195e+00
<VARIANCE> 39
 2.059096e+01 2.140025e+01 2.085156e+01 2.206205e+01 1.648318e+01 2.453431e+01 2.280284e+01 1.688690e+01 1.949209e+01 2.052466e+01 1.775806e+01 1.827819e+01 3.721766e+01 2.565534e+00 3.812977e+00 3.905024e+00 6.098301e+00 2.772056e+00 3.108582e+00 6.049222e+00 3.562164e+00 3.768880e+00 3.796352e+00 3.512443e+00 3.029046e+00 8.055796e+00 7.415632e-01 5.643220e-01 6.392877e-01 5.243986e-01 4.383782e-01 5.206975e-01 8.758098e-01 5.694313e-01 7.026376e-01 5.497044e-01 4.898578e-01 7.223200e-01 1.359168e+00
<GCONST> 1.232099e+02
<STATE> 4
<MEAN> 39
 1.161820e+00 -2.147953e+00 -3.044751e+00 -1.115527e+01 -4.276825e+00 6.666727e+00 -1.334469e+01 3.848346e+00 -2.364638e+00 8.204432e+00 -4.297713e+00 -6.429107e+00 7.841393e+01 2.087303e+00 -1.526577e+00 6.233703e-01 -2.838661e+00 -1.351958e+00 1.289025e+00 -2.357338e+00 3.762158e-01 -1.602134e+00 1.116688e+00 -7.389358e-01 -1.473879e+00 8.637857e-01 -1.109559e+00 -4.718671e-01 -3.060370e-01 6.189711e-01 -2.287225e-02 -5.346578e-01 9.015632e-01 -6.721508e-02 2.161397e-01 -7.568202e-01 4.426059e-01 6.317788e-01 -6.530559e-01
<VARIANCE> 39
 9.223935e+00 2.108154e+01 2.686941e+01 5.553056e+01 1.725754e+01 2.865200e+01 3.784015e+01 2.982541e+01 2.805288e+01 3.669540e+01 5.093085e+01 2.004113e+01 3.114866e+01 2.699762e+00 2.940428e+00 2.846310e+00 4.266679e+00 2.171614e+00 2.592734e+00 5.299600e+00 3.008103e+00 3.450044e+00 3.257728e+00 3.168411e+00 3.849616e+00 1.720177e+00 1.790922e-01 5.089722e-01 2.452971e-01 5.836903e-01 3.528798e-01 4.425520e-01 5.639890e-01 4.019908e-01 4.365297e-01 4.504971e-01 5.798342e-01 2.998256e-01 5.088377e-01
<GCONST> 1.175888e+02
<TRANSP> 5
 0.000000e+00 1.000000e+00 0.000000e+00 0.000000e+00 0.000000e+00
 0.000000e+00 6.752202e-01 3.247799e-01 0.000000e+00 0.000000e+00
 0.000000e+00 0.000000e+00 4.784525e-01 5.215476e-01 0.000000e+00
 0.000000e+00 0.000000e+00 0.000000e+00 5.169212e-01 4.830788e-01
 0.000000e+00 0.000000e+00 0.000000e+00 0.000000e+00 0.000000e+00
<ENDHMM>
~h "u"
<BEGINHMM>
<NUMSTATES> 5
<STATE> 2
<MEAN> 39
 5.682158e+00 3.662940e+00 3.168782e+00 -1.836620e+01 -1.189604e+01 1.368882e+01 -1.448664e+01 2.130589e+00 -1.239003e+01 -1.529182e+00 1.683649e+00 -3.519953e-01 7.339175e+01 4.391729e-01 4.851897e-01 -1.997039e-01 -8.951080e-01 -9.676916e-01 1.299756e+00 -8.031092e-01 7.012708e-01 1.472870e-01 -2.154422e-01 -1.010944e-01 7.543409e-02 1.746548e-01 -3.090180e-01 -4.682582e-02 1.273234e-01 7.798721e-01 7.824732e-02 -4.033401e-01 2.344035e-01 -3.407243e-02 3.228727e-01 -3.549228e-02 -4.363974e-02 -3.682693e-01 -3.121789e-01
<VARIANCE> 39
 1.088220e+01 3.732306e+01 2.703222e+01 4.701924e+01 3.170712e+01 3.659420e+01 4.893287e+01 5.388911e+01 4.649353e+01 3.246031e+01 4.437402e+01 1.930058e+01 2.296578e+01 1.152057e+00 1.523716e+00 2.868427e+00 7.067189e+00 3.107857e+00 3.384487e+00 4.355959e+00 2.959886e+00 4.144411e+00 3.284449e+00 2.630326e+00 2.335956e+00 2.099798e+00 2.985879e-01 2.262898e-01 3.843324e-01 5.526031e-01 5.967867e-01 4.840350e-01 5.882397e-01 5.944889e-01 7.044579e-01 6.916681e-01 5.867820e-01 3.660554e-01 1.694168e-01
<GCONST> 1.200526e+02
<STATE> 3
<MEAN> 39
 7.288146e+00 7.335028e+00 3.918916e+00 -2.080552e+01 -1.619678e+01 1.231641e+01 -1.479996e+01 8.898411e+00 -9.595128e+00 -3.158524e+00 1.640187e+00 -5.943204e+00 7.094539e+01 5.530101e-02 7.249995e-02 9.740523e-01 4.523376e-01 1.252055e-01 -2.924347e-01 -4.488666e-01 2.029506e-01 2.676933e-01 -5.160362e-02 4.431815e-01 -1.038196e+00 -7.450373e-01 -1.069143e-01 5.119218e-04 4.890894e-02 4.457061e-01 1.776113e-01 -3.147678e-01 5.040990e-01 -4.181481e-01 3.820589e-03 -3.618949e-02 -4.715467e-02 1.815428e-02 -2.529702e-01
<VARIANCE> 39
 5.671029e+00 1.750487e+01 4.091414e+01 6.767356e+01 4.052348e+01 3.536884e+01 3.551806e+01 6.031473e+01 3.709526e+01 3.532862e+01 3.021968e+01 2.918114e+01 9.952628e+00 2.080764e-01 5.503726e-01 1.335950e+00 3.077780e+00 1.680810e+00 1.801202e+00 1.878162e+00 1.760820e+00 2.498876e+00 1.886833e+00 2.578547e+00 1.999174e+00 5.955552e-01 1.336840e-01 1.000663e-01 2.585008e-01 4.222660e-01 3.650793e-01 4.196146e-01 5.193403e-01 3.846579e-01 4.397306e-01 3.803454e-01 4.213002e-01 2.847383e-01 1.481252e-01
<GCONST> 1.037853e+02
<STATE> 4
<MEAN> 39
 5.390420e+00 6.626822e+00 6.858676e+00 -1.222686e+01 -1.193648e+01 1.061313e+01 -1.253414e+01 2.693423e+00 -6.815311e+00 -1.438941e+00 1.735178e+00 -6.462798e+00 6.544461e+01 -1.334880e+00 4.600233e-01 2.183816e-01 2.679438e+00 9.325740e-01 -1.528051e+00 2.472207e+00 -1.323339e+00 4.873053e-01 -3.014027e-01 -5.162702e-01 -4.646097e-01 -1.465483e+00 -5.163598e-01 6.559002e-04 -1.899480e-01 1.806887e-02 2.657633e-01 -2.165407e-01 2.877414e-01 8.724770e-02 6.463224e-02 -3.611513e-01 -2.667815e-03 1.833639e-01 1.788732e-01
<VARIANCE> 39
 1.422691e+01 1.883636e+01 3.292324e+01 7.126924e+01 3.468169e+01 7.370081e+01 5.863020e+01 7.316871e+01 3.895486e+01 4.475158e+01 2.798523e+01 4.690866e+01 6.467966e+01 3.744158e+00 9.372424e-01 1.775160e+00 4.081085e+00 2.623097e+00 3.617515e+00 3.163051e+00 2.243710e+00 5.678027e+00 3.070421e+00 2.141716e+00 2.572621e+00 1.775295e+00 5.678810e-01 1.328132e-01 2.411593e-01 8.329839e-01 3.935804e-01 7.663400e-01 8.506246e-01 6.321557e-01 7.460228e-01 6.052333e-01 6.476761e-01 4.806402e-01 1.536796e-01
<GCONST> 1.227925e+02
<TRANSP> 5
 0.000000e+00 1.000000e+00 0.000000e+00 0.000000e+00 0.000000e+00
 0.000000e+00 6.427161e-01 3.572839e-01 0.000000e+00 0.000000e+00
 0.000000e+00 0.000000e+00 7.363511e-01 2.636488e-01 0.000000e+00
 0.000000e+00 0.000000e+00 0.000000e+00 5.912638e-01 4.087362e-01
 0.000000e+00 0.000000e+00 0.000000e+00 0.000000e+00 0.000000e+00
<ENDHMM>
~h "v"
<BEGINHMM>
<NUMSTATES> 5
<STATE> 2
<MEAN> 39
 7.597826e+00 1.478511e+00 -1.550440e+00 -1.483837e+01 -6.166190e+00 1.223957e+01 -1.079600e+01 2.643435e+00 -1.162012e+01 3.254579e+00 3.095422e+00 1.130706e-01 7.011144e+01 1.993729e-01 1.584645e-02 7.485719e-01 -4.232425e-01 -9.992330e-01 -5.405666e-01 4.891036e-01 -1.004388e+00 -1.731030e-01 -9.446291e-01 1.606999e-01 4.651077e-01 1.551329e+00 -6.315935e-01 2.272557e-03 -3.449950e-01 4.806722e-01 4.921352e-01 -2.644743e-01 4.688864e-01 -3.278262e-02 3.699237e-01 -6.909193e-02 -2.300235e-01 -2.421448e-02 -5.467567e-01
<VARIANCE> 39
 5.908850e+00 1.602879e+01 1.238251e+01 2.165081e+01 3.190437e+01 1.981836e+01 1.943510e+01 1.868171e+01 2.049775e+01 2.919508e+01 2.056270e+01 1.882304e+01 2.533006e+01 3.097208e+00 1.437643e+00 1.897644e+00 3.908139e+00 4.532310e+00 2.322523e+00 3.049287e+00 1.707460e+00 2.629817e+00 1.955685e+00 1.968847e+00 1.480388e+00 5.894457e+00 3.041271e-01 3.608903e-01 2.530598e-01 3.867758e-01 4.444208e-01 3.831452e-01 3.938346e-01 3.149377e-01 3.370363e-01 2.994761e-01 3.110055e-01 2.963186e-01 4.161383e-01
<GCONST> 1.077852e+02
<STATE> 3
<MEAN> 39
 1.431622e-01 3.757709e+00 -7.171620e-01 -7.817406e+00 -4.095938e+00 6.333110e+00 -2.688290e+00 -2.222970e+00 -6.616721e+00 -2.564406e+00 3.534603e-01 5.931151e-01 7.100932e+01 -1.797685e-01 -2.237792e-02 2.284268e-01 3.452033e-01 3.351775e-01 -8.336695e-02 7.662863e-03 -6.547042e-02 1.708513e-01 1.357086e-01 7.731675e-02 -1.332203e-01 2.383321e-01 2.805661e-01 -1.517975e-01 1.325667e-01 -3.056209e-01 -9.469814e-02 2.444639e-01 -4.423171e-01 1.645746e-01 -2.646091e-01 3.779320e-01 1.688092e-01 -5.470100e-02 9.932563e-02
<VARIANCE> 39
 1.933918e+01 5.376286e+00 6.382367e+00 3.003544e+01 1.705840e+01 1.524963e+01 1.455897e+01 1.482890e+01 1.240534e+01 1.411752e+01 1.554716e+01 8.221197e+00 8.717218e+00 2.120341e+00 5.758973e-01 7.018179e-01 2.579894e+00 1.184866e+00 1.647196e+00 2.471892e+00 1.122065e+00 1.393279e+00 1.792147e+00 1.850550e+00 9.166709e-01 4.143310e-01 1.327834e-01 8.854199e-02 1.312887e-01 2.587687e-01 2.006631e-01 2.398611e-01 2.518233e-01 2.367418e-01 1.982210e-01 2.949392e-01 2.465756e-01 1.969841e-01 5.408484e-02
<GCONST> 8.527901e+01
<STATE> 4
<MEAN> 39
 6.368403e+00 1.748847e-01 3.907914e-01 -1.493710e+01 -5.712330e+00 1.314473e+01 -1.075422e+01 7.271675e-01 -1.114941e+01 4.155045e+00 5.573006e+00 -7.644681e-01 7.327449e+01 1.931177e-01 -7.097729e-01 3.153409e-01 -4.131453e-02 1.992866e-01 -1.704304e-02 -1.529342e+00 5.383406e-01 -6.385236e-01 1.589970e+00 -5.870638e-02 -8.083484e-01 6.868365e-02 -2.545217e-01 -9.902148e-02 5.368889e-02 4.035891e-01 -1.014305e-01 -5.102056e-01 -1.052991e-02 2.489763e-01 6.692589e-02 -1.500093e-01 -4.691323e-01 -7.463255e-02 -1.670346e-01
<VARIANCE> 39
 6.151386e+00 1.477493e+01 2.116906e+01 4.109032e+01 2.963043e+01 2.542961e+01 2.610419e+01 2.482413e+01 1.894286e+01 2.810062e+01 1.771657e+01 1.944188e+01 2.171360e+01 8.910422e-01 1.787155e+00 2.067460e+00 3.950015e+00 1.969607e+00 2.738950e+00 5.564647e+00 2.188655e+00 2.775311e+00 3.191633e+00 1.989875e+00 1.461393e+00 2.118214e+00 8.823356e-02 2.588358e-01 1.878572e-01 3.720879e-01 3.460125e-01 4.551500e-01 4.649177e-01 4.282897e-01 3.614000e-01 4.642261e-01 3.624713e-01 2.339178e-01 7.790498e-02
<GCONST> 1.052933e+02
<TRANSP> 5
 0.000000e+00 1.000000e+00 0.000000e+00 0.000000e+00 0.000000e+00
 0.000000e+00 7.891232e-01 2.108767e-01 0.000000e+00 0.000000e+00
 0.000000e+00 0.000000e+00 8.716282e-01 1.283719e-01 0.000000e+00
 0.000000e+00 0.000000e+00 0.000000e+00 8.027787e-01 1.972212e-01
 0.000000e+00 0.000000e+00 0.000000e+00 0.000000e+00 0.000000e+00
<ENDHMM>
~h "y"
<BEGINHMM>
<NUMSTATES> 5
<STATE> 2
<MEAN> 39
 2.987122e+00 -3.900390e+00 1.064942e+01 -7.989225e+00 -7.340220e+00 1.117877e+00 -2.381192e+01 7.188304e+00 -1.323925e+01 6.040285e+00 -1.336604e+00 -5.223248e+00 7.542867e+01 -3.167159e-01 -9.906866e-01 2.050493e+00 1.255333e+00 -1.706743e+00 -1.864211e+00 -6.748517e-01 2.787517e+00 -1.955248e+00 -6.858802e-01 -1.358676e+00 7.624503e-01 -1.011387e-01 -1.973828e-01 3.956303e-01 -7.519732e-02 8.622360e-02 -7.940309e-02 2.644385e-01 1.049847e+00 -2.628038e-01 -2.405039e-01 -4.105978e-01 3.610142e-01 3.808423e-01 -2.241751e-01
<VARIANCE> 39
 4.607305e+00 7.930727e+00 1.852597e+01 1.942009e+01 2.507985e+01 3.308950e+01 1.709739e+01 3.331008e+01 4.029955e+01 5.535794e+01 3.064406e+01 1.840378e+01 5.690448e+00 3.053691e-01 6.690570e-01 1.033892e+00 1.501430e+00 1.157775e+00 2.321822e+00 3.365545e+00 1.159556e+00 2.024491e+00 2.084605e+00 1.816073e+00 1.710784e+00 2.388116e-01 1.208760e-01 1.117436e-01 2.188599e-01 3.377554e-01 3.720477e-01 4.654838e-01 4.247949e-01 4.831335e-01 4.376299e-01 6.795395e-01 3.842931e-01 2.852818e-01 4.750056e-02
<GCONST> 9.563798e+01
<STATE> 3
<MEAN> 39
 6.501227e-01 -3.660236e+00 1.794522e+01 -3.449304e+00 -1.410364e+01 -1.851254e+00 -1.709585e+01 1.281677e+01 -2.125269e+01 2.737814e+00 -1.608657e+00 -7.688665e-01 7.315553e+01 -3.470104e-01 4.843760e-01 6.051393e-01 5.634681e-01 -3.284675e-01 -4.885227e-02 1.321597e+00 1.579800e-01 -3.663683e-01 -4.644797e-01 4.086132e-01 2.346123e-01 -8.028777e-01 6.056294e-03 2.448895e-01 -3.775484e-01 1.339617e-03 4.919948e-01 3.708795e-02 1.963521e-01 -3.805531e-01 6.343274e-01 -1.908325e-02 1.035591e-01 -1.833732e-01 -2.194666e-01
<VARIANCE> 39
 4.317745e+00 9.100014e+00 3.537299e+01 1.396565e+01 2.070161e+01 2.896352e+01 3.753139e+01 2.959670e+01 3.535666e+01 2.693922e+01 2.381057e+01 1.838376e+01 8.230684e+00 3.103673e-01 6.078968e-01 1.305288e+00 1.069150e+00 2.090527e+00 1.395468e+00 1.756803e+00 1.884578e+00 2.856033e+00 1.249898e+00 1.071126e+00 9.287084e-01 4.227623e-01 5.343053e-02 1.187618e-01 1.299442e-01 2.307746e-01 2.149134e-01 3.096508e-01 4.145866e-01 3.698032e-01 2.466118e-01 2.018320e-01 2.262255e-01 1.688803e-01 6.445098e-02
<GCONST> 8.918912e+01
<STATE> 4
<MEAN> 39
 -2.245243e-01 2.544319e+00 1.160188e+01 1.728480e+00 -6.966047e+00 3.785821e-01 -9.123694e+00 1.220996e+01 -1.215309e+01 -2.803231e-01 -3.850500e-01 -2.046398e+00 6.162648e+01 -5.277947e-01 5.970137e-01 -9.297769e-01 1.095065e+00 1.630186e+00 -4.836679e-02 1.835474e+00 -1.541071e+00 1.758608e+00 -4.126580e-01 2.609621e-01 2.103891e-01 -2.630800e+00 -1.085529e-01 -3.326528e-01 -4.816686e-02 -1.367233e-01 -1.452902e-01 -8.330451e-03 -3.151290e-01 -2.250824e-01 -2.673236e-02 4.750935e-02 5.709755e-02 7.813156e-02 3.450643e-02
<VARIANCE> 39
 6.386370e+00 1.479165e+01 4.407919e+01 2.154736e+01 3.853686e+01 3.279776e+01 4.890705e+01 4.359463e+01 4.005895e+01 2.017112e+01 2.521088e+01 2.516556e+01 4.580004e+01 7.160429e-01 2.310613e+00 1.269513e+00 1.550453e+00 1.931304e+00 2.115316e+00 3.172254e+00 2.916812e+00 2.024268e+00 1.807230e+00 2.163213e+00 1.491064e+00 1.119130e+00 1.192253e-01 2.894222e-01 2.320259e-01 3.408329e-01 4.709022e-01 4.175098e-01 5.424101e-01 6.287687e-01 4.214265e-01 2.833771e-01 3.514257e-01 2.801755e-01 1.986690e-01
<GCONST> 1.075883e+02
<TRANSP> 5
 0.000000e+00 1.000000e+00 0.000000e+00 0.000000e+00 0.000000e+00
 0.000000e+00 6.983853e-01 3.016147e-01 0.000000e+00 0.000000e+00
 0.000000e+00 0.000000e+00 8.272775e-01 1.727224e-01 0.000000e+00
 0.000000e+00 0.000000e+00 0.000000e+00 7.583598e-01 2.416402e-01
 0.000000e+00 0.000000e+00 0.000000e+00 0.000000e+00 0.000000e+00
<ENDHMM>
~h "z"
<BEGINHMM>
<NUMSTATES> 5
<STATE> 2
<MEAN> 39
 -3.365835e+00 8.500744e+00 6.050478e-01 -8.813869e+00 3.296413e+00 -2.861844e+00 -1.864606e+01 -1.039555e-01 -3.215595e+00 8.674494e+00 -8.837399e+00 3.496087e-01 7.497238e+01 -1.221542e+00 8.588368e-01 -1.095053e+00 4.040638e-01 9.900730e-01 -9.073553e-01 4.786454e-01 -2.826941e+00 1.302033e+00 -3.095867e-01 7.630231e-01 -2.113627e-02 1.284684e+00 -5.625442e-01 7.754179e-02 1.349153e-01 2.538845e-01 -1.220906e-02 -3.201163e-02 7.582887e-01 2.867422e-01 -4.728521e-01 -7.975897e-02 5.124436e-01 -1.486016e-01 -5.337021e-01
<VARIANCE> 39
 4.552859e+01 1.359642e+01 1.697266e+01 4.898924e+01 1.110810e+01 6.543703e+01 1.942236e+01 6.938452e+01 2.692674e+01 9.925038e+01 2.229948e+01 1.197426e+01 1.176246e+01 3.136462e+00 3.131668e+00 2.643407e+00 3.045293e+00 3.649122e+00 2.543525e+00 5.026484e+00 2.787230e+00 2.633781e+00 7.336183e+00 2.806006e+00 1.246276e+00 4.105680e+00 5.105537e-01 4.602084e-01 4.248353e-01 7.800294e-01 5.072725e-01 7.003909e-01 6.873024e-01 6.825112e-01 6.269475e-01 9.897673e-01 4.188687e-01 1.967442e-01 3.717235e-01
<GCONST> 1.211227e+02
<STATE> 3
<MEAN> 39
 -1.477225e+01 1.329352e+01 -1.675216e+00 -3.415851e+00 7.203964e+00 -8.747319e+00 -9.020178e+00 -4.856011e+00 -1.585317e+00 2.829772e+00 -1.975098e+00 6.224340e-01 7.722542e+01 9.715708e-02 -3.828952e-01 -1.734669e-01 -1.612312e-01 -7.576992e-03 1.183544e-01 1.260394e-01 4.054199e-01 4.273342e-02 8.981474e-02 1.750508e-01 -1.255250e-01 2.343505e-02 6.131021e-01 -4.120655e-01 9.225859e-02 -2.275994e-01 -3.019606e-01 2.826012e-01 -3.205483e-01 1.158992e-01 9.173312e-03 1.013658e-01 -2.167015e-01 -3.462126e-02 -1.712853e-02
<VARIANCE> 39
 8.671369e+00 4.339430e+00 8.842357e+00 1.306306e+01 1.019885e+01 7.444442e+00 1.250660e+01 2.610675e+01 1.281171e+01 1.224193e+01 1.372910e+01 7.782422e+00 3.482362e+00 3.136403e+00 9.861184e-01 3.743306e-01 1.253867e+00 8.709215e-01 1.457192e+00 2.162929e+00 1.290645e+00 8.117279e-01 1.894586e+00 1.485290e+00 9.889627e-01 1.444518e-01 2.084992e-01 5.171673e-02 1.232456e-01 2.095513e-01 1.483869e-01 4.532139e-01 1.958024e-01 4.496973e-01 1.868618e-01 3.908615e-01 2.236000e-01 1.671652e-01 3.504901e-02
<GCONST> 7.909480e+01
<STATE> 4
<MEAN> 39
 -1.808400e+00 3.771480e+00 3.105738e-01 -7.547248e+00 -8.017993e-01 1.113991e+00 -1.130022e+01 -4.810712e+00 -3.672227e+00 5.454787e+00 -3.152525e+00 -1.325487e+00 7.461417e+01 2.572144e+00 -1.975533e+00 1.188474e+00 -3.822145e-01 -2.631241e+00 2.658203e+00 3.638220e-01 -2.326211e-01 -1.998245e+00 7.610707e-01 -6.129542e-01 1.989402e-02 -6.473894e-01 -6.149188e-01 1.992495e-01 2.823890e-01 3.729536e-01 5.156719e-03 -2.251355e-01 3.171413e-01 2.082066e-01 -5.481060e-01 -2.757140e-01 5.733886e-02 2.333415e-01 5.057698e-02
<VARIANCE> 39
 2.228525e+01 1.278813e+01 1.644144e+01 9.200423e+00 4.436612e+01 6.811037e+01 3.781059e+01 4.066703e+01 4.159713e+01 1.509380e+01 4.240848e+01 9.015915e+00 2.490941e+01 2.829634e+00 9.817882e-01 1.273484e+00 2.781299e+00 2.083764e+00 5.307327e+00 5.701223e+00 7.948346e+00 3.623898e+00 1.674416e+00 1.859303e+00 8.406367e-01 1.120030e+00 3.515303e-01 1.342084e-01 3.301882e-01 4.872188e-01 7.819827e-01 5.890327e-01 7.929711e-01 7.145376e-01 5.224243e-01 3.099862e-01 2.517165e-01 1.289362e-01 2.248193e-01
<GCONST> 1.112055e+02
<TRANSP> 5
 0.000000e+00 1.000000e+00 0.000000e+00 0.000000e+00 0.000000e+00
 0.000000e+00 7.977602e-01 2.022397e-01 0.000000e+00 0.000000e+00
 0.000000e+00 0.000000e+00 8.838649e-01 1.161351e-01 0.000000e+00
 0.000000e+00 0.000000e+00 0.000000e+00 7.884814e-01 2.115186e-01
 0.000000e+00 0.000000e+00 0.000000e+00 0.000000e+00 0.000000e+00
<ENDHMM>
~h "b'"
<BEGINHMM>
<NUMSTATES> 5
<STATE> 2
<MEAN> 39
 3.231063e+00 3.539221e+00 1.120149e+01 5.766813e+00 -5.398211e+00 -3.255290e+00 -8.564502e+00 5.884390e+00 -7.784044e+00 -3.864939e+00 -7.290428e+00 -5.424861e+00 5.775524e+01 5.519561e-02 1.023462e+00 2.349887e-01 8.568005e-01 1.021277e+00 9.792290e-02 3.738691e-01 -8.837718e-01 4.756295e-01 -4.139707e-01 4.373553e-02 -1.192464e-02 -2.360614e+00 -2.601062e-01 -3.370964e-01 -1.853206e-01 -4.649452e-01 -1.587638e-01 1.212323e-01 -2.551819e-01 3.108053e-01 1.763007e-01 2.063351e-01 2.437409e-01 3.155681e-01 7.583387e-01
<VARIANCE> 39
 7.909081e-01 1.325427e+00 2.961554e+00 6.382247e+00 7.815224e+00 4.682281e+00 1.087619e+01 6.511419e+00 1.805037e+01 1.120167e+01 1.129298e+01 1.128194e+01 1.210676e+01 1.273377e-01 1.049441e+00 3.094730e-01 1.478972e+00 9.758481e-01 1.121447e+00 2.170093e+00 9.447895e-01 6.404812e-01 9.505272e-01 1.757598e+00 1.839072e+00 1.493766e+00 8.535284e-02 1.022134e-01 1.370479e-01 3.023208e-01 1.480405e-01 1.669431e-01 4.836659e-01 1.679012e-01 1.715772e-01 2.015311e-01 4.665374e-01 4.932307e-01 1.838921e-01
<GCONST> 7.360258e+01
<STATE> 3
<MEAN> 39
 -1.221972e+00 4.108805e+00 9.750235e+00 6.725460e+00 -3.498193e+00 -2.548880e+00 -7.137779e+00 4.399917e+00 -4.671690e+00 -4.705515e+00 -8.692604e-01 -2.594493e+00 5.925351e+01 -1.647559e+00 -1.570383e+00 1.005587e+00 -9.318315e-01 -2.006746e+00 3.056727e-01 7.609761e-01 3.366423e-01 -4.262184e-01 8.264676e-01 1.889262e+00 1.158633e+00 4.705692e+00 2.530651e-01 -6.033338e-01 1.201556e+00 -6.489951e-01 -9.399213e-01 2.453586e-02 -5.172035e-01 2.175817e-01 -1.082422e+00 5.770777e-01 -4.838132e-01 2.173125e-01 9.388932e-01
<VARIANCE> 39
 2.185765e+01 1.102738e+01 2.158261e+01 1.308582e+01 3.575185e+01 1.951655e+01 3.775339e+01 1.866405e+01 1.696218e+01 1.939957e+01 1.717587e+01 1.485272e+01 8.440167e+01 8.545179e-01 1.760612e+00 7.405735e+00 2.067854e+00 6.366537e+00 1.041376e+00 2.362207e+00 2.689918e+00 4.492836e+00 4.667549e+00 1.381346e+00 2.184598e+00 5.870611e+00 4.403497e-01 2.182564e-01 6.936650e-01 3.226466e-01 8.121298e-01 2.553316e-01 1.044132e+00 4.272123e-01 6.227466e-01 6.902642e-01 4.840078e-01 3.992812e-01 2.068573e+00
<GCONST> 1.164991e+02
<STATE> 4
<MEAN> 39
 -1.664784e+00 -4.095294e+00 2.520407e+01 -2.361265e+00 -1.570301e+01 -1.037242e+00 -1.256840e+01 6.457680e+00 -1.690795e+01 3.827823e+00 -3.868315e-01 2.278306e+00 7.550965e+01 1.478837e-01 -8.235443e-01 2.789886e+00 -2.434957e+00 -1.906794e+00 1.432591e-01 -2.721497e+00 6.689552e-01 -4.035031e+00 2.002834e+00 -1.896621e+00 1.060784e+00 1.344900e+00 -9.440682e-02 6.869228e-01 -1.333435e+00 4.652396e-01 7.723666e-01 -2.052589e-01 2.624086e-01 -5.411255e-02 6.933606e-01 -3.846429e-01 -3.208255e-01 -1.409273e-01 -1.094245e+00
<VARIANCE> 39
 1.255184e+00 2.000295e+00 1.754095e+01 3.732273e+01 1.347982e+01 5.218885e+00 2.534552e+01 1.985088e+01 3.627489e+01 1.206662e+01 1.906001e+01 3.993725e+00 1.970731e+00 7.225470e-01 1.449522e+00 6.886990e+00 2.681661e+00 4.355119e+00 1.464496e+00 1.719317e+00 7.800578e-01 2.922359e+00 2.587263e+00 1.948959e+00 6.234561e-01 1.682652e+00 7.399655e-02 7.235322e-02 5.040350e-01 5.101341e-01 5.727164e-01 1.783219e-01 7.617545e-01 2.477281e-01 1.100779e+00 4.868205e-01 9.366395e-01 1.382166e-01 5.057623e-01
<GCONST> 9.460832e+01
<TRANSP> 5
 0.000000e+00 1.000000e+00 0.000000e+00 0.000000e+00 0.000000e+00
 0.000000e+00 8.420774e-01 1.579227e-01 0.000000e+00 0.000000e+00
 0.000000e+00 0.000000e+00 7.500000e-01 2.500000e-01 0.000000e+00
 0.000000e+00 0.000000e+00 0.000000e+00 7.016957e-01 2.983043e-01
 0.000000e+00 0.000000e+00 0.000000e+00 0.000000e+00 0.000000e+00
<ENDHMM>
~h "c'"
<BEGINHMM>
<NUMSTATES> 5
<STATE> 2
<MEAN> 39
 -2.281145e+01 7.678650e+00 -7.315159e+00 4.784620e+00 -1.791377e+00 -5.107818e-01 8.830030e-01 8.229437e-02 2.069906e-01 3.251327e-01 1.648416e+00 1.728431e+00 5.845737e+01 -1.045076e+00 2.210221e-01 -7.114000e-01 -6.171793e-01 -4.280096e-01 8.857239e-02 3.921838e-01 -2.826501e-01 5.336337e-01 -3.632310e-02 4.184605e-01 1.783284e-01 2.021548e+00 -5.549200e-02 -2.434364e-01 1.396010e-01 -4.589965e-01 -1.626516e-01 -8.423275e-02 1.411187e-01 -1.335044e-02 1.520703e-03 -5.575468e-02 -2.396256e-02 1.016470e-01 9.976925e-01
<VARIANCE> 39
 1.884433e+01 2.429165e+01 2.068517e+01 1.712866e+01 2.566570e+01 1.705228e+01 2.246363e+01 1.806540e+01 1.840804e+01 1.494052e+01 1.375631e+01 1.322945e+01 4.160363e+01 3.142215e+00 3.857400e+00 3.104022e+00 2.472110e+00 2.504546e+00 2.116013e+00 2.310282e+00 2.309468e+00 2.172479e+00 1.627245e+00 1.598928e+00 1.563786e+00 9.066579e+00 5.450015e-01 8.907884e-01 9.183556e-01 3.983173e-01 4.863795e-01 4.836541e-01 4.354182e-01 4.174448e-01 4.840252e-01 3.308177e-01 3.302427e-01 3.116902e-01 1.310624e+00
<GCONST> 1.138531e+02
<STATE> 3
<MEAN> 39
 -2.490558e+01 3.986827e+00 -4.184183e+00 -2.058278e+00 -4.291692e+00 -1.752378e+00 4.148450e+00 -1.591897e+00 3.903678e-01 -3.578123e-01 1.497298e+00 3.378543e+00 7.274940e+01 1.723803e+00 -5.692891e-01 3.075157e+00 -6.268657e-01 -5.614735e-01 -5.071931e-01 -3.939976e-01 -2.371796e-01 -1.109637e+00 -4.084393e-01 -5.132878e-01 9.507903e-02 7.306608e-01 9.221045e-01 9.266043e-02 7.456539e-01 2.689810e-01 -3.517756e-01 -7.413323e-02 -8.789984e-01 1.895018e-01 -6.533364e-01 -1.347671e-01 -2.791263e-02 -1.884566e-01 -4.966722e-01
<VARIANCE> 39
 1.014384e+01 1.120132e+01 3.929996e+01 1.265370e+01 1.756559e+01 1.870813e+01 1.616077e+01 1.921057e+01 1.986059e+01 1.442969e+01 1.783489e+01 1.467747e+01 6.651942e+00 3.986346e+00 1.870291e+00 4.067974e+00 2.130363e+00 2.271343e+00 2.184559e+00 4.170685e+00 2.194016e+00 3.046621e+00 1.887177e+00 1.687327e+00 1.722600e+00 2.407854e+00 3.753303e-01 3.536535e-01 6.271386e-01 3.684650e-01 4.587184e-01 4.444106e-01 7.686980e-01 5.298931e-01 5.588921e-01 3.341828e-01 4.272126e-01 3.337520e-01 5.075256e-01
<GCONST> 1.086747e+02
<STATE> 4
<MEAN> 39
 -8.091588e+00 3.503490e+00 1.480548e+01 -2.956550e+00 -1.231339e+01 -4.687748e+00 -8.292443e+00 -1.515146e-01 -1.048847e+01 -3.896328e+00 5.690455e-01 1.992479e+00 7.488135e+01 4.270699e+00 -1.795088e+00 3.953615e+00 -9.654317e-01 -3.170424e+00 2.187667e-02 -4.982034e+00 1.932617e+00 -3.945682e+00 8.408666e-02 3.323098e-01 -4.231863e-01 1.119072e+00 -9.051645e-01 -3.381281e-01 -9.782867e-01 -7.283441e-02 1.487030e-01 4.989058e-01 3.293003e-01 2.810388e-01 2.268113e-01 5.598159e-01 7.773636e-02 5.797849e-02 -7.766172e-02
<VARIANCE> 39
 2.140488e+01 2.265395e+01 2.830538e+01 1.455594e+01 2.879602e+01 9.617421e+00 4.972949e+01 2.372326e+01 3.017660e+01 1.304836e+01 9.286401e+00 6.797438e+00 1.101535e+01 2.624294e+00 1.405673e+00 3.416663e+00 1.196540e+00 1.317441e+00 1.922134e+00 2.509914e+00 1.702770e+00 1.992417e+00 2.020707e+00 1.336180e+00 1.000271e+00 5.450557e-01 4.597416e-01 3.036295e-01 3.048804e-01 2.463080e-01 4.910553e-01 2.580882e-01 1.128713e+00 4.542026e-01 5.565684e-01 2.478153e-01 2.582270e-01 1.628984e-01 1.461127e-01
<GCONST> 1.009055e+02
<TRANSP> 5
 0.000000e+00 1.000000e+00 0.000000e+00 0.000000e+00 0.000000e+00
 0.000000e+00 8.177402e-01 1.822598e-01 0.000000e+00 0.000000e+00
 0.000000e+00 0.000000e+00 8.151909e-01 1.848092e-01 0.000000e+00
 0.000000e+00 0.000000e+00 0.000000e+00 6.398057e-01 3.601943e-01
 0.000000e+00 0.000000e+00 0.000000e+00 0.000000e+00 0.000000e+00
<ENDHMM>
~h "ay"
<BEGINHMM>
<NUMSTATES> 5
<STATE> 2
<MEAN> 39
 4.784420e+00 -1.091401e+01 3.007835e-01 -1.074191e+01 -9.131913e+00 3.828348e+00 -2.051409e+01 1.599220e+01 -7.682455e+00 8.638918e+00 -4.875070e+00 -5.510396e+00 7.971630e+01 -9.144627e-01 2.567817e-01 1.647173e+00 8.088841e-01 -8.499911e-01 -1.695228e+00 1.226356e-01 1.786093e+00 -3.575642e-01 -9.555403e-01 -5.816439e-01 7.544400e-01 5.074920e-02 -1.167120e-01 3.397143e-01 2.932197e-01 2.703530e-02 -3.132434e-01 1.197605e-01 4.400976e-01 -4.841044e-01 -2.888827e-01 -1.417104e-01 2.677335e-01 3.932061e-01 -1.446543e-01
<VARIANCE> 39
 3.911638e+00 1.467806e+01 1.863704e+01 1.457655e+01 1.580960e+01 1.975204e+01 1.030379e+01 2.351082e+01 1.535935e+01 1.168033e+01 2.436932e+01 1.697692e+01 2.847020e+00 1.637383e-01 5.272413e-01 7.594182e-01 1.139651e+00 1.128256e+00 6.332183e-01 1.329370e+00 1.162303e+00 1.891228e+00 8.776861e-01 1.727326e+00 1.661982e+00 1.283640e-01 3.179249e-02 3.368725e-02 9.548143e-02 1.760236e-01 1.270354e-01 1.948374e-01 1.639148e-01 2.346923e-01 2.862443e-01 2.443527e-01 2.210386e-01 2.168666e-01 1.501185e-02
<GCONST> 7.406153e+01
<STATE> 3
<MEAN> 39
 -6.682627e-01 -5.346747e+00 1.156785e+01 -7.770579e+00 -1.722352e+01 2.024496e-01 -1.564305e+01 1.821568e+01 -1.485338e+01 4.671063e+00 -3.944600e+00 3.877550e-01 7.802076e+01 -6.030273e-01 1.387725e+00 8.587205e-01 5.795438e-01 -1.072332e+00 3.093543e-01 1.109467e+00 -2.854147e-01 -1.065522e+00 -6.998987e-01 7.101501e-01 -7.914631e-02 -5.981094e-01 2.854922e-01 -2.964797e-02 -5.134763e-01 1.925502e-01 3.256651e-01 1.511042e-01 3.479879e-02 -1.902557e-01 2.060210e-01 -1.173487e-01 1.163504e-01 -4.844021e-01 -1.978182e-01
<VARIANCE> 39
 4.644289e+00 1.153677e+01 1.643353e+01 6.792809e+00 2.072833e+01 1.276852e+01 1.377384e+01 1.697446e+01 1.700123e+01 1.082056e+01 1.617389e+01 9.337353e+00 4.370161e+00 3.473195e-01 3.062007e-01 1.914935e+00 6.612793e-01 8.460220e-01 1.020641e+00 8.143011e-01 1.217505e+00 1.571559e+00 1.060169e+00 7.307442e-01 1.360847e+00 1.082824e-01 5.862910e-02 6.266709e-02 1.007163e-01 1.255904e-01 1.543721e-01 2.487512e-01 1.990551e-01 3.870233e-01 2.483140e-01 2.077091e-01 1.369729e-01 1.398986e-01 5.334644e-02
<GCONST> 7.358486e+01
<STATE> 4
<MEAN> 39
 1.239126e+00 -1.114500e-01 9.266368e+00 -1.239879e+00 -1.670467e+01 1.207978e+00 -8.501745e+00 1.324159e+01 -1.750532e+01 -3.762667e-01 -2.570817e-01 -5.842772e+00 7.155448e+01 1.353219e+00 3.812778e-01 -2.938875e-01 1.663860e+00 1.008641e+00 3.674995e-01 1.924547e+00 -3.329563e+00 -8.640914e-01 5.836347e-01 -2.814639e-01 -1.989582e+00 -2.124140e+00 5.710181e-02 -2.752924e-01 3.202212e-01 -2.497572e-01 9.855072e-03 2.248218e-01 -1.484660e-01 -6.294928e-01 3.570339e-02 8.705365e-01 -5.363280e-01 -2.311037e-02 9.807305e-02
<VARIANCE> 39
 8.855964e+00 4.210035e+00 1.623523e+01 1.449443e+01 1.989889e+01 1.279769e+01 2.455002e+01 5.345263e+01 1.810588e+01 1.698141e+01 1.331965e+01 1.855227e+01 1.698596e+01 2.587937e-01 3.310874e-01 1.052968e+00 7.970868e-01 1.013655e+00 1.172420e+00 1.652037e+00 4.494038e+00 1.371803e+00 4.511254e+00 2.011907e+00 7.067804e-01 4.089761e-01 1.899588e-01 4.454675e-02 1.368871e-01 2.168729e-01 2.973694e-01 1.651139e-01 5.695888e-01 9.827102e-01 3.670709e-01 3.323530e-01 1.996253e-01 2.413621e-01 2.967290e-01
<GCONST> 9.013767e+01
<TRANSP> 5
 0.000000e+00 1.000000e+00 0.000000e+00 0.000000e+00 0.000000e+00
 0.000000e+00 8.138550e-01 1.861450e-01 0.000000e+00 0.000000e+00
 0.000000e+00 0.000000e+00 8.253173e-01 1.746827e-01 0.000000e+00
 0.000000e+00 0.000000e+00 0.000000e+00 7.534244e-01 2.465756e-01
 0.000000e+00 0.000000e+00 0.000000e+00 0.000000e+00 0.000000e+00
<ENDHMM>
~h "d'"
<BEGINHMM>
<NUMSTATES> 5
<STATE> 2
<MEAN> 39
 -1.015405e+01 1.310104e+01 5.204339e+00 1.237680e+01 -5.833107e+00 -3.466220e+00 -5.468914e+00 -1.912356e+00 -2.777400e+00 -4.582176e+00 -2.086241e+00 -6.324120e-01 6.129013e+01 -3.706520e+00 2.560272e+00 -2.395217e+00 4.505179e-02 1.128047e+00 -7.418522e-01 2.527058e+00 -1.538150e+00 5.274305e-01 -1.545700e-01 2.853941e-01 1.055585e+00 1.723009e+00 -1.173340e-02 -5.980191e-01 2.532192e-01 -7.638335e-01 -8.469336e-02 -1.353364e-01 -1.564420e-01 -1.082434e-02 -3.059120e-01 7.452527e-02 7.643016e-02 -2.117888e-02 1.019219e+00
<VARIANCE> 39
 4.874785e+01 3.721106e+01 7.291443e+01 1.744712e+01 1.812491e+01 1.509293e+01 4.111650e+01 1.866859e+01 2.200832e+01 2.465017e+01 2.208404e+01 1.310852e+01 1.887955e+01 1.854054e+00 2.646337e+00 2.454064e+00 3.231736e+00 1.721209e+00 1.982534e+00 1.420055e+00 1.870152e+00 1.745200e+00 1.723316e+00 1.664105e+00 1.400616e+00 2.730098e+00 1.462189e+00 1.165831e+00 1.010518e+00 3.106067e-01 2.958807e-01 3.405510e-01 6.634735e-01 4.873133e-01 2.815334e-01 3.174156e-01 3.105859e-01 2.914008e-01 3.703185e-01
<GCONST> 1.124429e+02
<STATE> 3
<MEAN> 39
 -1.726950e+01 1.239673e+01 2.682635e+00 5.467566e+00 -3.044828e+00 -7.700669e+00 -6.566288e-01 -5.398355e+00 -4.161520e+00 -3.614699e+00 -6.346473e-01 2.755098e+00 7.313119e+01 1.547522e+00 -2.340869e+00 2.304437e+00 -1.960398e+00 -1.010787e+00 -1.127298e+00 -1.091816e+00 3.719016e-01 -1.089708e+00 -1.563661e-01 9.561069e-02 4.689505e-01 2.231502e+00 1.032346e+00 -6.047143e-01 9.260401e-01 -1.141088e-02 -6.648595e-01 3.069909e-01 -8.560872e-01 5.947524e-01 -2.892663e-01 -1.854790e-01 -2.848400e-02 -2.252864e-01 -4.671285e-01
<VARIANCE> 39
 1.592081e+01 1.778772e+01 3.511111e+01 1.880374e+01 2.089590e+01 2.422005e+01 2.210540e+01 1.583028e+01 1.880892e+01 1.710033e+01 9.851735e+00 1.136327e+01 1.207599e+01 2.825731e+00 1.286710e+00 2.848745e+00 1.218075e+00 2.436869e+00 2.346457e+00 3.084033e+00 2.395786e+00 1.425769e+00 1.850715e+00 1.341527e+00 1.217668e+00 9.060306e-01 5.661686e-01 4.755212e-01 4.607104e-01 2.463236e-01 3.476655e-01 6.619310e-01 3.909818e-01 2.968614e-01 3.206792e-01 3.726782e-01 3.021296e-01 2.527042e-01 9.223303e-02
<GCONST> 1.023328e+02
<STATE> 4
<MEAN> 39
 -7.610130e+00 2.059040e+00 1.666529e+01 -1.138296e+00 -1.121814e+01 -7.292877e+00 -9.323278e+00 -5.427159e-01 -1.008269e+01 -6.117005e+00 6.541763e-01 2.071312e+00 7.740561e+01 2.013355e+00 -2.485203e+00 2.366271e+00 -1.558136e+00 -1.865263e+00 1.370190e+00 -2.460737e+00 1.852278e+00 -1.592237e+00 3.023171e-01 4.906534e-01 -6.645252e-01 2.541139e-01 -3.548243e-01 4.167792e-01 -8.416874e-01 3.948055e-01 2.544099e-01 1.449321e-01 2.669985e-01 -4.927127e-02 2.252460e-01 3.121498e-01 -4.212261e-02 -1.172981e-01 -3.594097e-01
<VARIANCE> 39
 9.664228e+00 1.872024e+01 2.193901e+01 1.182148e+01 8.972238e+00 1.049954e+01 2.463006e+01 2.043857e+01 1.323848e+01 9.477415e+00 1.094422e+01 7.831912e+00 2.456288e+00 5.437281e-01 9.514850e-01 1.692002e+00 7.845959e-01 1.115748e+00 7.143160e-01 1.270756e+00 1.180463e+00 1.183677e+00 1.520164e+00 1.131630e+00 8.570930e-01 2.003000e-01 6.775965e-02 1.376318e-01 1.988364e-01 1.233960e-01 1.618876e-01 2.726523e-01 2.606267e-01 1.986989e-01 2.179286e-01 2.064537e-01 2.002722e-01 1.424174e-01 4.773369e-02
<GCONST> 7.796976e+01
<TRANSP> 5
 0.000000e+00 1.000000e+00 0.000000e+00 0.000000e+00 0.000000e+00
 0.000000e+00 7.570239e-01 2.429761e-01 0.000000e+00 0.000000e+00
 0.000000e+00 0.000000e+00 7.645816e-01 2.354184e-01 0.000000e+00
 0.000000e+00 0.000000e+00 0.000000e+00 6.985642e-01 3.014358e-01
 0.000000e+00 0.000000e+00 0.000000e+00 0.000000e+00 0.000000e+00
<ENDHMM>
~h "f'"
<BEGINHMM>
<NUMSTATES> 5
<STATE> 2
<MEAN> 39
 -1.185651e+01 7.198085e+00 -1.325804e+00 -1.248540e+00 -4.668345e-01 -4.937432e+00 -2.094652e+00 -9.606746e-01 -3.331234e+00 -2.815256e+00 -1.715697e+00 1.470993e+00 7.658494e+01 8.019442e-01 -3.016815e-02 5.744378e-01 -1.811581e-01 -9.212459e-01 5.141607e-01 -5.641615e-02 -7.465043e-01 -2.144394e-02 -4.804392e-02 -2.016401e-01 -2.328223e-01 -2.855681e-01 -1.878100e-01 -7.936946e-02 3.069068e-02 1.176208e-01 3.774133e-02 -2.039704e-03 2.857233e-01 9.468363e-02 1.340430e-01 1.826192e-01 4.018782e-02 -1.123310e-02 -8.875563e-03
<VARIANCE> 39
 1.029467e+01 1.868015e+01 6.578716e+00 1.288547e+01 1.374012e+01 2.024890e+01 1.631659e+01 2.488083e+01 1.195452e+01 1.110788e+01 1.031533e+01 1.242009e+01 1.642776e+01 1.553927e+00 2.989201e+00 1.739741e+00 2.118684e+00 1.146869e+00 2.148734e+00 2.887553e+00 2.214505e+00 1.510045e+00 1.906575e+00 9.009205e-01 1.366142e+00 2.138758e+00 1.913428e-01 6.222535e-01 3.718957e-01 3.540452e-01 1.858424e-01 5.236910e-01 4.523198e-01 5.436718e-01 3.375044e-01 3.132336e-01 1.837123e-01 2.834212e-01 4.617915e-01
<GCONST> 9.931175e+01
<STATE> 3
<MEAN> 39
 -1.072574e+01 7.970325e+00 9.883187e+00 2.566136e-02 -6.804679e+00 -3.305678e+00 4.361710e+00 -2.448588e+00 -3.732919e+00 -7.271197e-01 -2.025446e+00 1.803180e+00 7.747472e+01 -6.485127e-02 -1.224877e-01 1.654658e+00 -1.959703e-01 -3.924151e-01 1.154118e-01 7.124119e-01 1.596326e-01 -5.243019e-01 -1.050495e-01 -6.172826e-02 1.774618e-01 -4.034199e-01 1.542825e-01 -3.840696e-01 -7.658546e-02 -2.185036e-01 -1.211053e-01 1.154830e-01 -6.039824e-01 6.593215e-02 -3.608166e-01 -4.759247e-02 4.933781e-02 -5.932836e-02 -2.698697e-01
<VARIANCE> 39
 7.173482e+00 2.393010e+00 1.888564e+01 1.242444e+01 8.974369e+00 7.069293e+00 7.287418e+00 1.126544e+01 1.480340e+01 1.114470e+01 8.568180e+00 8.287288e+00 6.092239e+00 8.624120e-01 5.906562e-01 1.051606e+00 4.851121e-01 2.015017e+00 1.318229e+00 1.396580e+00 1.030899e+00 1.433003e+00 1.224765e+00 8.645905e-01 1.274565e+00 1.628524e+00 2.451551e-01 8.425368e-02 1.663918e-01 1.275375e-01 5.562619e-01 2.955714e-01 6.697152e-01 1.766860e-01 2.940678e-01 2.379778e-01 1.625581e-01 2.797035e-01 1.897380e-01
<GCONST> 8.176838e+01
<STATE> 4
<MEAN> 39
 -5.967937e+00 1.735896e+00 1.957939e+01 -4.437194e+00 -1.272726e+01 -1.449957e-01 -4.517580e+00 -6.513055e-01 -1.060870e+01 -8.469177e-01 -8.660493e-01 1.453890e+00 7.399818e+01 1.725231e+00 -2.184518e+00 2.810650e+00 -2.089314e+00 -2.882012e+00 7.541426e-01 -4.688449e+00 1.406538e+00 -2.377894e+00 1.548027e-01 1.287511e+00 1.477847e-01 7.316748e-01 -1.968911e-01 1.159517e-01 -8.863786e-02 -9.720738e-02 2.387269e-02 -7.026255e-03 5.217967e-02 6.431899e-02 1.212308e-01 3.019569e-02 1.469995e-01 7.440299e-02 3.729517e-01
<VARIANCE> 39
 1.194684e+01 1.673947e+01 2.613356e+01 2.170391e+01 3.906307e+01 1.566035e+01 8.554172e+01 2.276463e+01 2.305423e+01 7.336341e+00 1.059018e+01 8.632972e+00 9.561829e+00 9.440051e-01 3.951558e-01 8.266162e-01 1.663745e+00 1.163264e+00 1.034075e+00 2.132030e+00 9.861308e-01 5.116740e-01 9.032993e-01 1.000851e+00 5.764822e-01 7.433287e-01 3.138203e-01 2.619663e-01 4.607502e-01 5.378891e-01 7.439845e-01 2.169546e-01 1.986038e+00 2.449378e-01 4.237449e-01 2.402125e-01 3.267065e-01 1.448835e-01 2.689952e-01
<GCONST> 9.476639e+01
<TRANSP> 5
 0.000000e+00 1.000000e+00 0.000000e+00 0.000000e+00 0.000000e+00
 0.000000e+00 9.116153e-01 8.838473e-02 0.000000e+00 0.000000e+00
 0.000000e+00 0.000000e+00 8.450413e-01 1.549587e-01 0.000000e+00
 0.000000e+00 0.000000e+00 0.000000e+00 7.500004e-01 2.499996e-01
 0.000000e+00 0.000000e+00 0.000000e+00 0.000000e+00 0.000000e+00
<ENDHMM>
~h "g'"
<BEGINHMM>
<NUMSTATES> 5
<STATE> 2
<MEAN> 39
 -1.950677e+00 2.217653e+00 1.193673e+01 1.883104e-01 -4.976614e+00 -1.552430e-01 -7.602932e-01 -2.563710e+00 -1.232528e+01 3.156857e+00 -9.581941e-02 -6.833997e+00 6.001719e+01 -3.733248e+00 -3.263034e+00 5.740187e-01 -2.362023e+00 1.201546e+00 -7.872193e-01 -4.193069e-01 -2.418485e-01 2.081526e+00 1.577754e+00 -2.984126e+00 3.673806e+00 3.972778e+00 -1.461844e-01 4.215803e-01 -1.330553e-02 -3.283779e-01 -9.817163e-01 -3.494927e-01 1.166700e-02 6.828369e-02 -5.826657e-01 -1.417227e-01 -1.139838e-01 2.049602e-01 1.381666e+00
<VARIANCE> 39
 2.776179e+01 4.827409e+01 1.403556e+01 2.888556e+01 1.932778e+01 1.058924e+01 1.473086e+01 1.874895e+01 2.666755e+01 2.166039e+01 4.891128e+01 3.995149e+01 4.944966e+01 7.412745e-01 1.763067e+00 2.122764e+00 1.095497e+00 2.270394e+00 1.190096e+00 1.595964e+00 1.878561e+00 1.376422e+00 1.417155e+00 1.709705e+00 1.959092e+00 3.522897e+00 8.561286e-01 1.152850e+00 2.950771e-01 6.232173e-01 2.903365e-01 2.020197e-01 3.819738e-01 4.480639e-01 3.775433e-01 6.214179e-01 9.774885e-01 6.743374e-01 1.138674e+00
<GCONST> 1.119580e+02
<STATE> 3
<MEAN> 39
 -1.097554e+01 -1.981798e-01 1.331217e+01 -6.019629e+00 -7.065528e+00 -4.422876e+00 -2.114664e+00 -4.461865e+00 -1.003184e+01 5.372858e+00 -7.450012e+00 2.051394e+00 7.443620e+01 9.200074e-02 1.547448e+00 1.484642e+00 -1.267616e-01 -2.507947e+00 -1.047628e+00 -1.927140e+00 1.714188e+00 -7.075450e-01 -1.626561e+00 7.635312e-01 1.246624e+00 2.255087e+00 1.692038e+00 5.449384e-01 -3.375801e-01 8.800024e-01 -8.276636e-01 4.455348e-01 -7.691912e-01 1.416695e+00 -4.725668e-01 -8.830527e-01 1.295466e+00 -1.178749e+00 -1.185777e+00
<VARIANCE> 39
 6.437475e+00 4.686298e+01 2.649465e+01 9.344234e+00 1.308056e+01 1.232994e+01 1.277299e+01 7.773051e+00 1.953096e+01 2.547832e+01 1.277763e+01 1.067731e+01 7.522522e+00 4.434336e+00 2.099200e+00 1.178004e+00 2.483152e+00 1.785819e+00 1.152351e+00 2.374799e+00 3.395839e+00 2.270843e+00 2.800791e+00 4.997760e+00 2.936259e+00 3.654338e+00 1.849663e-01 1.052118e+00 6.106061e-01 2.434337e-01 4.413108e-01 2.767345e-01 3.763945e-01 3.164860e-01 4.976526e-01 4.439952e-01 3.943264e-01 4.517560e-01 2.018756e-01
<GCONST> 1.050601e+02
<STATE> 4
<MEAN> 39
 -3.993633e+00 1.280512e+00 1.571537e+01 -4.048199e+00 -1.650701e+01 -4.472921e+00 -9.923286e+00 7.499014e+00 -1.339808e+01 -6.822403e-01 -5.450649e-01 1.801290e+00 7.569199e+01 2.693407e+00 -7.765332e-01 -1.854817e+00 9.173294e-01 -2.256637e+00 8.913053e-01 -3.477358e+00 5.136003e+00 3.260130e-01 -1.781646e+00 1.362661e+00 -1.112979e+00 4.673382e-01 8.936940e-02 -4.479926e-01 -1.295666e+00 2.842701e-01 1.137474e+00 7.837356e-01 1.218256e-01 -3.859137e-01 5.771332e-01 5.995215e-01 -4.780668e-01 -1.021755e+00 -5.394253e-01
<VARIANCE> 39
 8.019206e+00 4.019957e+00 1.784873e+01 1.040919e+01 1.477170e+01 1.020564e+01 2.410318e+01 3.099802e+01 1.118505e+01 7.090232e+00 4.692256e+00 5.154035e+00 3.664843e+00 6.527680e-01 1.060181e+00 3.066148e+00 9.824209e-01 2.700394e+00 1.454665e+00 1.775933e+00 1.080317e+00 1.875135e+00 1.667063e+00 1.596048e+00 2.486408e+00 5.616701e-01 2.388368e-01 2.671781e-01 2.272864e-01 1.882867e-01 2.581074e-01 1.916471e-01 4.936227e-01 1.072356e+00 3.149384e-01 3.890211e-01 2.995335e-01 3.303367e-01 1.510444e-01
<GCONST> 8.971162e+01
<TRANSP> 5
 0.000000e+00 1.000000e+00 0.000000e+00 0.000000e+00 0.000000e+00
 0.000000e+00 6.248406e-01 3.751594e-01 0.000000e+00 0.000000e+00
 0.000000e+00 0.000000e+00 6.226454e-01 3.773546e-01 0.000000e+00
 0.000000e+00 0.000000e+00 0.000000e+00 5.361156e-01 4.638844e-01
 0.000000e+00 0.000000e+00 0.000000e+00 0.000000e+00 0.000000e+00
<ENDHMM>
~h "l'"
<BEGINHMM>
<NUMSTATES> 5
<STATE> 2
<MEAN> 39
 -4.668735e-01 -6.097863e+00 1.469588e+01 -3.913460e-01 -5.658481e+00 -2.934388e+00 -2.026142e+01 3.208451e+00 -6.429524e+00 -3.819829e+00 1.371530e+00 -4.771197e+00 7.350079e+01 -1.081607e-01 -2.240183e-01 1.159895e+00 2.805142e-01 2.420584e-02 -1.780015e+00 8.149032e-02 2.801572e-01 -2.552006e-01 -4.471419e-02 -1.736531e+00 3.631822e-01 3.449916e-01 -4.666723e-02 1.832749e-01 -2.685027e-01 -4.305414e-02 -4.114500e-01 3.046652e-01 2.098674e-01 4.063492e-01 -6.209205e-01 6.469288e-02 9.200936e-02 3.471454e-01 -7.153248e-02
<VARIANCE> 39
 4.156156e+01 2.876092e+01 4.358570e+01 1.701535e+01 2.610785e+01 3.154762e+01 8.084924e+01 3.616704e+01 1.385217e+01 5.783807e+01 2.538345e+01 9.902514e+00 1.826253e+01 1.860255e+00 2.567170e+00 4.187360e+00 2.561044e+00 3.170561e+00 3.855017e+00 7.171822e+00 5.548937e+00 3.119939e+00 2.937856e+00 3.147468e+00 1.614419e+00 1.680936e+00 4.293201e-01 5.846821e-01 7.753612e-01 3.360456e-01 4.083346e-01 6.072493e-01 1.758796e+00 9.996896e-01 4.855618e-01 8.348966e-01 3.941465e-01 2.145259e-01 2.948597e-01
<GCONST> 1.215162e+02
<STATE> 3
<MEAN> 39
 2.808332e+00 -8.310183e+00 1.382049e+01 4.988115e-01 -7.168196e+00 -4.351638e+00 -2.653032e+01 1.345540e+01 -1.195110e+01 1.643956e+00 -4.583234e+00 -1.547369e+00 7.481216e+01 -6.151000e-01 9.739428e-01 4.169909e-01 3.550308e-01 -1.193146e-01 -7.617963e-01 1.145663e+00 1.167500e+00 -9.145862e-01 4.554230e-02 -6.314813e-01 -2.107913e-01 -5.735243e-01 -2.613960e-02 3.872932e-01 -4.690217e-01 -1.461712e-01 -3.550928e-02 3.800467e-01 5.777661e-01 -4.817649e-01 4.219967e-03 4.212710e-02 3.700993e-01 -2.196842e-01 -9.469113e-02
<VARIANCE> 39
 1.082350e+01 1.259916e+01 1.291787e+01 1.588836e+01 1.730131e+01 1.395983e+01 3.413215e+01 2.986480e+01 1.932969e+01 3.047999e+01 2.203690e+01 1.248113e+01 6.054542e+00 6.081795e-01 8.710725e-01 1.288292e+00 7.717860e-01 1.614679e+00 1.497758e+00 3.110535e+00 2.253891e+00 1.496212e+00 1.608860e+00 1.916641e+00 1.839147e+00 3.945285e-01 8.782542e-02 1.503574e-01 1.689460e-01 2.091145e-01 2.012174e-01 2.494027e-01 4.024837e-01 5.410932e-01 4.135599e-01 3.492655e-01 3.552663e-01 2.293395e-01 5.791939e-02
<GCONST> 9.204736e+01
<STATE> 4
<MEAN> 39
 -6.506629e-01 5.875076e-02 1.114742e+01 1.217296e+00 -6.650255e+00 -4.723760e+00 -1.321706e+01 8.002856e+00 -1.211601e+01 -1.649479e-01 -5.183072e+00 -3.547185e+00 7.063942e+01 1.796570e-01 9.939530e-01 -5.902058e-01 -1.306568e-02 -9.312477e-01 1.520705e+00 2.068179e+00 -2.248516e+00 2.060289e-01 -6.676999e-01 1.094072e-01 9.376018e-02 -6.137765e-01 2.401173e-01 -3.309034e-01 9.814183e-02 -6.386711e-02 -2.480264e-01 6.011460e-01 -4.345535e-01 -2.637614e-01 1.793451e-01 -1.260758e-01 1.422673e-01 1.022828e-01 6.958180e-02
<VARIANCE> 39
 1.555991e+01 2.005282e+01 3.118831e+01 2.535292e+01 2.393916e+01 3.076491e+01 4.852073e+01 8.142367e+01 5.186768e+01 4.391667e+01 3.013964e+01 2.401873e+01 1.360790e+01 1.657670e+00 2.964583e+00 2.891870e+00 1.552029e+00 1.831544e+00 5.545646e+00 6.780585e+00 1.177222e+01 4.803767e+00 2.855097e+00 2.101538e+00 1.861475e+00 1.476956e+00 2.745288e-01 3.791303e-01 4.743717e-01 2.770495e-01 2.964951e-01 6.265925e-01 9.385013e-01 1.717588e+00 8.818462e-01 5.740082e-01 4.598642e-01 4.806299e-01 1.429404e-01
<GCONST> 1.204339e+02
<TRANSP> 5
 0.000000e+00 1.000000e+00 0.000000e+00 0.000000e+00 0.000000e+00
 0.000000e+00 6.477463e-01 3.522536e-01 0.000000e+00 0.000000e+00
 0.000000e+00 0.000000e+00 7.747800e-01 2.252201e-01 0.000000e+00
 0.000000e+00 0.000000e+00 0.000000e+00 7.457137e-01 2.542863e-01
 0.000000e+00 0.000000e+00 0.000000e+00 0.000000e+00 0.000000e+00
<ENDHMM>
~h "je"
<BEGINHMM>
<NUMSTATES> 5
<STATE> 2
<MEAN> 39
 -1.649702e+00 -1.015812e+01 4.829926e+00 -9.519305e+00 -7.094655e+00 -4.103254e+00 -1.536039e+01 1.711973e+01 -2.589851e+00 5.968986e+00 -8.269094e+00 -8.954843e-01 6.648657e+01 2.308455e+00 -3.915652e-01 2.180614e+00 -1.150420e+00 -1.445180e+00 -3.052073e-01 -1.311407e+00 1.261024e+00 -1.714911e+00 7.078695e-01 -1.413718e+00 6.841015e-01 5.373387e+00 -4.660666e-01 4.077016e-01 -2.930783e-01 6.423810e-01 3.244143e-01 1.619036e-01 8.402423e-01 -5.602720e-01 2.783298e-02 5.593097e-02 5.119662e-01 2.404369e-01 -7.925884e-01
<VARIANCE> 39
 2.954859e+01 6.234376e+01 3.850990e+01 4.469449e+01 3.466825e+01 2.505876e+01 1.707169e+01 4.137250e+01 4.280623e+01 1.982774e+01 1.849511e+01 2.277687e+01 8.066206e+01 4.195618e+00 5.272439e+00 2.831706e+00 5.241333e+00 4.608047e+00 2.669110e+00 4.794536e+00 4.397797e+00 2.774276e+00 9.896353e-01 1.867650e+00 2.913598e+00 8.839577e+00 8.246405e-01 1.592686e+00 6.824999e-01 1.056136e+00 9.545685e-01 5.494410e-01 9.364272e-01 6.558790e-01 7.927693e-01 2.637771e-01 2.079998e-01 3.841962e-01 1.549305e+00
<GCONST> 1.285450e+02
<STATE> 3
