~o
<STREAMINFO> 1 39
<VECSIZE> 39<NULLD><MFCC_D_A_0><DIAGC>
~h "a"
<BEGINHMM>
<NUMSTATES> 5
<STATE> 2
<MEAN> 39
 1.073126e+001 -1.625419e+001 9.153439e-001 -1.430021e+001 3.268078e+000 2.173980e+000 -9.832382e+000 7.521536e+000 -5.517660e+000 4.271401e-001 4.969168e+000 -1.522670e+001 7.066645e+001 -4.837707e-002 2.051133e-001 -6.343177e-002 5.662036e-001 4.549550e-001 -1.283797e-001 -9.246272e-003 2.370632e-001 4.606675e-002 -1.099053e-002 -4.396191e-001 4.645552e-002 -3.978740e-001 -4.386772e-002 5.201808e-001 -9.441996e-002 1.990029e-001 2.903165e-002 -2.889204e-002 2.754412e-001 -3.731080e-001 1.110523e-001 1.005089e-002 -1.053381e-001 3.120460e-001 -3.665496e-001
<VARIANCE> 39
 1.661075e+001 3.865938e+001 1.636416e+002 5.014157e+001 8.911651e+001 6.257336e+001 3.417204e+001 5.282069e+001 3.089485e+001 4.673529e+001 5.025533e+001 4.770353e+001 1.937088e+001 4.346942e-001 1.495601e+000 2.207142e+000 1.411372e+000 1.883949e+000 1.202536e+000 1.321105e+000 1.728278e+000 1.561533e+000 1.387212e+000 1.851528e+000 1.599358e+000 6.222087e-001 8.013523e-002 1.953043e-001 2.346563e-001 3.051350e-001 2.719190e-001 1.568459e-001 2.862386e-001 3.389939e-001 2.455127e-001 2.383986e-001 2.605247e-001 2.149852e-001 1.309038e-001
<GCONST> 1.049982e+002
<STATE> 3
<MEAN> 39
 9.854898e+000 -1.091259e+001 5.120618e-001 -1.246317e+001 5.292387e+000 2.145720e+000 -1.054817e+001 3.791563e+000 -4.144066e+000 2.717690e+000 2.129594e+000 -1.319649e+001 6.647184e+001 -1.298349e+000 2.795627e+000 -9.192862e-002 2.100281e+000 5.848051e-001 -2.958190e-001 1.599832e+000 -1.711917e+000 1.136738e+000 -3.352058e-001 -7.664866e-001 1.794617e+000 -2.614806e+000 -4.622108e-001 4.167159e-001 -9.572462e-002 3.415748e-001 4.558370e-002 3.968015e-002 4.589946e-001 -3.030588e-001 2.615875e-001 -1.462373e-001 1.475786e-001 1.697876e-001 -4.367663e-001
<VARIANCE> 39
 1.688459e+001 3.890714e+001 1.159487e+002 5.840851e+001 7.225501e+001 5.050888e+001 4.864336e+001 7.934737e+001 3.616796e+001 5.475072e+001 5.191714e+001 4.178228e+001 3.125726e+001 2.523653e+000 2.004772e+000 2.326131e+000 3.314113e+000 3.897956e+000 2.764335e+000 3.459321e+000 3.028506e+000 3.279500e+000 2.472898e+000 2.539131e+000 1.794683e+000 2.080448e+000 3.095562e-001 3.583168e-001 6.212798e-001 5.044010e-001 5.143332e-001 3.560684e-001 5.240648e-001 8.108245e-001 5.771232e-001 4.994750e-001 5.089812e-001 4.021666e-001 3.064567e-001
<GCONST> 1.249683e+002
<STATE> 4
<MEAN> 39
 -7.002994e+000 7.275676e-001 5.128418e-001 -8.139621e-002 6.072997e+000 2.794260e+000 4.239779e-001 -3.809104e-001 2.788881e+000 1.225766e+000 1.042550e+000 -3.800554e+000 4.261312e+001 -1.580081e+000 4.120984e-001 1.985416e-001 5.059082e-001 -4.245407e-001 -2.395881e-001 7.541404e-001 -1.808205e-001 3.527649e-001 -7.639596e-002 1.784629e-001 7.349960e-001 -1.628385e+000 9.593097e-002 -2.398269e-001 -7.126369e-002 -1.685450e-001 -1.311282e-002 -4.964466e-002 -7.346155e-002 3.577320e-002 -1.002616e-001 -3.329334e-002 3.656498e-002 -1.163384e-001 2.998712e-001
<VARIANCE> 39
 9.934962e+001 3.762329e+001 5.336771e+001 4.475123e+001 5.865209e+001 3.753997e+001 4.396576e+001 3.936282e+001 2.614906e+001 3.866283e+001 2.809682e+001 3.794793e+001 1.445098e+002 2.786131e+000 3.731514e+000 3.400052e+000 2.739441e+000 2.940817e+000 2.769052e+000 3.359169e+000 3.813633e+000 2.678409e+000 2.454082e+000 1.970139e+000 2.194020e+000 3.276288e+000 2.969113e-001 5.103788e-001 5.111151e-001 4.426486e-001 4.851613e-001 4.629703e-001 5.112807e-001 5.239803e-001 4.020028e-001 4.389268e-001 3.259273e-001 3.922625e-001 5.695759e-001
<GCONST> 1.249149e+002
<TRANSP> 5
 0.000000e+000 1.000000e+000 0.000000e+000 0.000000e+000 0.000000e+000
 0.000000e+000 7.976179e-001 2.023821e-001 0.000000e+000 0.000000e+000
 0.000000e+000 0.000000e+000 6.454182e-001 3.545818e-001 0.000000e+000
 0.000000e+000 0.000000e+000 0.000000e+000 8.586510e-001 1.413490e-001
 0.000000e+000 0.000000e+000 0.000000e+000 0.000000e+000 0.000000e+000
<ENDHMM>
~h "c"
<BEGINHMM>
<NUMSTATES> 5
<STATE> 2
<MEAN> 39
 -2.500032e+001 1.375253e+001 -6.401339e+000 4.346570e+000 1.096478e+001 -2.423068e+001 1.008156e+001 -1.084199e+001 1.318284e+001 -8.362909e+000 6.411973e+000 -1.651629e+000 5.132545e+001 -3.355775e+000 -4.008125e-001 -2.323916e+000 -1.487982e+000 4.726824e+000 -3.658974e+000 -1.992697e-002 1.318340e+000 1.477671e+000 3.821823e-001 -5.445977e-001 1.803352e-001 2.997039e+000 1.008476e+000 -1.198199e+000 1.439682e+000 1.043652e-001 -2.551818e-001 3.768980e-001 -7.686492e-001 1.586954e+000 -8.649520e-001 1.342875e-001 -5.131620e-001 6.092337e-002 6.597989e-001
<VARIANCE> 39
 2.418419e+001 1.738771e+001 1.730816e+001 5.597544e+001 9.098104e+001 6.026022e+001 5.213203e+001 2.661577e+001 1.590654e+001 3.358613e+001 2.186991e+001 2.773303e+001 3.001564e+001 2.964093e+000 6.113794e+000 7.125445e+000 2.152941e+000 4.299815e+000 3.223518e+000 7.163473e+000 1.190490e+001 3.109361e+000 3.440796e+000 2.057482e+000 1.655666e+000 2.008771e+000 1.364201e-001 5.484408e-001 2.677001e-001 6.076939e-001 1.058912e+000 1.924250e+000 1.373473e+000 1.034364e+000 4.683775e-001 8.482931e-001 3.452778e-001 4.583674e-001 5.881782e-001
<GCONST> 1.268826e+002
<STATE> 3
<MEAN> 39
 -2.517498e+001 3.730190e-001 2.225945e+000 3.185971e+000 1.980665e+001 -3.001445e+001 7.139784e+000 7.388301e+000 1.033108e+001 -1.003674e+001 1.492563e+000 -6.618741e-001 6.425082e+001 1.889336e+000 -1.002225e+000 2.773847e+000 5.936896e-001 -1.729380e+000 1.764446e-001 5.548395e-002 1.304155e+000 -1.148415e+000 -5.522629e-001 -4.055359e-001 -4.611004e-001 4.040076e-001 6.716372e-001 3.825022e-001 5.453479e-001 -8.774265e-002 -1.221767e+000 1.473410e-001 -1.166371e-001 -5.345420e-001 -3.959517e-001 -8.758859e-002 2.421762e-001 -2.336362e-001 -3.007545e-001
<VARIANCE> 39
 1.730009e+001 1.330602e+001 4.007746e+001 1.701265e+001 4.345798e+001 4.532924e+001 2.456748e+001 7.356361e+001 2.172338e+001 6.317265e+001 1.020180e+001 1.684935e+001 6.046583e+000 2.999393e+000 3.427171e+000 2.220517e+000 2.257225e+000 9.142210e+000 5.997351e+000 4.800701e+000 5.249108e+000 4.374408e+000 1.978048e+000 1.220394e+000 2.697518e+000 2.569528e+000 2.642109e-001 2.540958e-001 3.379459e-001 6.779866e-001 7.967626e-001 1.417635e+000 1.179983e+000 4.418148e-001 9.719461e-001 5.685027e-001 2.733866e-001 5.158935e-001 5.326677e-001
<GCONST> 1.204771e+002
<STATE> 4
<MEAN> 39
 -3.602507e+000 -1.628617e+000 2.835171e+001 -6.204257e-002 -1.105495e+001 -2.648494e+001 2.555014e+000 5.888834e+000 -5.507034e+000 -1.429745e+001 4.451979e+000 -7.165017e+000 6.657175e+001 3.088028e+000 -1.899567e+000 4.214763e+000 -2.807844e+000 -5.881012e+000 3.212973e+000 -2.482070e+000 -7.428213e-001 -4.261418e+000 -8.154231e-001 2.429556e+000 -5.145929e-001 1.515722e+000 -1.070635e+000 -4.215028e-001 -1.012081e+000 -5.702241e-002 1.447877e+000 9.425628e-001 1.343330e-001 1.308503e-001 2.434673e-001 4.023010e-001 2.761625e-001 5.270786e-001 -1.418378e-001
<VARIANCE> 39
 1.754658e+001 2.780164e+001 4.310334e+001 5.093488e+001 8.425159e+001 7.527779e+001 2.329611e+001 5.083804e+000 4.089333e+001 2.694445e+001 3.214056e+001 2.827625e+000 1.307171e+001 5.110581e+000 1.351923e+000 4.718607e+000 9.786911e-001 1.134135e+001 4.143079e+000 3.378192e+000 1.596532e+000 1.179467e+000 2.233053e+000 2.761382e+000 1.212826e+000 6.990460e-001 2.047217e-001 6.390518e-001 3.551383e-001 6.953788e-001 1.327298e+000 4.209349e-001 8.618056e-001 5.672408e-001 4.899264e-001 2.974617e-001 8.880579e-001 1.484518e-001 4.334010e-001
<GCONST> 1.144738e+002
<TRANSP> 5
 0.000000e+000 1.000000e+000 0.000000e+000 0.000000e+000 0.000000e+000
 0.000000e+000 7.676067e-001 2.323933e-001 0.000000e+000 0.000000e+000
 0.000000e+000 0.000000e+000 8.804354e-001 1.195646e-001 0.000000e+000
 0.000000e+000 0.000000e+000 0.000000e+000 7.500247e-001 2.499753e-001
 0.000000e+000 0.000000e+000 0.000000e+000 0.000000e+000 0.000000e+000
<ENDHMM>
~h "d"
<BEGINHMM>
<NUMSTATES> 5
<STATE> 2
<MEAN> 39
 3.278278e+000 1.903312e+001 1.228866e+001 3.934427e+000 4.833372e-001 -4.665288e+000 -4.617546e+000 -9.888069e+000 -4.660971e+000 -5.054743e+000 -6.166483e-001 -1.118847e+000 4.695198e+001 2.392163e-001 -2.195944e-001 -1.268465e-001 5.016639e-002 -4.466040e-003 -1.109944e+000 3.218642e-002 -2.640707e-001 -1.989320e-001 -7.746856e-001 -4.412409e-001 1.979088e-001 8.544068e-001 -3.068268e-001 -1.269140e+000 -6.421495e-001 -2.940776e-001 3.677535e-001 5.146948e-002 5.325331e-001 5.266144e-001 5.474735e-001 1.567711e-001 6.967768e-002 7.147744e-002 4.744472e-001
<VARIANCE> 39
 1.977625e+001 2.180993e+001 4.123055e+001 3.821322e+001 3.119878e+001 2.014993e+001 2.651235e+001 2.100631e+001 3.036056e+001 2.281226e+001 1.181154e+001 2.424185e+001 7.108366e+000 5.405910e+000 1.508957e+001 7.323309e+000 4.785130e+000 6.750671e+000 3.565960e+000 6.801512e+000 6.125015e+000 6.224991e+000 2.768419e+000 2.087865e+000 3.194805e+000 3.732943e+000 5.958263e-001 7.488133e-001 8.124431e-001 1.037449e+000 7.448112e-001 7.564460e-001 6.394229e-001 5.362313e-001 6.923700e-001 4.965681e-001 3.817890e-001 6.104428e-001 1.298045e+000
<GCONST> 1.280763e+002
<STATE> 3
<MEAN> 39
 1.231054e+000 -4.011927e+000 -3.459610e-001 -1.108439e+000 8.239986e+000 -1.365170e+001 2.862327e+000 -3.650360e+000 5.130394e+000 -5.723113e+000 -2.513185e+000 -1.562202e+000 6.323094e+001 1.403648e+000 -3.832228e+000 -2.338057e-001 -2.865435e+000 -4.325486e-001 -1.225306e+000 -8.224283e-001 1.612643e+000 1.504073e+000 1.116603e+000 -3.585362e-001 -1.008396e+000 4.736938e+000 3.922070e-001 1.110722e+000 1.570312e+000 -2.474562e-001 -7.480801e-001 8.029739e-001 -1.648950e+000 -1.182190e-001 -8.818671e-001 5.636554e-001 1.120124e-001 -7.639517e-001 -6.094723e-001
<VARIANCE> 39
 4.095604e+001 4.614535e+001 3.349827e+001 6.326915e+001 9.217343e+001 7.127163e+001 6.819921e+001 5.532345e+001 6.902654e+001 5.690216e+001 4.726522e+001 5.224660e+001 5.305445e+001 2.601882e+000 1.023804e+001 1.136008e+001 6.156859e+000 6.807235e+000 6.897099e+000 1.398524e+001 3.988420e+000 8.156472e+000 5.190275e+000 3.917266e+000 5.985844e+000 5.670024e+000 7.271839e-001 1.103012e+000 8.359837e-001 1.479070e+000 1.294996e+000 9.480260e-001 1.250459e+000 9.474140e-001 1.867904e+000 7.346879e-001 5.753651e-001 1.007151e+000 1.395103e+000
<GCONST> 1.484714e+002
<STATE> 4
<MEAN> 39
 7.981625e+000 -1.189170e+001 8.243426e+000 -1.368905e+001 6.456235e-001 -5.760975e+000 -1.350804e+001 1.329791e-001 4.140513e+000 3.375974e+000 -4.433962e+000 -1.071105e+001 7.250737e+001 3.955414e-002 -1.361758e+000 2.292204e+000 -9.413515e-001 -1.763579e+000 1.689071e+000 -1.945205e+000 4.111070e-001 -8.923771e-001 9.307659e-002 2.720848e-001 -6.069766e-001 1.968609e-001 -5.925419e-001 4.341939e-001 -3.959414e-001 1.139422e+000 3.644900e-001 8.760428e-002 1.062966e+000 -3.769442e-001 3.973394e-002 -6.285852e-001 2.468042e-001 8.425525e-001 -1.075676e+000
<VARIANCE> 39
 1.142416e+001 2.123352e+001 2.207719e+001 4.524046e+001 4.591249e+001 7.902271e+001 4.586368e+001 4.052194e+001 3.304515e+001 6.187231e+001 4.439147e+001 2.019235e+001 7.320966e+000 1.366253e+000 1.632766e+000 1.223155e+000 7.452274e+000 2.959741e+000 3.740442e+000 6.830493e+000 5.290555e+000 6.967706e+000 2.719865e+000 2.843011e+000 5.688183e+000 4.212275e+000 2.123002e-001 3.750291e-001 2.279782e-001 7.779400e-001 4.005270e-001 4.043725e-001 5.772073e-001 6.657827e-001 6.219305e-001 4.114623e-001 4.737582e-001 6.036804e-001 5.387684e-001
<GCONST> 1.221081e+002
<TRANSP> 5
 0.000000e+000 1.000000e+000 0.000000e+000 0.000000e+000 0.000000e+000
 0.000000e+000 8.657171e-001 1.342829e-001 0.000000e+000 0.000000e+000
 0.000000e+000 0.000000e+000 7.278066e-001 2.721934e-001 0.000000e+000
 0.000000e+000 0.000000e+000 0.000000e+000 6.873249e-001 3.126751e-001
 0.000000e+000 0.000000e+000 0.000000e+000 0.000000e+000 0.000000e+000
<ENDHMM>
~h "g"
<BEGINHMM>
<NUMSTATES> 5
<STATE> 2
<MEAN> 39
 3.762816e+000 -5.356635e+000 2.265438e+000 -1.102653e+001 2.048044e+001 -2.181034e-001 -1.483283e+001 4.911338e+000 -5.582936e+000 3.459198e+000 1.009046e+001 -1.157551e+001 6.076123e+001 2.676482e-001 1.325437e+000 -1.989041e+000 -1.527708e+000 1.320842e+000 6.921515e-001 9.501256e-001 -2.013227e-001 -3.277957e-001 2.715336e-001 3.482523e-002 8.148423e-001 -6.071534e-001 4.160779e-001 -7.239006e-002 1.959473e-001 -3.330876e-001 -1.313964e+000 -8.747381e-002 5.962853e-001 3.298951e-001 -3.859045e-001 -5.816724e-001 -2.213586e-001 -2.675983e-001 3.980669e-001
<VARIANCE> 39
 1.790977e+001 5.622386e+001 7.113409e+001 1.355520e+002 1.324463e+002 6.124964e+001 6.564202e+001 4.982480e+001 8.261653e+001 5.577079e+001 5.888266e+001 5.120490e+001 1.717381e+001 2.255491e+000 2.643626e+000 4.984112e+000 5.166324e+000 1.006339e+001 8.391670e+000 6.002694e+000 3.757235e+000 3.480175e+000 3.383909e+000 4.183204e+000 3.536407e+000 1.795898e+000 2.719165e-001 6.127853e-001 5.118268e-001 9.166159e-001 9.738182e-001 5.193801e-001 9.161708e-001 7.583463e-001 7.573961e-001 6.495711e-001 9.240405e-001 1.003368e+000 2.275062e-001
<GCONST> 1.366215e+002
<STATE> 3
<MEAN> 39
 1.008235e+001 1.018766e+001 -1.794691e+000 -2.644245e+001 6.765794e+000 6.165677e+000 -6.648736e-001 8.805878e+000 -1.171692e+001 -6.834169e+000 6.351923e+000 -6.131763e+000 5.831683e+001 9.228860e-001 5.355933e-001 4.150050e-001 -1.300895e+000 -1.478878e+000 4.625088e-002 1.595521e-001 9.436250e-001 -4.613286e-001 -8.982008e-001 -3.090338e-001 -7.879954e-001 7.223274e-001 -6.338517e-002 -4.433024e-001 5.052984e-001 1.272108e-001 -1.164621e-001 -1.287023e-001 -6.246734e-001 4.394261e-002 5.568994e-002 4.435811e-002 2.891556e-001 -3.015484e-001 2.761388e-001
<VARIANCE> 39
 1.462399e+001 7.493685e+001 3.312159e+001 1.483066e+002 9.971680e+001 5.641431e+001 7.465257e+001 6.244449e+001 4.060889e+001 5.634690e+001 3.310340e+001 3.801619e+001 1.969647e+001 9.168066e-001 4.532393e+000 4.111743e+000 4.526793e+000 4.751867e+000 3.274512e+000 8.921613e+000 4.831831e+000 4.139335e+000 2.243989e+000 4.068453e+000 2.439933e+000 1.426152e+000 1.314634e-001 2.444343e-001 4.612809e-001 7.051696e-001 5.382320e-001 6.675882e-001 8.642989e-001 6.742440e-001 4.139534e-001 4.576887e-001 4.008823e-001 3.104804e-001 8.877717e-002
<GCONST> 1.255541e+002
<STATE> 4
<MEAN> 39
 1.098060e+001 -6.663066e+000 -7.122914e-001 -1.572209e+001 9.389871e+000 -2.600579e+000 -7.929091e+000 9.570086e+000 -9.733418e+000 1.542223e+000 6.305272e+000 -1.804597e+001 6.631486e+001 2.475480e-001 -1.712995e+000 2.729500e-001 1.946022e-001 -2.146969e+000 3.046341e-001 4.455785e-001 -4.265665e-001 -4.302518e-001 -2.069248e-001 3.554388e-001 -2.049134e-001 8.565590e-001 -3.838432e-001 -2.204790e-002 -7.622612e-002 6.877621e-001 2.221172e-001 2.234749e-001 -9.587149e-002 -4.478903e-001 8.196027e-001 8.540753e-002 -2.107313e-001 8.506664e-001 -4.718857e-001
<VARIANCE> 39
 8.800668e+000 1.317733e+002 4.189408e+001 1.341608e+002 6.306377e+001 6.896037e+001 2.277322e+001 5.907546e+001 3.396960e+001 9.086488e+001 2.727408e+001 4.245549e+001 1.766744e+001 1.213990e+000 3.221402e+000 3.141127e+000 5.808214e+000 4.551202e+000 2.473607e+000 5.374531e+000 5.951991e+000 4.874816e+000 2.999388e+000 3.276805e+000 5.749601e+000 3.074474e+000 2.447542e-001 5.507183e-001 4.424613e-001 5.681016e-001 4.298080e-001 4.961816e-001 3.375329e-001 5.068530e-001 4.971303e-001 3.376782e-001 2.630709e-001 5.076061e-001 3.509763e-001
<GCONST> 1.262653e+002
<TRANSP> 5
 0.000000e+000 1.000000e+000 0.000000e+000 0.000000e+000 0.000000e+000
 0.000000e+000 7.344730e-001 2.655269e-001 0.000000e+000 0.000000e+000
 0.000000e+000 0.000000e+000 7.427220e-001 2.572780e-001 0.000000e+000
 0.000000e+000 0.000000e+000 0.000000e+000 5.828336e-001 4.171664e-001
 0.000000e+000 0.000000e+000 0.000000e+000 0.000000e+000 0.000000e+000
<ENDHMM>
~h "h"
<BEGINHMM>
<NUMSTATES> 5
<STATE> 2
<MEAN> 39
 -1.381768e+001 -6.641474e-001 7.199662e+000 -2.149380e+001 2.808336e+000 2.195236e+000 1.371728e+001 -1.404574e+001 7.629976e+000 -4.101159e+000 3.277730e+000 4.581152e+000 6.339679e+001 -1.526726e+000 1.073899e+000 4.539817e-001 -1.941669e+000 2.813208e+000 1.071876e+000 -2.770135e-001 -4.447588e-001 2.077411e+000 4.709374e-001 -2.989030e-001 4.356248e-001 -1.060754e+000 1.419018e-001 7.048910e-002 -2.321194e-002 6.260301e-002 -1.643972e-001 -3.159895e-001 -8.158120e-002 1.992150e-001 -1.452315e-001 -1.978528e-001 1.513223e-004 -1.664805e-001 1.443235e-001
<VARIANCE> 39
 2.630442e+002 3.337583e+001 1.298498e+002 4.868547e+001 9.563736e+001 1.944824e+002 6.421682e+001 3.320174e+001 8.977892e+001 6.363042e+001 2.823247e+001 2.689039e+001 1.307670e+001 2.030751e+000 9.646155e-001 3.246500e+000 3.026389e+000 7.685317e+000 3.860764e+000 4.081638e+000 2.739698e+000 5.237750e+000 2.971061e+000 2.652471e+000 2.399777e+000 5.731769e-001 4.057573e-001 1.899869e-001 4.329124e-001 7.089759e-001 1.100372e+000 4.881499e-001 5.022178e-001 4.683982e-001 1.094389e+000 6.298715e-001 5.057796e-001 4.304820e-001 1.138673e-001
<GCONST> 1.277775e+002
<STATE> 3
<MEAN> 39
 1.433304e+000 2.528033e+000 -9.048433e+000 -1.920809e+001 1.625001e+001 7.558351e+000 5.949342e+000 -8.080268e+000 7.240297e+000 -4.135103e+000 1.347872e+000 -1.537165e+000 5.913789e+001 7.326907e-001 9.575794e-001 -3.793164e-001 1.875217e+000 -8.222976e-001 -1.622191e+000 -1.229590e-001 3.336125e-001 -4.369293e-001 -5.907704e-001 -7.004474e-004 -4.938370e-001 -6.529430e-001 3.360286e-001 1.802392e-001 2.290910e-001 5.501582e-003 -6.098924e-001 -1.366812e-001 -1.098446e-002 7.320385e-002 -2.685960e-001 -8.168685e-002 -6.694200e-002 5.872905e-002 6.623828e-002
<VARIANCE> 39
 8.667826e+001 3.055121e+001 6.810680e+001 1.532968e+002 6.883827e+001 1.126088e+002 1.279267e+002 7.223055e+001 6.329450e+001 5.351671e+001 2.771612e+001 3.570137e+001 1.939130e+001 3.407675e+000 2.984847e+000 2.491019e+000 7.886216e+000 6.001971e+000 4.561905e+000 7.079517e+000 2.766540e+000 4.895334e+000 3.684072e+000 1.896776e+000 2.381146e+000 3.790716e-001 9.737002e-001 6.792413e-001 3.853450e-001 2.159760e+000 8.743062e-001 8.450314e-001 1.107594e+000 4.854179e-001 1.050331e+000 6.080655e-001 3.995160e-001 4.441874e-001 1.192137e-001
<GCONST> 1.340766e+002
<STATE> 4
<MEAN> 39
 -3.729017e+000 1.214001e+001 1.306803e+001 -1.837993e+001 -1.722755e+000 -8.155709e+000 7.857108e+000 -1.043092e+001 4.836105e+000 -1.002565e+001 3.229115e+000 -1.148004e+000 5.945557e+001 3.785195e+000 5.683984e-001 2.314407e+000 -1.324034e+000 -4.774649e+000 -1.103312e+000 -1.377455e+000 1.413629e+000 -3.283016e+000 -1.195108e+000 1.828886e-001 -3.114641e-001 1.250847e+000 -4.191188e-002 -8.587754e-001 -3.149514e-001 -1.956351e-001 -1.797440e-001 5.675784e-001 -1.475459e-001 2.897059e-001 -1.768537e-001 1.744797e-001 2.349331e-001 1.512101e-001 2.352067e-001
<VARIANCE> 39
 1.944531e+002 3.679159e+001 5.511794e+002 4.277162e+001 1.364004e+002 6.192956e+001 7.768472e+001 3.979380e+001 1.095918e+002 9.357172e+001 7.742673e+001 3.544963e+001 2.439076e+001 3.773884e+000 1.031198e+001 5.544233e+000 7.534770e+000 5.612761e+000 5.653638e+000 4.794741e+000 2.643286e+000 6.560864e+000 2.551167e+000 5.531574e+000 1.976342e+000 1.300092e+000 1.176877e+000 7.200645e-001 1.057640e+000 7.886698e-001 1.999538e+000 7.048640e-001 1.173217e+000 3.647167e-001 1.389189e+000 4.543306e-001 6.890767e-001 2.947079e-001 3.386428e-001
<GCONST> 1.429183e+002
<TRANSP> 5
 0.000000e+000 1.000000e+000 0.000000e+000 0.000000e+000 0.000000e+000
 0.000000e+000 8.607708e-001 1.392292e-001 0.000000e+000 0.000000e+000
 0.000000e+000 0.000000e+000 8.598548e-001 1.401452e-001 0.000000e+000
 0.000000e+000 0.000000e+000 0.000000e+000 7.254032e-001 2.745968e-001
 0.000000e+000 0.000000e+000 0.000000e+000 0.000000e+000 0.000000e+000
<ENDHMM>
~h "i"
<BEGINHMM>
<NUMSTATES> 5
<STATE> 2
<MEAN> 39
 -1.758834e+000 -2.218749e+000 3.515254e+001 -1.305069e+001 -1.943931e+001 -9.968149e+000 2.558935e+000 2.427167e-001 -1.431361e+001 -1.204228e+001 1.133564e+001 -5.779275e+000 6.733992e+001 1.270648e+000 -1.282248e+000 3.348928e-001 1.392332e-001 -8.923095e-001 -2.102470e-001 -9.568374e-001 2.115751e+000 -1.003620e+000 1.057757e-001 -4.206537e-002 -1.741128e-001 1.243925e-001 -5.169786e-001 3.186188e-001 -1.141828e+000 3.817872e-001 1.037096e+000 4.754123e-002 3.074481e-001 -2.571004e-001 8.482667e-001 3.250624e-001 -3.998659e-001 2.907551e-001 -4.732247e-001
<VARIANCE> 39
 1.552238e+001 4.081281e+001 5.965825e+001 4.027375e+001 4.882172e+001 4.611204e+001 6.069645e+001 6.073626e+001 3.569683e+001 2.852984e+001 1.751848e+001 2.107255e+001 2.586217e+001 2.456045e+000 3.914424e+000 9.169772e+000 3.381627e+000 7.837661e+000 3.527338e+000 4.988203e+000 4.070111e+000 5.369561e+000 2.740399e+000 2.662263e+000 1.972082e+000 2.609540e+000 2.998287e-001 6.912562e-001 1.004481e+000 4.188542e-001 1.080303e+000 8.223159e-001 7.844630e-001 1.053025e+000 5.091937e-001 5.540875e-001 4.940678e-001 4.094430e-001 1.900306e-001
<GCONST> 1.279955e+002
<STATE> 3
<MEAN> 39
 1.168726e+000 -1.121917e+000 2.651601e+001 -7.266380e+000 -1.521779e+001 -1.087177e+001 1.301590e+000 6.845664e+000 -1.017194e+001 -9.817381e+000 6.832024e+000 -4.201962e+000 6.182847e+001 -5.806015e-001 1.528379e+000 -3.625292e+000 1.828681e+000 3.147260e+000 1.265960e-001 2.887996e-002 -1.623006e+000 2.486922e+000 1.178080e+000 -1.414658e+000 5.199648e-001 -1.743391e+000 -4.824564e-001 3.174462e-001 -2.727881e-001 -8.340163e-002 4.366310e-001 6.122302e-001 2.064986e-001 -1.000982e+000 3.795147e-003 3.331072e-001 8.810352e-002 -8.202970e-002 -1.520435e-001
<VARIANCE> 39
 2.792287e+001 5.864254e+001 9.735391e+001 5.745177e+001 6.147295e+001 5.948581e+001 6.579987e+001 5.660220e+001 4.554337e+001 4.281890e+001 3.372796e+001 2.888723e+001 4.900285e+001 4.457245e+000 2.933014e+000 4.415109e+000 2.689120e+000 7.095483e+000 9.078187e+000 7.746109e+000 8.016710e+000 4.270172e+000 4.110967e+000 2.622838e+000 3.296241e+000 2.872326e+000 2.561561e-001 6.866952e-001 8.329729e-001 5.445604e-001 1.028361e+000 8.106604e-001 9.916499e-001 1.276517e+000 9.056662e-001 6.478086e-001 5.140308e-001 4.868288e-001 2.108004e-001
<GCONST> 1.359500e+002
<STATE> 4
<MEAN> 39
 -1.110220e+001 2.815153e+000 7.911738e+000 1.984335e+000 2.076440e+000 -4.335353e-001 3.371089e+000 1.848508e-001 5.411978e-001 -1.950940e+000 2.180232e+000 -1.263130e+000 4.084738e+001 -7.436283e-001 -1.672106e-001 -1.160982e+000 1.150561e-001 8.699971e-001 4.441953e-001 2.178818e-001 -4.801360e-001 4.455531e-001 3.655438e-001 -2.057307e-001 1.968314e-001 -7.284130e-001 8.810678e-002 -9.101085e-002 1.022297e-001 -2.084412e-001 -2.204634e-001 -6.731357e-002 6.122661e-002 1.214934e-001 -1.189000e-001 -8.208706e-002 7.984845e-002 -2.437798e-002 2.078499e-001
<VARIANCE> 39
 5.769914e+001 3.949339e+001 9.824656e+001 5.362891e+001 6.252971e+001 5.946716e+001 4.139457e+001 3.021314e+001 4.117128e+001 3.484276e+001 2.590099e+001 2.930235e+001 1.441180e+002 2.702642e+000 2.567217e+000 3.870017e+000 3.146391e+000 5.669524e+000 4.230081e+000 3.696590e+000 4.962422e+000 2.897249e+000 2.780258e+000 2.271247e+000 1.980055e+000 3.157311e+000 2.560472e-001 3.912525e-001 4.226595e-001 5.561934e-001 5.487585e-001 6.976586e-001 6.459590e-001 4.945818e-001 4.548525e-001 4.641868e-001 3.573654e-001 3.966614e-001 4.838140e-001
<GCONST> 1.273797e+002
<TRANSP> 5
 0.000000e+000 1.000000e+000 0.000000e+000 0.000000e+000 0.000000e+000
 0.000000e+000 7.255623e-001 2.744377e-001 0.000000e+000 0.000000e+000
 0.000000e+000 0.000000e+000 6.445224e-001 3.554776e-001 0.000000e+000
 0.000000e+000 0.000000e+000 0.000000e+000 8.378779e-001 1.621221e-001
 0.000000e+000 0.000000e+000 0.000000e+000 0.000000e+000 0.000000e+000
<ENDHMM>
~h "k"
<BEGINHMM>
<NUMSTATES> 5
<STATE> 2
<MEAN> 39
 -5.431117e+000 -8.753825e+000 -7.547105e+000 -3.534863e+000 1.154234e+001 -1.223921e+001 -2.440384e+000 -8.577072e-001 7.404705e-001 3.136962e+000 3.470780e+000 -4.692932e+000 5.411270e+001 1.339970e+000 -6.903383e-001 -2.336418e+000 -1.214915e+000 2.729721e+000 -7.505996e-001 1.442795e+000 -9.508551e-001 -7.052180e-004 1.470651e+000 3.647230e-002 -9.222535e-001 2.580989e+000 2.402629e-001 6.295098e-001 9.699312e-001 -7.219993e-002 -5.074849e-001 5.695900e-001 3.137686e-001 1.645505e-002 -1.931238e-001 -2.887117e-001 3.078727e-001 -3.964796e-002 4.174978e-002
<VARIANCE> 39
 5.021656e+001 8.949258e+001 1.357945e+002 2.228165e+002 1.285992e+002 1.593630e+002 9.831930e+001 9.854515e+001 6.090469e+001 8.678638e+001 5.928476e+001 7.125623e+001 1.002601e+002 5.884477e+000 9.669436e+000 1.691180e+001 1.442693e+001 9.492325e+000 1.223725e+001 1.236215e+001 8.008705e+000 8.064070e+000 6.510193e+000 5.712385e+000 5.834831e+000 8.030424e+000 1.273876e+000 1.642176e+000 2.018211e+000 3.030068e+000 2.314104e+000 2.309809e+000 2.442780e+000 1.401626e+000 1.424667e+000 1.599213e+000 1.074781e+000 1.412465e+000 2.408100e+000
<GCONST> 1.670556e+002
<STATE> 3
<MEAN> 39
 -4.220153e+000 -2.228321e+000 -4.572611e+000 -1.364363e+000 1.579530e+001 -4.830458e+000 6.170009e+000 -3.864457e+000 3.128304e+000 4.616086e+000 5.639606e+000 -3.156847e+000 5.337484e+001 1.566489e+000 1.797943e+000 9.202875e-001 -3.721946e-001 -1.279794e+000 1.885330e+000 -4.683992e-001 9.068231e-002 -7.122902e-001 -1.332108e+000 -1.947406e-001 5.719347e-001 -4.001787e-001 4.164870e-001 -2.743311e-001 -3.586598e-001 -7.269601e-001 -6.976254e-001 -9.952897e-002 -9.019055e-001 3.576347e-001 -5.335053e-001 -3.861478e-001 -9.249109e-002 -9.245427e-002 1.070461e-001
<VARIANCE> 39
 8.024345e+001 3.538729e+001 9.815926e+001 1.354229e+002 8.437466e+001 1.080545e+002 4.738787e+001 1.261940e+002 5.828662e+001 5.037481e+001 5.036030e+001 7.505556e+001 1.968520e+002 5.072393e+000 4.839747e+000 3.854000e+000 7.391833e+000 5.519182e+000 8.537049e+000 4.482686e+000 4.695970e+000 4.617929e+000 4.073546e+000 3.389512e+000 4.678574e+000 3.409779e+000 6.920863e-001 5.120887e-001 5.238261e-001 9.899462e-001 1.017552e+000 1.202238e+000 1.322866e+000 9.378887e-001 8.592712e-001 6.746001e-001 6.917308e-001 7.633011e-001 5.790390e-001
<GCONST> 1.458099e+002
<STATE> 4
<MEAN> 39
 9.300490e+000 -3.402955e-001 -7.052498e+000 -1.410824e+001 9.704763e+000 -3.835739e+000 -9.134963e-001 -2.025039e+000 -6.180423e+000 -3.556493e-001 5.941809e+000 -6.475986e+000 6.273694e+001 2.724672e+000 1.360049e-001 -1.736724e-001 -2.614378e+000 -2.781106e+000 1.591859e+000 -2.330470e+000 7.960012e-001 -2.108734e+000 -1.543421e+000 7.891988e-001 -2.858281e-001 1.172796e+000 -6.493881e-001 -7.740356e-001 -2.661571e-001 1.616268e-001 3.121912e-001 -1.327462e-001 4.677968e-002 -1.019238e-001 3.105735e-001 4.742680e-001 1.265502e-001 -1.955163e-001 9.621352e-003
<VARIANCE> 39
 6.987278e+001 8.943502e+001 1.041083e+002 1.302373e+002 7.276850e+001 7.039593e+001 5.856877e+001 1.199012e+002 3.695170e+001 5.079530e+001 3.465982e+001 6.034011e+001 6.517014e+001 3.724403e+000 5.722814e+000 3.658899e+000 8.192354e+000 6.490491e+000 4.025476e+000 6.584920e+000 4.789149e+000 4.954547e+000 4.624545e+000 3.931057e+000 7.569734e+000 3.725134e+000 5.927404e-001 9.892423e-001 8.046544e-001 8.811626e-001 1.089714e+000 7.470976e-001 1.036870e+000 6.119667e-001 4.973865e-001 7.684506e-001 6.350814e-001 7.936595e-001 5.520020e-001
<GCONST> 1.439249e+002
<TRANSP> 5
 0.000000e+000 1.000000e+000 0.000000e+000 0.000000e+000 0.000000e+000
 0.000000e+000 8.267063e-001 1.732936e-001 0.000000e+000 0.000000e+000
 0.000000e+000 0.000000e+000 6.947700e-001 3.052299e-001 0.000000e+000
 0.000000e+000 0.000000e+000 0.000000e+000 5.345113e-001 4.654886e-001
 0.000000e+000 0.000000e+000 0.000000e+000 0.000000e+000 0.000000e+000
<ENDHMM>
~h "l"
<BEGINHMM>
<NUMSTATES> 5
<STATE> 2
<MEAN> 39
 1.618676e+001 5.383002e+000 -1.302899e+001 -1.914888e+001 2.398301e+000 7.056913e+000 -4.216276e+000 -9.161723e+000 -9.030869e+000 4.292081e-001 1.003615e+001 -3.711519e+000 6.002474e+001 4.908650e-001 -1.328642e-001 -8.768026e-001 -1.156605e+000 3.368250e-001 7.022380e-001 -6.484534e-001 5.958550e-002 -5.748622e-001 1.031760e+000 6.590030e-001 -9.263893e-001 3.996006e-001 -4.477005e-001 -9.423848e-001 8.114749e-001 2.820314e-001 9.002724e-002 -2.298113e-001 -2.741822e-001 4.288269e-001 2.493918e-001 4.222210e-001 -6.728341e-002 -7.801878e-001 3.849618e-001
<VARIANCE> 39
 6.032812e+000 2.563407e+001 3.944129e+001 3.039719e+001 1.302435e+001 1.498699e+001 3.869829e+001 2.806404e+001 1.494981e+001 2.112325e+001 2.105995e+001 2.574792e+001 7.987492e+000 5.621242e-001 6.333602e+000 4.164313e+000 2.215474e+000 2.496427e+000 1.527411e+000 5.271910e+000 3.237089e+000 1.926291e+000 3.125202e+000 1.963113e+000 7.133712e+000 2.042156e+000 2.105255e-001 3.350561e-001 3.360743e-001 4.560363e-001 6.484452e-001 2.536245e-001 4.710106e-001 5.103705e-001 3.616416e-001 4.845397e-001 3.668546e-001 6.039614e-001 1.019062e-001
<GCONST> 1.097261e+002
<STATE> 3
<MEAN> 39
 1.545128e+001 -4.614769e+000 -1.031892e+001 -2.244817e+001 5.656408e+000 7.812887e+000 -1.257582e+001 -3.737923e+000 -9.739329e+000 8.205979e+000 1.210507e+001 -1.770417e+001 6.642534e+001 -1.050454e+000 -3.570126e+000 2.823290e+000 -3.719718e-001 1.418003e-001 6.196049e-002 -2.096462e+000 2.462692e+000 -3.263451e-002 1.354514e+000 -4.111607e-001 -3.460028e+000 1.895155e+000 -2.359600e-001 5.806446e-002 3.095428e-001 4.402353e-001 -2.440151e-001 -1.093071e-001 3.671435e-001 7.359008e-002 2.518162e-001 -5.533378e-001 -3.275755e-001 6.850341e-001 -1.822805e-001
<VARIANCE> 39
 4.559332e+000 2.890134e+001 4.031114e+001 4.638729e+001 3.566702e+001 3.731082e+001 3.804657e+001 4.701842e+001 2.709263e+001 4.232895e+001 3.237410e+001 4.236143e+001 7.767995e+000 3.071955e-001 2.142976e+000 2.282823e+000 2.185639e+000 2.733869e+000 1.889716e+000 2.237736e+000 2.818202e+000 2.139617e+000 3.148421e+000 2.197881e+000 3.045988e+000 7.439765e-001 8.849841e-002 3.413002e-001 2.959504e-001 4.319894e-001 4.310838e-001 4.776274e-001 5.000966e-001 6.845911e-001 5.046955e-001 5.674608e-001 3.953581e-001 4.870137e-001 8.357281e-002
<GCONST> 1.096904e+002
<STATE> 4
<MEAN> 39
 1.154963e+001 -1.502650e+001 -6.147788e-001 -2.189949e+001 3.153710e+000 8.028937e+000 -1.631447e+001 2.991376e+000 -9.205934e+000 8.484937e+000 9.946979e+000 -2.194776e+001 7.175858e+001 -8.052089e-001 -1.733617e+000 1.807929e+000 7.116480e-001 -8.223273e-001 1.183114e-001 -5.118432e-001 9.884744e-001 4.871436e-001 -2.040887e-001 -5.853252e-001 -4.241565e-001 7.311633e-001 2.444855e-001 1.022365e+000 -7.735370e-001 4.689216e-001 6.283169e-002 -1.313172e-001 5.327263e-001 -8.317623e-001 2.186474e-001 -3.178927e-001 -4.850565e-002 9.329069e-001 -7.216319e-001
<VARIANCE> 39
 4.233369e+000 2.823386e+001 2.892389e+001 3.540623e+001 2.922117e+001 2.680756e+001 2.180876e+001 1.954197e+001 1.538947e+001 2.650805e+001 2.586781e+001 2.214366e+001 8.124981e+000 4.181254e-001 1.858616e+000 1.826622e+000 1.457158e+000 1.514992e+000 2.189585e+000 1.680249e+000 2.479134e+000 1.545710e+000 1.863408e+000 1.139964e+000 1.453999e+000 5.716149e-001 4.588257e-002 2.139473e-001 1.690376e-001 2.726823e-001 2.338186e-001 2.039096e-001 1.881585e-001 3.600914e-001 2.047455e-001 3.284373e-001 2.474001e-001 3.119646e-001 8.610075e-002
<GCONST> 9.377489e+001
<TRANSP> 5
 0.000000e+000 1.000000e+000 0.000000e+000 0.000000e+000 0.000000e+000
 0.000000e+000 7.887912e-001 2.112087e-001 0.000000e+000 0.000000e+000
 0.000000e+000 0.000000e+000 6.414295e-001 3.585705e-001 0.000000e+000
 0.000000e+000 0.000000e+000 0.000000e+000 6.374339e-001 3.625662e-001
 0.000000e+000 0.000000e+000 0.000000e+000 0.000000e+000 0.000000e+000
<ENDHMM>
~h "m"
<BEGINHMM>
<NUMSTATES> 5
<STATE> 2
<MEAN> 39
 1.116577e+001 7.336341e+000 2.852659e+000 -8.404208e+000 -7.583913e+000 1.370061e+001 1.187419e+001 -1.780110e+001 -1.745850e+001 -5.367648e+000 -1.241582e+000 -3.666594e+000 5.635408e+001 1.471125e-001 1.512733e+000 -7.405649e-001 -2.093678e-001 -1.855695e-002 8.853972e-001 1.333102e+000 -1.737564e+000 -4.405077e-001 2.219382e-001 -1.337722e+000 5.284840e-001 -7.322818e-001 7.698860e-002 -4.149502e-001 -8.241738e-002 -4.357842e-001 2.182283e-002 -5.035274e-001 -6.487063e-001 1.042072e+000 6.019189e-001 -1.118531e-002 4.445766e-001 -1.369155e-001 3.346863e-001
<VARIANCE> 39
 2.137006e+000 2.946110e+001 5.460237e+001 1.985455e+001 1.091113e+002 2.146527e+001 4.127656e+001 3.075781e+001 1.825896e+001 3.563595e+001 2.355267e+001 2.028576e+001 6.113450e+000 2.168650e-001 1.410421e+000 1.029973e+000 1.443130e+000 1.366696e+000 2.537982e+000 3.123158e+000 5.373436e+000 2.603716e+000 1.776548e+000 2.095916e+000 1.051425e+000 4.225589e-001 5.749156e-002 1.104381e-001 3.258081e-001 2.196656e-001 4.380349e-001 2.576118e-001 4.315688e-001 3.908347e-001 2.533561e-001 3.482221e-001 3.659474e-001 1.890661e-001 3.370893e-002
<GCONST> 9.676039e+001
<STATE> 3
<MEAN> 39
 1.410241e+001 9.442605e+000 -5.892974e+000 -1.362246e+001 -5.045983e+000 1.311669e+001 1.008720e+001 -1.594070e+001 -1.176037e+001 -2.195948e+000 -1.255199e+000 -2.697738e+000 5.654450e+001 1.103889e+000 -1.368608e+000 -2.749695e+000 -2.008554e+000 1.952107e+000 -1.010604e-001 -3.464111e+000 1.951540e+000 2.652776e+000 1.088856e+000 2.175133e+000 -1.178977e+000 1.208161e+000 -1.277331e-001 -6.778447e-001 2.674268e-001 4.297908e-002 7.514338e-001 -4.767396e-002 -1.340946e+000 7.432889e-001 2.981412e-001 -3.315270e-001 5.193472e-001 -5.766405e-001 3.298006e-001
<VARIANCE> 39
 1.360544e+001 2.057436e+001 9.416821e+001 3.623259e+001 9.741579e+001 2.411131e+001 4.692979e+001 5.480386e+001 4.401118e+001 4.024566e+001 2.759982e+001 1.859137e+001 9.016335e+000 1.047786e+000 2.139534e+000 2.264239e+000 3.168138e+000 5.987095e+000 2.852639e+000 1.067641e+001 4.491565e+000 3.274713e+000 2.755758e+000 4.858760e+000 3.251107e+000 9.321811e-001 3.198762e-001 2.630365e-001 1.061132e+000 7.466226e-001 6.336136e-001 5.320815e-001 1.166234e+000 1.265112e+000 8.722289e-001 6.592971e-001 9.175195e-001 3.585545e-001 1.692960e-001
<GCONST> 1.245074e+002
<STATE> 4
<MEAN> 39
 1.458369e+001 -3.422070e-002 -5.923637e+000 -1.864114e+001 4.920545e+000 1.194374e+001 -1.298371e+001 -3.619945e+000 -2.102432e+000 -3.649390e+000 8.217960e+000 -1.199730e+001 6.268625e+001 -8.431637e-001 -2.432693e+000 2.182437e+000 3.679878e-001 1.379580e+000 -2.299776e+000 -4.503794e+000 5.088320e+000 1.726160e+000 -2.244075e+000 8.712354e-001 -1.260837e+000 1.175647e+000 -3.557180e-001 2.742862e-001 1.055399e+000 7.050385e-001 -1.440200e+000 -5.157144e-001 1.885067e+000 -1.167191e-001 -9.839308e-001 -4.357453e-001 -7.426192e-001 8.491476e-001 -3.156376e-001
<VARIANCE> 39
 8.270408e+000 4.968549e+001 9.710709e+001 3.310492e+001 5.763080e+001 5.672261e+001 1.160778e+002 8.072269e+001 3.920682e+001 3.275816e+001 3.823658e+001 4.215655e+001 1.490438e+001 6.408954e-001 2.680345e+000 4.586377e+000 3.313722e+000 8.953269e+000 3.899356e+000 1.540165e+001 7.639464e+000 5.384261e+000 6.379312e+000 5.392051e+000 5.077620e+000 1.012051e+000 1.276631e-001 3.646086e-001 8.486887e-001 6.000465e-001 9.876586e-001 6.883806e-001 2.314404e+000 1.371671e+000 1.089755e+000 9.393101e-001 9.933552e-001 8.129347e-001 9.509083e-002
<GCONST> 1.331785e+002
<TRANSP> 5
 0.000000e+000 1.000000e+000 0.000000e+000 0.000000e+000 0.000000e+000
 0.000000e+000 8.324494e-001 1.675507e-001 0.000000e+000 0.000000e+000
 0.000000e+000 0.000000e+000 7.157444e-001 2.842556e-001 0.000000e+000
 0.000000e+000 0.000000e+000 0.000000e+000 6.648501e-001 3.351499e-001
 0.000000e+000 0.000000e+000 0.000000e+000 0.000000e+000 0.000000e+000
<ENDHMM>
~h "n"
<BEGINHMM>
<NUMSTATES> 5
<STATE> 2
<MEAN> 39
 9.523555e+000 7.307829e+000 8.732732e+000 -7.657215e+000 -8.739457e+000 8.304822e+000 3.384810e+000 -2.162182e+001 -6.324024e+000 3.183012e+000 -2.317143e+000 -2.374637e+000 5.737737e+001 1.414127e+000 -1.052166e+000 -1.841365e+000 -1.786862e+000 6.506762e-001 2.091318e+000 -1.694460e+000 -6.267976e-001 -3.221026e-001 1.191476e+000 2.958289e-001 -1.160218e+000 8.675067e-001 -6.040539e-001 -8.870208e-001 -4.249940e-002 -6.316187e-001 1.306011e+000 -5.849105e-001 -7.509244e-001 2.000133e+000 4.805632e-001 -6.195901e-001 5.137762e-001 -5.288014e-001 5.294303e-001
<VARIANCE> 39
 6.285916e+000 3.939460e+001 4.828342e+001 2.039088e+001 6.163736e+001 4.862522e+001 3.613012e+001 5.842498e+001 4.461547e+001 4.078678e+001 2.857410e+001 5.369311e+001 7.862555e+000 3.408920e+000 6.402275e+000 4.056110e+000 7.064626e+000 9.747719e+000 5.768498e+000 6.044345e+000 1.665978e+001 5.675542e+000 4.655568e+000 4.102922e+000 6.627544e+000 2.651749e+000 4.072863e-001 5.760332e-001 6.116713e-001 8.804485e-001 1.045366e+000 8.042908e-001 7.744315e-001 1.482987e+000 1.134445e+000 6.572339e-001 4.749329e-001 9.644348e-001 1.503367e-001
<GCONST> 1.342053e+002
<STATE> 3
<MEAN> 39
 1.140627e+001 -2.098987e-001 1.983103e+000 -2.183300e+001 5.346132e+000 1.322553e+001 -1.090553e+001 -9.054706e+000 -4.936271e+000 2.359001e+000 4.655952e+000 -1.037890e+001 6.397720e+001 2.529247e-001 -2.767812e+000 -7.376145e-001 -3.052401e+000 3.293725e+000 -1.421631e-001 -4.154073e+000 4.606668e+000 1.463246e+000 -5.790894e-001 8.234265e-001 -1.930794e+000 2.248253e+000 -4.508045e-001 2.123611e-001 8.211887e-001 1.064993e+000 -7.476420e-001 -6.490499e-001 6.859769e-001 -3.437335e-001 4.409390e-001 -4.025528e-001 -5.797306e-001 9.584526e-001 -2.932683e-001
<VARIANCE> 39
 1.080639e+001 5.255576e+001 5.590316e+001 1.180467e+002 4.593806e+001 9.998316e+001 5.002167e+001 7.030406e+001 3.505207e+001 4.915869e+001 5.221103e+001 5.805136e+001 1.570498e+001 8.084244e-001 3.043522e+000 3.341894e+000 1.252830e+001 5.379471e+000 7.071961e+000 4.590419e+000 1.374814e+001 5.849339e+000 3.877359e+000 4.056945e+000 3.861304e+000 1.587966e+000 3.988409e-001 4.026913e-001 1.057628e+000 1.261344e+000 1.070059e+000 6.742154e-001 9.515820e-001 2.022386e+000 8.658146e-001 8.514727e-001 9.301282e-001 6.369056e-001 1.725625e-001
<GCONST> 1.365900e+002
<STATE> 4
<MEAN> 39
 1.045290e+001 -7.641615e+000 5.989318e+000 -1.644562e+001 4.890082e+000 6.731534e+000 -1.677201e+001 -1.292751e+000 1.943212e+000 -6.011505e-001 -2.268240e-001 -1.081962e+001 6.716314e+001 -9.775711e-001 -2.283451e+000 2.862663e+000 1.835286e+000 -1.650173e+000 -2.815012e+000 3.295717e-001 3.476134e+000 -3.238696e-001 -1.978575e+000 -5.121502e-001 7.035068e-001 8.965616e-001 -2.586483e-001 5.424435e-001 7.437888e-001 5.447119e-001 -1.147081e+000 -1.514509e-001 1.316314e+000 -4.809957e-001 -8.322983e-001 -3.440056e-001 3.494452e-001 6.630226e-001 -4.423982e-001
<VARIANCE> 39
 9.960083e+000 4.689810e+001 7.025158e+001 1.339746e+002 4.560976e+001 1.667897e+002 6.404327e+001 1.391272e+002 5.672654e+001 3.228888e+001 4.393512e+001 3.950758e+001 1.359492e+001 7.235689e-001 1.494315e+000 5.194774e+000 7.891852e+000 5.473874e+000 7.611391e+000 5.216431e+000 8.169731e+000 8.221565e+000 4.777653e+000 6.036266e+000 3.202035e+000 5.791777e-001 1.421472e-001 4.958508e-001 7.292162e-001 1.150713e+000 5.529445e-001 1.619316e+000 5.112068e-001 2.725359e+000 1.040159e+000 8.164238e-001 1.131187e+000 4.432482e-001 1.376349e-001
<GCONST> 1.345032e+002
<TRANSP> 5
 0.000000e+000 1.000000e+000 0.000000e+000 0.000000e+000 0.000000e+000
 0.000000e+000 7.511117e-001 2.488882e-001 0.000000e+000 0.000000e+000
 0.000000e+000 0.000000e+000 6.040649e-001 3.959352e-001 0.000000e+000
 0.000000e+000 0.000000e+000 0.000000e+000 6.143977e-001 3.856023e-001
 0.000000e+000 0.000000e+000 0.000000e+000 0.000000e+000 0.000000e+000
<ENDHMM>
~h "o"
<BEGINHMM>
<NUMSTATES> 5
<STATE> 2
<MEAN> 39
 1.056064e+001 -3.365088e+000 4.687735e+000 -3.575722e+001 3.395923e+000 1.634984e+001 -1.122934e+001 -5.346263e+000 -2.876960e+000 -2.210109e+000 4.308172e+000 -2.754038e+000 7.089467e+001 2.434826e-001 -9.301020e-001 -1.106974e-003 1.065791e+000 -4.521003e-001 -2.293409e-001 -2.906449e-001 -9.841809e-002 4.220693e-001 3.003942e-001 -2.734298e-001 1.800451e-001 9.007689e-002 -1.667563e-001 -2.360517e-001 2.596825e-001 7.845311e-001 -5.983562e-002 -5.362381e-001 5.134271e-002 1.807040e-001 1.057727e-001 1.304209e-001 -1.181117e-001 -2.424588e-001 -1.174784e-001
<VARIANCE> 39
 8.803349e+000 2.019455e+001 2.585572e+001 4.579127e+001 7.104763e+001 3.019049e+001 4.209182e+001 3.458303e+001 6.530469e+001 3.368364e+001 6.096755e+001 2.224644e+001 7.729086e+000 5.139309e-001 2.374179e+000 1.255185e+000 5.381181e+000 2.466604e+000 3.188760e+000 2.166133e+000 2.037564e+000 2.149078e+000 2.259521e+000 2.961297e+000 2.046536e+000 5.279283e-001 9.384699e-002 1.501895e-001 3.223495e-001 4.390822e-001 4.390594e-001 3.080755e-001 3.503152e-001 5.280661e-001 4.962970e-001 4.549158e-001 5.633247e-001 3.378118e-001 1.343109e-001
<GCONST> 1.091815e+002
<STATE> 3
<MEAN> 39
 1.078745e+001 -1.374990e+001 8.459818e+000 -1.920807e+001 2.162992e+000 5.733369e+000 -1.639575e+001 -1.377959e+000 1.391170e-002 2.558868e-002 2.070887e+000 -4.473736e+000 7.210689e+001 -1.054511e+000 -1.607873e+000 2.855720e+000 3.572407e+000 -1.602216e+000 -2.848896e+000 1.723783e-001 1.558390e+000 9.558102e-001 -8.808913e-001 -2.092957e+000 1.238253e-001 -1.819459e-001 -1.837233e-001 9.537770e-001 3.587539e-002 -2.021463e-001 -1.497794e-001 3.647639e-001 6.867629e-001 -1.019675e-001 -4.788768e-001 -7.317806e-001 6.963089e-002 5.512169e-001 -5.494235e-001
<VARIANCE> 39
 1.040914e+001 1.761861e+001 3.920994e+001 5.151125e+001 5.288994e+001 5.746694e+001 5.953315e+001 3.592373e+001 7.656407e+001 2.826793e+001 8.428450e+001 2.105857e+001 5.350478e+000 3.809099e-001 2.312225e+000 3.966808e+000 4.175356e+000 5.946779e+000 3.634801e+000 4.166085e+000 3.582288e+000 5.183470e+000 4.276492e+000 3.863440e+000 2.365755e+000 1.134341e+000 1.113749e-001 5.637805e-001 6.677476e-001 5.076365e-001 7.497791e-001 8.456120e-001 2.529017e-001 7.114712e-001 1.077206e+000 4.857711e-001 9.927511e-001 4.296766e-001 1.385839e-001
<GCONST> 1.214228e+002
<STATE> 4
<MEAN> 39
 6.602891e+000 -9.061240e+000 1.753205e+001 -1.404096e+001 -5.641205e+000 4.677544e+000 -8.871058e+000 -5.709469e-001 -1.390301e+000 -7.553965e+000 -3.333077e+000 8.347129e-001 6.708428e+001 -2.181345e-001 3.796921e+000 -6.098222e-001 1.500717e+000 -3.637221e-001 4.589850e-001 1.894056e+000 -8.214427e-001 -1.755155e+000 -2.286628e+000 7.938533e-001 1.362481e+000 -2.794444e+000 3.557160e-001 8.417407e-001 -1.218050e+000 -7.156288e-001 8.057587e-001 4.659314e-001 -1.001438e-001 -3.546516e-001 -2.786219e-002 2.443108e-001 7.243701e-001 -2.796524e-001 -2.123501e-001
<VARIANCE> 39
 1.299707e+001 5.191075e+001 8.352525e+001 3.050088e+001 3.880341e+001 3.886948e+001 4.880667e+001 3.277361e+001 4.013292e+001 3.710797e+001 2.227073e+001 2.741610e+001 2.075815e+001 1.422994e+000 6.468571e+000 6.199767e+000 7.231311e+000 6.444439e+000 6.041533e+000 2.160183e+000 2.339166e+000 5.410922e+000 3.415354e+000 3.077302e+000 1.906768e+000 6.878367e-001 2.583302e-001 1.073574e+000 9.339428e-001 4.233822e-001 5.372410e-001 8.783062e-001 5.350868e-001 8.100231e-001 9.161541e-001 5.637896e-001 4.484141e-001 5.385675e-001 4.093574e-001
<GCONST> 1.263283e+002
<TRANSP> 5
 0.000000e+000 1.000000e+000 0.000000e+000 0.000000e+000 0.000000e+000
 0.000000e+000 8.276623e-001 1.723377e-001 0.000000e+000 0.000000e+000
 0.000000e+000 0.000000e+000 6.364496e-001 3.635504e-001 0.000000e+000
 0.000000e+000 0.000000e+000 0.000000e+000 5.627189e-001 4.372811e-001
 0.000000e+000 0.000000e+000 0.000000e+000 0.000000e+000 0.000000e+000
<ENDHMM>
~h "p"
<BEGINHMM>
<NUMSTATES> 5
<STATE> 2
<MEAN> 39
 -8.242068e+000 -1.958009e-001 1.388932e+000 2.391120e+000 4.867408e+000 1.277799e+000 3.927053e+000 1.089113e+000 4.315146e+000 1.835070e+000 3.343994e+000 1.945969e+000 4.064216e+001 2.754663e+000 -6.986940e-001 -2.011514e-001 -4.201328e-001 1.952215e-001 -6.049079e-001 -3.038661e-001 -7.093109e-001 -8.327015e-002 -3.396748e-001 -1.850953e-001 -5.951251e-001 3.710340e+000 2.514022e-001 -3.655502e-002 -1.521349e-002 -1.742355e-001 -4.151222e-002 6.041462e-002 -1.139230e-001 -8.423907e-002 -1.107331e-001 6.903789e-002 8.193999e-002 -1.081956e-001 2.524109e-001
<VARIANCE> 39
 1.198736e+002 7.013596e+001 5.195144e+001 3.629946e+001 3.170576e+001 3.285857e+001 2.788914e+001 3.643601e+001 2.214585e+001 2.810180e+001 2.215019e+001 2.142483e+001 2.261019e+002 1.362141e+001 6.929867e+000 6.230390e+000 5.082574e+000 4.033912e+000 3.855332e+000 3.467199e+000 3.913117e+000 2.565930e+000 3.508058e+000 2.510423e+000 2.589483e+000 2.423397e+001 2.328086e+000 1.373603e+000 1.154467e+000 1.090317e+000 8.476706e-001 8.613245e-001 7.093763e-001 7.467048e-001 5.198422e-001 7.808895e-001 5.622220e-001 5.414186e-001 4.458150e+000
<GCONST> 1.406036e+002
<STATE> 3
<MEAN> 39
 1.416696e+001 -7.920953e+000 -3.155505e+000 -8.836518e+000 3.694978e+000 -5.808147e-001 -2.452102e+000 -3.823001e+000 -9.643165e-001 2.128925e+000 5.951456e+000 -6.313890e+000 6.903229e+001 1.132805e-001 -1.427827e+000 1.096320e-001 -1.309976e+000 -5.436093e-001 5.947372e-001 -1.435063e+000 -4.796255e-001 -1.572270e+000 1.235182e+000 1.003098e+000 -1.603134e+000 5.198458e-001 -1.411500e+000 -3.876505e-001 2.257920e-001 1.070579e+000 -1.850241e-001 -1.863961e-002 1.763816e-001 2.236321e-001 4.023368e-001 -7.301863e-002 -4.037319e-001 3.925775e-001 -1.395761e+000
<VARIANCE> 39
 1.894410e+001 4.140459e+001 5.067549e+001 1.062225e+002 3.113597e+001 5.510270e+001 4.095624e+001 5.586648e+001 5.570924e+001 4.021215e+001 4.698107e+001 4.989471e+001 1.737822e+001 2.987833e+000 5.880426e+000 5.345112e+000 1.433891e+001 4.472717e+000 5.055991e+000 4.520084e+000 6.280021e+000 4.565044e+000 4.064944e+000 4.904260e+000 5.241187e+000 4.114627e+000 8.281909e-001 8.250750e-001 8.614323e-001 1.733134e+000 7.136042e-001 9.819959e-001 7.310367e-001 8.712494e-001 1.044395e+000 9.922913e-001 9.136655e-001 8.844611e-001 1.276348e+000
<GCONST> 1.409771e+002
<STATE> 4
<MEAN> 39
 9.873281e+000 -1.385709e+001 -1.582208e+000 1.131582e+000 2.152771e+000 -2.903180e+000 -2.930050e+000 -7.209908e+000 9.680967e-001 3.843876e+000 3.436693e+000 -4.822547e+000 6.600690e+001 -1.431979e+000 -2.131302e+000 1.305230e+000 2.363232e+000 -1.410062e+000 1.316126e-001 -5.769411e-001 5.578098e-002 1.222820e+000 -8.223194e-001 -9.953794e-001 1.782482e-001 -4.708158e-001 3.018799e-001 1.357351e-001 4.729369e-001 -5.597043e-001 -5.027956e-001 7.774776e-002 -2.466476e-001 -1.496964e-003 4.325140e-001 -3.899922e-001 -2.932651e-001 6.109165e-002 5.567778e-001
<VARIANCE> 39
 2.170191e+001 2.397970e+001 3.558503e+001 1.176578e+002 2.953060e+001 3.695040e+001 3.640815e+001 6.464841e+001 4.664465e+001 3.319534e+001 4.734769e+001 4.215287e+001 2.238432e+001 1.515601e+000 1.382790e+000 3.248261e+000 5.530495e+000 3.294782e+000 3.161004e+000 3.739510e+000 3.479142e+000 2.856326e+000 3.448221e+000 2.721331e+000 2.722905e+000 1.810408e+000 4.711185e-001 5.413218e-001 5.607584e-001 1.551563e+000 5.990053e-001 4.685332e-001 6.770015e-001 7.034345e-001 5.741463e-001 6.499401e-001 6.532352e-001 6.808532e-001 4.737198e-001
<GCONST> 1.264423e+002
<TRANSP> 5
 0.000000e+000 1.000000e+000 0.000000e+000 0.000000e+000 0.000000e+000
 0.000000e+000 9.028071e-001 9.719295e-002 0.000000e+000 0.000000e+000
 0.000000e+000 0.000000e+000 6.722305e-001 3.277694e-001 0.000000e+000
 0.000000e+000 0.000000e+000 0.000000e+000 5.511070e-001 4.488930e-001
 0.000000e+000 0.000000e+000 0.000000e+000 0.000000e+000 0.000000e+000
<ENDHMM>
~h "r"
<BEGINHMM>
<NUMSTATES> 5
<STATE> 2
<MEAN> 39
 4.122216e+000 -9.972937e+000 3.780807e+000 -4.182405e+000 2.261614e+000 -1.977389e+000 -1.844713e+000 -1.030117e+001 5.384404e+000 7.344847e-001 3.232881e+000 -3.856049e+000 6.528780e+001 1.050138e+000 -1.037389e+000 -1.953367e-002 1.545901e+000 -1.654434e+000 -6.503494e-001 -4.490033e-001 -1.012273e+000 1.032100e+000 6.460548e-003 -9.545949e-001 5.401950e-001 4.802365e-001 6.354417e-001 9.649237e-002 -1.510174e-002 -6.532500e-001 -3.916810e-001 5.814522e-003 -3.523851e-001 4.388816e-001 -5.870491e-001 -1.511218e-001 -2.081348e-002 -2.671122e-001 4.560665e-001
<VARIANCE> 39
 6.706491e+001 7.201613e+001 1.277665e+002 1.209811e+002 9.217352e+001 1.271196e+002 8.170947e+001 7.351604e+001 1.571584e+002 5.831248e+001 8.955782e+001 4.716729e+001 2.723972e+001 5.992583e+000 3.598706e+000 5.478846e+000 9.416925e+000 8.016957e+000 1.003384e+001 7.119032e+000 5.516008e+000 9.309464e+000 6.016201e+000 3.673281e+000 4.346679e+000 3.203203e+000 1.012530e+000 7.185975e-001 8.775857e-001 1.551757e+000 9.445715e-001 1.871720e+000 1.207594e+000 9.876154e-001 2.036998e+000 1.081206e+000 9.241810e-001 9.272856e-001 5.946120e-001
<GCONST> 1.525361e+002
<STATE> 3
<MEAN> 39
 1.241306e+001 -1.657300e+001 3.346318e+000 -1.032058e+000 -8.961380e+000 -4.369266e-001 -6.255299e+000 -1.239333e+001 6.024995e+000 2.759047e+000 -3.426305e+000 -4.143917e+000 6.975181e+001 7.336149e-001 -6.652153e-001 1.402519e+000 -9.637032e-001 -1.525098e+000 2.730436e-001 -1.880949e+000 1.760005e+000 -1.025272e+000 -1.285406e+000 2.873970e-001 -4.618273e-001 7.935994e-001 -6.117667e-001 2.346590e-001 5.015259e-001 -3.779196e-001 7.221445e-001 -1.450814e-001 -4.855131e-002 1.124167e+000 -6.568214e-001 -4.720814e-001 8.396153e-001 -2.443777e-001 -2.375568e-001
<VARIANCE> 39
 2.100183e+001 2.548744e+001 1.045442e+002 3.864077e+001 3.910487e+001 6.221711e+001 4.681550e+001 4.566671e+001 4.982379e+001 5.126780e+001 3.139968e+001 2.862539e+001 7.573043e+000 2.293240e+000 1.515288e+000 4.265484e+000 2.951266e+000 3.011271e+000 3.033315e+000 3.358373e+000 6.472381e+000 4.795554e+000 3.719528e+000 3.974539e+000 2.862645e+000 1.060369e+000 2.608417e-001 1.700884e-001 3.386297e-001 3.606868e-001 3.335664e-001 3.853147e-001 4.524378e-001 5.493091e-001 5.869502e-001 5.739442e-001 3.900305e-001 3.808285e-001 1.129768e-001
<GCONST> 1.190034e+002
<STATE> 4
<MEAN> 39
 9.894193e+000 -1.818781e+001 1.277016e+001 -6.764892e+000 -8.260482e+000 -1.204645e+000 -1.448891e+001 6.128942e-001 8.587264e-001 -5.190175e+000 3.087560e+000 -7.231381e+000 7.143712e+001 -8.820610e-001 2.405862e-001 2.625168e+000 -1.698891e+000 5.052134e-001 -7.725875e-001 -1.131662e+000 4.034216e+000 -3.248574e+000 -1.860565e+000 2.422281e+000 -1.157785e+000 6.256267e-002 -2.626174e-001 4.182819e-001 -1.583722e-001 3.752744e-001 2.392950e-001 -2.718591e-001 7.790192e-001 -3.118959e-001 -2.055887e-001 3.268712e-001 -6.836942e-002 8.470879e-002 -3.779668e-001
<VARIANCE> 39
 1.457710e+001 3.137029e+001 1.051688e+002 5.219783e+001 3.928068e+001 7.298666e+001 4.680223e+001 3.387945e+001 4.511121e+001 3.722734e+001 2.944390e+001 2.120863e+001 8.496562e+000 9.411379e-001 8.103542e-001 2.657975e+000 2.071762e+000 2.771199e+000 2.498713e+000 2.277336e+000 3.091045e+000 3.133324e+000 3.736699e+000 2.122659e+000 2.123007e+000 4.285565e-001 1.639850e-001 1.158957e-001 2.598461e-001 3.087022e-001 3.324252e-001 3.115907e-001 3.257826e-001 4.532606e-001 5.066572e-001 4.001954e-001 4.407718e-001 3.504252e-001 5.918030e-002
<GCONST> 1.092286e+002
<TRANSP> 5
 0.000000e+000 1.000000e+000 0.000000e+000 0.000000e+000 0.000000e+000
 0.000000e+000 6.596146e-001 3.403853e-001 0.000000e+000 0.000000e+000
 0.000000e+000 0.000000e+000 6.770899e-001 3.229101e-001 0.000000e+000
 0.000000e+000 0.000000e+000 0.000000e+000 5.444528e-001 4.555473e-001
 0.000000e+000 0.000000e+000 0.000000e+000 0.000000e+000 0.000000e+000
<ENDHMM>
~h "s"
<BEGINHMM>
<NUMSTATES> 5
<STATE> 2
<MEAN> 39
 -2.642916e+001 5.373527e-001 3.311673e+000 -5.820283e+000 1.694856e+001 -2.200586e+001 4.465623e+000 7.793255e-001 1.049059e+001 -1.005254e+001 3.491304e+000 -5.428196e+000 7.040860e+001 -7.200918e-001 -4.241683e-001 -1.155668e+000 -2.143871e-001 7.929994e-001 7.443225e-001 -2.875948e-001 -4.521664e-001 6.178477e-001 5.066418e-001 5.800219e-002 -6.270676e-001 1.680553e-001 7.006095e-001 -1.029371e-001 4.167589e-001 1.664177e-001 -4.764063e-001 2.315212e-001 -2.454263e-003 1.024652e-002 -3.193003e-001 1.134498e-001 1.292485e-002 -1.410376e-002 -2.560746e-001
<VARIANCE> 39
 9.889613e+000 1.052846e+001 4.217965e+001 3.529426e+001 3.985911e+001 8.175989e+001 7.239642e+001 4.812407e+001 3.925809e+001 3.761819e+001 3.187506e+001 4.035945e+001 1.174216e+001 4.304461e+000 9.209672e-001 3.520166e+000 3.729336e+000 3.472394e+000 3.767673e+000 4.332449e+000 3.098818e+000 3.972769e+000 2.959684e+000 2.533459e+000 3.119438e+000 8.283109e-001 2.606153e-001 2.205158e-001 3.985055e-001 5.914312e-001 5.263373e-001 1.081104e+000 9.035825e-001 5.370142e-001 6.974815e-001 5.743670e-001 5.330762e-001 5.531050e-001 7.279340e-002
<GCONST> 1.199130e+002
<STATE> 3
<MEAN> 39
 -1.798267e+001 -1.208849e+000 2.235274e+000 -1.891328e+000 1.599032e+001 -1.226615e+001 7.978858e+000 -1.332322e+000 9.818037e+000 -5.280596e+000 3.198035e+000 -6.513658e+000 6.116627e+001 2.321465e+000 8.744155e-001 9.325965e-001 5.349768e-001 -1.406549e+000 1.628339e+000 6.540684e-001 -5.710467e-001 -9.133244e-001 3.646226e-001 -2.062936e-001 9.490473e-001 -2.966438e+000 3.010276e-001 4.012855e-001 2.316536e-001 -3.277721e-001 -4.209290e-001 1.733528e-001 -5.687495e-001 -2.701289e-001 -4.717456e-001 -3.958195e-002 1.790502e-001 3.535075e-001 4.848867e-002
<VARIANCE> 39
 2.732639e+001 1.945567e+001 1.881270e+001 2.607805e+001 3.754585e+001 7.716317e+001 3.849364e+001 3.071081e+001 3.738554e+001 2.560192e+001 3.153372e+001 2.594698e+001 7.152460e+001 3.288020e+000 3.187751e+000 2.425405e+000 2.295448e+000 1.968129e+000 2.998162e+000 4.305261e+000 3.752633e+000 3.650904e+000 2.902115e+000 2.061665e+000 2.458078e+000 1.878663e+000 4.935501e-001 5.761666e-001 5.470358e-001 5.207191e-001 4.972930e-001 4.956320e-001 7.165621e-001 6.798134e-001 8.137034e-001 6.396360e-001 4.617697e-001 4.800816e-001 9.165490e-001
<GCONST> 1.233947e+002
<STATE> 4
<MEAN> 39
 -4.472604e+000 7.811238e+000 9.289363e+000 -3.836850e-001 7.919398e+000 -1.039975e+001 2.829505e+000 -6.251225e+000 1.787838e+000 -4.440371e+000 4.081201e+000 -1.193863e+000 5.471600e+001 4.890705e+000 1.265526e+000 1.069337e+000 -1.713724e+000 -3.992543e+000 2.665936e+000 -2.504345e+000 -3.031108e+000 -4.388741e+000 6.735304e-002 7.753313e-001 2.046315e+000 3.244019e-001 -2.454836e-001 -1.262927e+000 -6.139519e-001 -1.023596e+000 -7.246685e-002 5.790172e-001 -1.273265e-002 1.232895e-001 -1.167476e-001 -2.062972e-001 -1.346875e-001 -4.852130e-001 1.149756e+000
<VARIANCE> 39
 8.935689e+001 6.600947e+001 2.631899e+001 3.003955e+001 5.470083e+001 1.449213e+002 8.143584e+001 9.367694e+001 8.624259e+001 2.328440e+001 1.982393e+001 5.917118e+001 5.743946e+001 4.285403e+000 6.970137e+000 6.920206e+000 2.449800e+000 3.581200e+000 6.517317e+000 3.212202e+000 1.561883e+001 4.661892e+000 4.574032e+000 3.348122e+000 6.162961e+000 1.793548e+000 9.592307e-001 5.393046e-001 5.522606e-001 7.245378e-001 8.798100e-001 6.959409e-001 9.096540e-001 1.442090e+000 1.385670e+000 6.577048e-001 4.029309e-001 9.730606e-001 8.830069e-001
<GCONST> 1.406893e+002
<TRANSP> 5
 0.000000e+000 1.000000e+000 0.000000e+000 0.000000e+000 0.000000e+000
 0.000000e+000 9.023854e-001 9.761462e-002 0.000000e+000 0.000000e+000
 0.000000e+000 0.000000e+000 8.004194e-001 1.995806e-001 0.000000e+000
 0.000000e+000 0.000000e+000 0.000000e+000 5.173647e-001 4.826353e-001
 0.000000e+000 0.000000e+000 0.000000e+000 0.000000e+000 0.000000e+000
<ENDHMM>
~h "t"
<BEGINHMM>
<NUMSTATES> 5
<STATE> 2
<MEAN> 39
 -8.490089e+000 -5.914536e+000 -1.709270e+000 -3.682501e+000 2.778877e+000 -4.260347e+000 3.123429e+000 -9.748040e-001 7.680136e+000 -3.437793e+000 3.773829e+000 -8.331831e-001 5.192456e+001 1.764611e+000 -1.566884e+000 -1.235885e+000 -6.436945e-001 5.708429e-001 -1.120722e+000 8.831735e-001 -4.481587e-001 1.482618e+000 -1.300714e+000 4.850311e-001 1.698479e-001 4.811799e+000 5.716447e-001 7.020208e-001 6.612698e-001 8.368543e-002 1.996532e-002 3.788489e-002 -1.656477e-001 -2.815552e-001 -1.193182e-001 1.596292e-001 -1.366182e-001 -2.685255e-001 4.024497e-001
<VARIANCE> 39
 3.324183e+001 6.427241e+001 8.822825e+001 7.070007e+001 3.800219e+001 6.715105e+001 6.695736e+001 3.554699e+001 5.420328e+001 4.808656e+001 3.336343e+001 3.161201e+001 1.591628e+002 4.073032e+000 7.804275e+000 9.903849e+000 7.963127e+000 4.809499e+000 6.093320e+000 7.282131e+000 4.508818e+000 6.356257e+000 4.230857e+000 3.261282e+000 4.678607e+000 1.142381e+001 7.525088e-001 1.509265e+000 2.401433e+000 1.125363e+000 9.845684e-001 1.359226e+000 1.350810e+000 9.042162e-001 1.420757e+000 8.607631e-001 7.503973e-001 8.460897e-001 4.035553e+000
<GCONST> 1.495023e+002
<STATE> 3
<MEAN> 39
 1.385972e+000 -3.054064e+000 9.415974e-001 -2.414997e+000 3.680388e+000 -7.377242e+000 3.310006e+000 -4.667488e+000 1.126505e+001 -5.251259e+000 1.104472e+000 -2.975306e+000 6.525018e+001 1.081074e+000 1.073196e+000 2.994027e+000 -9.074225e-001 -6.299254e-001 1.313398e+000 -1.740804e+000 -8.857522e-001 -1.394249e+000 1.000355e+000 -1.315581e+000 -7.134838e-001 -3.514106e-001 -7.920277e-001 -3.315409e-001 1.770450e-001 -1.131605e-001 -3.292421e-001 4.459093e-001 -2.148740e-001 1.112495e-001 -5.165976e-001 3.515722e-001 1.042386e-002 1.424662e-001 -1.214086e+000
<VARIANCE> 39
 3.878373e+001 4.156425e+001 9.675782e+001 7.992816e+001 5.068331e+001 5.682737e+001 8.027919e+001 4.594466e+001 6.295816e+001 4.489909e+001 4.944524e+001 3.587959e+001 5.003902e+001 5.003411e+000 6.833577e+000 7.516492e+000 5.566608e+000 3.823034e+000 3.387965e+000 5.219936e+000 6.034856e+000 7.762038e+000 3.578793e+000 3.496734e+000 4.905323e+000 5.502619e+000 5.002932e-001 7.091712e-001 1.144000e+000 1.339134e+000 8.518617e-001 7.989559e-001 1.504828e+000 8.807414e-001 1.401659e+000 7.520247e-001 8.244506e-001 8.667906e-001 9.731385e-001
<GCONST> 1.436606e+002
<STATE> 4
<MEAN> 39
 -1.217498e+001 -2.848344e-001 7.742050e-001 1.448518e+000 4.640528e+000 2.839706e+000 4.703633e+000 2.771502e+000 5.229831e+000 2.025425e+000 4.019596e+000 2.879696e+000 3.664508e+001 -3.442425e-001 -1.282174e-001 2.657398e-001 -6.122556e-002 -6.396963e-002 3.124653e-001 -1.220541e-001 8.936608e-002 -1.230210e-001 2.947740e-001 4.071857e-002 -7.735864e-002 -4.504190e-001 7.452645e-002 -5.318501e-002 -5.077500e-002 3.500831e-002 -3.602844e-002 -1.017286e-001 -1.583571e-002 -6.255918e-003 2.876038e-002 -7.737249e-002 -5.821455e-003 -2.145578e-002 1.218993e-001
<VARIANCE> 39
 6.152151e+001 2.819964e+001 3.446608e+001 3.926269e+001 2.066523e+001 3.718397e+001 2.632274e+001 3.773754e+001 2.890831e+001 4.523675e+001 2.531218e+001 3.038970e+001 1.583038e+002 3.094969e+000 2.451272e+000 3.076159e+000 2.746408e+000 2.113088e+000 2.783311e+000 2.557756e+000 3.142335e+000 3.432461e+000 3.194891e+000 2.297477e+000 2.250623e+000 4.729326e+000 4.099249e-001 5.070792e-001 5.019698e-001 4.365419e-001 4.254892e-001 5.150990e-001 4.848464e-001 5.901397e-001 5.178570e-001 6.068984e-001 4.377562e-001 4.383959e-001 6.738129e-001
<GCONST> 1.233242e+002
<TRANSP> 5
 0.000000e+000 1.000000e+000 0.000000e+000 0.000000e+000 0.000000e+000
 0.000000e+000 7.910541e-001 2.089459e-001 0.000000e+000 0.000000e+000
 0.000000e+000 0.000000e+000 6.633676e-001 3.366325e-001 0.000000e+000
 0.000000e+000 0.000000e+000 0.000000e+000 9.075968e-001 9.240317e-002
 0.000000e+000 0.000000e+000 0.000000e+000 0.000000e+000 0.000000e+000
<ENDHMM>
~h "u"
<BEGINHMM>
<NUMSTATES> 5
<STATE> 2
<MEAN> 39
 7.187222e+000 6.259789e+000 1.338257e+001 -1.317910e+001 -1.120440e+001 -5.204347e+000 -5.728278e+000 6.454204e+000 -3.441008e+000 -1.075845e+001 1.660855e+000 -5.891495e+000 5.809974e+001 1.745724e+000 1.744456e+000 2.039504e+000 -2.057348e+000 -2.751642e+000 -5.468675e-001 -7.649476e-002 2.053114e+000 -9.196919e-001 -2.238134e+000 3.374190e-001 -5.196915e-001 1.566607e+000 -5.166286e-001 -1.657346e-001 -2.722786e-001 -2.742048e-002 6.040868e-001 8.614653e-001 1.260998e-001 -4.411118e-001 2.404611e-001 4.262151e-001 2.933519e-001 1.716904e-001 -5.057024e-001
<VARIANCE> 39
 4.657806e+001 1.851511e+002 1.931306e+002 2.004907e+002 8.100272e+001 6.402604e+001 5.661046e+001 7.802924e+001 7.976425e+001 3.901719e+001 6.151809e+001 2.324517e+001 7.289883e+001 1.109275e+001 6.395111e+000 4.902352e+000 1.716129e+001 5.914417e+000 9.801142e+000 9.717452e+000 5.229495e+000 6.503145e+000 3.830442e+000 5.616917e+000 3.460732e+000 7.873100e+000 7.970943e-001 1.289427e+000 5.228886e-001 1.743619e+000 9.127048e-001 1.009849e+000 9.572615e-001 1.449711e+000 5.769416e-001 6.486790e-001 5.224822e-001 5.685367e-001 4.430546e-001
<GCONST> 1.499470e+002
<STATE> 3
<MEAN> 39
 1.315662e+001 1.584344e+001 7.580177e+000 -2.658617e+001 -1.188387e+001 4.538141e+000 -5.223691e+000 7.821897e+000 -7.469126e-001 -1.537125e+001 4.172110e-001 -5.427643e+000 5.844355e+001 -3.394065e-001 6.361923e-002 -3.837527e-003 7.616524e-001 2.429631e-001 2.675813e-001 7.441288e-001 -4.191859e-001 -2.078112e-001 1.762632e-001 1.845866e-001 4.447718e-001 -4.278765e-001 -1.939136e-001 -1.008443e-001 -9.224886e-002 3.300605e-001 2.927566e-001 -1.179978e-001 8.695156e-002 -2.192184e-001 -4.751605e-002 2.878181e-001 4.201484e-002 5.620627e-002 -1.251540e-001
<VARIANCE> 39
 1.159153e+001 4.278103e+001 9.001337e+001 1.086680e+002 4.461108e+001 7.122529e+001 8.240139e+001 5.708072e+001 5.029490e+001 3.460111e+001 3.845021e+001 2.333983e+001 1.504168e+001 7.792035e-001 1.453367e+000 2.414232e+000 4.289502e+000 2.070315e+000 3.382186e+000 3.111188e+000 2.712300e+000 1.881538e+000 2.390696e+000 2.107245e+000 1.412432e+000 8.102649e-001 1.495113e-001 2.771705e-001 3.982517e-001 6.376440e-001 3.240135e-001 5.381712e-001 5.516959e-001 3.532926e-001 3.131160e-001 3.922941e-001 3.180594e-001 2.568310e-001 8.643942e-002
<GCONST> 1.145028e+002
<STATE> 4
<MEAN> 39
 -1.147751e+001 1.256763e+000 1.775110e+000 -6.030553e-001 2.820797e+000 2.139560e+000 3.454385e+000 2.119991e+000 2.819752e+000 9.393081e-002 3.115306e+000 1.365105e+000 3.706804e+001 -4.254519e-001 -4.713966e-001 -3.479486e-003 4.145229e-001 4.447929e-001 -2.594391e-002 -6.250750e-002 -8.058407e-002 -1.335718e-002 3.839435e-001 1.773479e-001 -5.113779e-003 -2.191205e-001 1.169647e-001 3.191208e-002 1.339982e-002 -1.067822e-001 -5.495558e-002 -5.708454e-002 -8.404325e-002 -1.571093e-002 -2.456414e-002 -6.367078e-002 -5.382325e-002 -3.131213e-002 1.212826e-001
<VARIANCE> 39
 9.193259e+001 5.064424e+001 8.376587e+001 7.041895e+001 4.892547e+001 4.189405e+001 3.766109e+001 4.025116e+001 4.762420e+001 4.611431e+001 2.866162e+001 2.862225e+001 1.537542e+002 3.893627e+000 3.284040e+000 3.457998e+000 4.247810e+000 3.638707e+000 2.995530e+000 3.150976e+000 3.247341e+000 2.798543e+000 2.695704e+000 1.880140e+000 2.174587e+000 4.949502e+000 4.416714e-001 4.603013e-001 5.919874e-001 5.639384e-001 5.657223e-001 5.748703e-001 6.322373e-001 5.965539e-001 5.499867e-001 4.414717e-001 3.289430e-001 3.777745e-001 6.229736e-001
<GCONST> 1.294098e+002
<TRANSP> 5
 0.000000e+000 1.000000e+000 0.000000e+000 0.000000e+000 0.000000e+000
 0.000000e+000 6.456161e-001 3.543839e-001 0.000000e+000 0.000000e+000
 0.000000e+000 0.000000e+000 8.736863e-001 1.263137e-001 0.000000e+000
 0.000000e+000 0.000000e+000 0.000000e+000 9.305350e-001 6.946503e-002
 0.000000e+000 0.000000e+000 0.000000e+000 0.000000e+000 0.000000e+000
<ENDHMM>
~h "v"
<BEGINHMM>
<NUMSTATES> 5
<STATE> 2
<MEAN> 39
 1.404925e+001 6.967505e+000 -8.782029e+000 -1.808947e+001 3.369560e+000 8.903940e+000 -3.402997e+000 -5.480783e+000 -6.007244e+000 -1.219659e+000 9.371552e+000 -5.649073e+000 5.838732e+001 1.919628e+000 1.096500e+000 -1.450230e+000 -2.508600e+000 -7.873967e-001 1.166267e+000 -3.771501e-001 -1.449276e+000 -1.005845e+000 -8.081529e-001 6.280311e-001 5.670104e-001 9.453361e-001 -8.246740e-001 -3.743941e-001 4.435757e-001 5.413005e-001 8.926917e-002 -9.046762e-002 2.131038e-001 4.450144e-001 2.821282e-001 -4.604692e-002 -2.677596e-001 9.448564e-002 -5.378823e-001
<VARIANCE> 39
 2.731501e+001 7.701089e+001 3.639384e+001 5.858027e+001 4.069429e+001 4.579953e+001 8.175235e+001 4.912369e+001 3.625307e+001 3.336756e+001 3.907902e+001 5.121511e+001 2.997729e+001 7.541942e+000 4.509444e+000 6.478397e+000 7.267008e+000 3.441750e+000 2.540328e+000 6.389749e+000 4.134088e+000 3.424727e+000 2.847228e+000 3.837663e+000 2.844754e+000 6.170869e+000 6.786732e-001 6.903437e-001 9.388870e-001 8.338339e-001 7.136911e-001 4.462800e-001 8.436111e-001 6.321952e-001 5.598438e-001 5.319510e-001 6.516097e-001 4.248056e-001 4.719991e-001
<GCONST> 1.342080e+002
<STATE> 3
<MEAN> 39
 1.413218e+001 1.354615e+001 -8.604565e+000 -1.908582e+001 -1.519429e+000 1.000845e+001 4.380013e+000 -7.065972e+000 -7.267403e+000 -6.549058e+000 4.564361e+000 5.556135e-001 5.522226e+001 3.544271e-002 1.334855e-001 2.625509e-001 1.389871e-001 -1.067693e-002 -3.110297e-002 -6.120122e-003 2.018973e-001 3.589064e-002 -1.499742e-002 -6.092985e-002 -3.268298e-003 3.062707e-002 2.741311e-002 -2.855642e-001 8.910730e-002 8.068267e-002 1.976954e-001 -5.095591e-002 -4.161428e-001 -5.544926e-003 2.724676e-002 3.195043e-001 2.241562e-001 -3.004427e-001 1.803775e-001
<VARIANCE> 39
 1.246569e+001 1.649216e+001 1.528455e+001 2.434997e+001 3.068204e+001 4.207137e+001 3.670380e+001 2.012634e+001 1.607700e+001 1.685447e+001 2.763379e+001 1.280662e+001 7.777991e+000 7.592449e-001 1.089623e+000 1.165646e+000 1.657712e+000 1.491313e+000 1.532924e+000 3.528110e+000 1.896571e+000 8.830116e-001 2.125836e+000 2.283988e+000 1.476573e+000 8.333567e-001 1.372101e-001 2.357618e-001 2.628808e-001 2.741111e-001 2.614981e-001 3.167261e-001 4.709097e-001 3.277375e-001 2.012591e-001 3.452116e-001 2.697084e-001 3.464624e-001 1.549248e-001
<GCONST> 9.774946e+001
<STATE> 4
<MEAN> 39
 1.520873e+001 3.527219e+000 -4.797137e+000 -1.657992e+001 4.335812e+000 6.977017e+000 -9.638359e+000 -5.955293e+000 -9.075047e+000 1.802246e+000 1.196757e+001 -1.062604e+001 6.199430e+001 -4.430161e-001 -3.219626e+000 2.554757e+000 1.105631e+000 -6.760534e-001 -2.625041e+000 -2.392452e+000 2.039749e+000 -1.084587e+000 6.997332e-001 7.434888e-001 -2.852492e+000 1.705141e+000 -4.432953e-001 -1.446156e-001 7.812372e-001 4.114317e-001 -7.928503e-001 -6.240339e-001 8.145489e-001 7.442735e-001 -2.952564e-001 -7.627426e-001 -4.416495e-001 3.923140e-001 -1.332591e-001
<VARIANCE> 39
 1.609403e+001 7.518481e+001 6.198756e+001 6.033608e+001 5.420816e+001 6.347129e+001 6.465155e+001 5.235464e+001 3.429321e+001 4.283994e+001 5.883035e+001 7.100806e+001 2.184756e+001 1.111852e+000 2.627429e+000 4.946324e+000 5.126164e+000 6.330232e+000 8.817781e+000 7.938949e+000 7.005228e+000 3.542780e+000 7.886322e+000 4.565330e+000 5.592728e+000 1.115665e+000 9.326871e-002 6.125771e-001 4.426469e-001 5.754746e-001 7.367463e-001 1.013672e+000 1.429252e+000 9.136186e-001 5.460739e-001 1.096212e+000 7.475953e-001 1.590806e+000 1.622270e-001
<GCONST> 1.345983e+002
<TRANSP> 5
 0.000000e+000 1.000000e+000 0.000000e+000 0.000000e+000 0.000000e+000
 0.000000e+000 7.654095e-001 2.345906e-001 0.000000e+000 0.000000e+000
 0.000000e+000 0.000000e+000 8.674864e-001 1.325136e-001 0.000000e+000
 0.000000e+000 0.000000e+000 0.000000e+000 7.324212e-001 2.675789e-001
 0.000000e+000 0.000000e+000 0.000000e+000 0.000000e+000 0.000000e+000
<ENDHMM>
~h "y"
<BEGINHMM>
<NUMSTATES> 5
<STATE> 2
<MEAN> 39
 6.181321e+000 -1.055441e+001 2.133273e+001 -5.345967e+000 -9.063762e+000 -9.582608e+000 -1.170553e+001 1.092096e+001 -1.031001e+001 -1.331941e+001 1.098397e+001 -9.310140e+000 6.714749e+001 -8.658740e-001 2.360174e-001 2.845654e+000 2.653346e-001 -2.270434e+000 -7.316891e-001 1.856189e+000 2.146176e+000 -2.851728e+000 -1.425321e+000 1.388354e+000 2.749299e-001 -4.707879e-001 -3.570799e-002 6.016336e-001 -6.332071e-001 1.004923e-001 1.150629e-001 4.401816e-001 5.064031e-001 -1.034228e+000 5.772340e-001 7.884637e-001 -3.843758e-001 8.349600e-002 -4.111790e-001
<VARIANCE> 39
 1.538923e+001 4.023345e+001 6.819661e+001 5.857310e+001 5.754911e+001 6.848470e+001 5.195636e+001 4.163301e+001 6.688228e+001 5.350097e+001 3.461739e+001 2.636194e+001 1.451757e+001 7.780208e-001 2.346714e+000 3.028481e+000 2.848701e+000 4.056858e+000 3.859557e+000 4.272186e+000 3.563430e+000 2.965396e+000 3.366913e+000 1.961081e+000 2.593191e+000 7.613602e-001 1.978306e-001 2.264887e-001 3.879924e-001 6.836985e-001 5.719339e-001 7.423385e-001 7.973611e-001 5.408512e-001 8.717164e-001 4.883423e-001 4.666425e-001 4.245176e-001 8.335672e-002
<GCONST> 1.208287e+002
<STATE> 3
<MEAN> 39
 3.124257e+000 -2.949679e+000 2.603016e+001 -1.536317e+000 -1.513548e+001 -1.150133e+001 -4.464048e+000 1.153412e+001 -1.164823e+001 -1.328144e+001 1.271813e+001 -6.745751e+000 6.076728e+001 -1.010382e+000 2.204348e+000 -3.689192e-001 9.004537e-001 4.593706e-001 -1.757476e-001 1.228544e+000 -9.333375e-001 8.910112e-001 1.226984e+000 -5.488887e-001 6.416526e-001 -1.915600e+000 -3.068378e-001 4.085090e-002 -5.886645e-001 1.023676e-001 8.058031e-001 1.099221e-001 -1.396372e-001 -5.648906e-001 8.067092e-001 3.078811e-001 -4.505032e-001 1.939437e-001 -1.126209e-001
<VARIANCE> 39
 1.283358e+001 7.180837e+001 6.631268e+001 8.743254e+001 5.525937e+001 7.118633e+001 6.876693e+001 5.564334e+001 5.754574e+001 4.309661e+001 4.459741e+001 2.763913e+001 3.362881e+001 1.517062e+000 1.512462e+000 3.811776e+000 2.818804e+000 5.094525e+000 3.845690e+000 2.947459e+000 4.467159e+000 5.424603e+000 3.476611e+000 2.573653e+000 1.895875e+000 1.384132e+000 2.878788e-001 3.851086e-001 4.899445e-001 5.213348e-001 5.488349e-001 5.420160e-001 6.729903e-001 7.325713e-001 6.908407e-001 5.893753e-001 3.962353e-001 3.484832e-001 1.757732e-001
<GCONST> 1.256478e+002
<STATE> 4
<MEAN> 39
 -1.121463e+001 2.368147e+000 7.150666e+000 3.227208e+000 1.430077e+000 -1.135024e+000 2.236478e+000 1.333353e+000 3.191738e-001 -2.002258e+000 2.266814e+000 -9.687168e-001 3.858398e+001 -6.804231e-001 -1.711690e-001 -3.581213e-001 -8.169588e-002 4.435999e-001 2.785159e-001 -2.677815e-002 -4.966835e-001 3.385601e-001 2.691251e-001 -2.680135e-001 1.717554e-001 -4.940495e-001 9.707271e-002 -1.548137e-001 1.156868e-001 -1.002804e-001 -1.841842e-001 -6.664193e-002 -5.303704e-002 7.883555e-002 -1.130781e-001 -1.006621e-001 1.360806e-001 -7.657641e-002 2.293868e-001
<VARIANCE> 39
 5.717323e+001 5.814103e+001 1.048330e+002 4.155618e+001 5.637132e+001 6.498903e+001 4.158127e+001 3.701415e+001 4.174579e+001 3.718139e+001 3.126876e+001 3.241864e+001 1.269492e+002 3.921776e+000 2.965223e+000 8.218533e+000 3.548834e+000 7.087738e+000 4.165929e+000 3.544429e+000 4.262815e+000 3.825997e+000 2.882399e+000 3.140314e+000 2.392103e+000 5.329604e+000 3.856917e-001 6.462962e-001 7.383911e-001 5.738878e-001 7.317996e-001 7.081856e-001 5.312397e-001 6.901172e-001 4.844302e-001 4.994237e-001 4.295267e-001 4.308632e-001 6.241810e-001
<GCONST> 1.333546e+002
<TRANSP> 5
 0.000000e+000 1.000000e+000 0.000000e+000 0.000000e+000 0.000000e+000
 0.000000e+000 6.146759e-001 3.853241e-001 0.000000e+000 0.000000e+000
 0.000000e+000 0.000000e+000 7.616696e-001 2.383304e-001 0.000000e+000
 0.000000e+000 0.000000e+000 0.000000e+000 8.977889e-001 1.022110e-001
 0.000000e+000 0.000000e+000 0.000000e+000 0.000000e+000 0.000000e+000
<ENDHMM>
~h "b'"
<BEGINHMM>
<NUMSTATES> 5
<STATE> 2
<MEAN> 39
 9.549809e-001 2.054406e+001 1.667917e+001 8.524912e+000 2.326945e+000 -6.281398e+000 -5.690116e+000 -1.015951e+001 -5.205737e+000 -5.095917e+000 1.995784e-001 -6.043958e-001 4.524348e+001 5.568520e-001 7.603939e-003 8.386729e-001 -1.315151e-001 -1.421691e+000 -7.096509e-001 -2.376262e-001 -4.312132e-001 -7.478487e-001 -4.446105e-001 -3.926361e-001 -5.251256e-002 7.109199e-001 -2.491439e-001 -1.038354e+000 1.344372e-001 -3.026564e-001 -2.184351e-001 3.617575e-001 7.760999e-001 8.423766e-001 3.420493e-001 2.604599e-001 2.052573e-001 4.829488e-002 3.350531e-001
<VARIANCE> 39
 1.693129e+001 1.500227e+001 9.545046e+000 2.175082e+001 2.443970e+001 2.420502e+001 1.536086e+001 1.066254e+001 1.173452e+001 9.615396e+000 1.748143e+001 1.115974e+001 3.780838e+000 4.122652e+000 1.297848e+001 2.204038e+000 3.582253e+000 6.870851e+000 5.393282e+000 9.386431e+000 7.097732e+000 3.726869e+000 2.134590e+000 1.874941e+000 1.075506e+000 2.375826e+000 5.453042e-001 7.673830e-001 8.859981e-001 1.016911e+000 1.478986e+000 6.568277e-001 6.403756e-001 5.609562e-001 5.349200e-001 2.911817e-001 4.192618e-001 2.511081e-001 7.453530e-001
<GCONST> 1.164263e+002
<STATE> 3
<MEAN> 39
 4.856505e-001 -1.255867e+000 3.174865e+001 -5.352149e-001 -1.330829e+001 -5.311121e+000 6.747041e+000 3.799027e+000 -6.899697e+000 -4.871347e+000 2.033593e+000 -1.419153e+000 6.051530e+001 -4.043072e-001 -3.380954e+000 6.078350e+000 -5.000445e+000 -2.769669e+000 -6.012792e-001 -6.673552e-002 2.769413e+000 -1.887351e+000 -7.136741e-001 1.761983e+000 -2.914154e-001 4.240617e+000 -4.957912e-001 1.369152e+000 -3.341133e-002 3.998360e-002 1.214461e+000 -3.829429e-001 -1.401851e+000 -1.040998e+000 -5.045764e-001 -3.985478e-001 5.261306e-002 -9.336100e-002 -7.547738e-001
<VARIANCE> 39
 1.759301e+001 4.088870e+001 1.669594e+002 1.385259e+002 7.390380e+001 5.283010e+001 5.760302e+001 5.065442e+001 4.220927e+001 5.461042e+001 4.775316e+001 2.730285e+001 4.854913e+001 2.446461e+000 9.510078e+000 6.287036e+000 6.654510e+000 1.156823e+001 4.489323e+000 1.257610e+001 6.755579e+000 3.796997e+000 3.334620e+000 3.739321e+000 2.191293e+000 4.168208e+000 3.048619e-001 7.268803e-001 3.202457e+000 3.065334e+000 1.214353e+000 9.906759e-001 1.392052e+000 8.543782e-001 6.746146e-001 6.882403e-001 1.198560e+000 4.140237e-001 1.003231e+000
<GCONST> 1.443644e+002
<STATE> 4
<MEAN> 39
 -3.816468e+000 -2.118202e+000 4.623328e+001 -1.238855e+001 -1.496577e+001 -9.625991e+000 -1.197379e+000 4.456905e+000 -1.472341e+001 -9.508397e+000 5.242879e+000 -3.061695e+000 6.607797e+001 -1.103544e+000 5.396790e-001 1.533616e-001 -4.916082e-001 6.729424e-001 -1.717741e+000 3.651593e-001 -9.547916e-001 -3.699126e-001 -7.631377e-001 -1.470261e-001 -6.973608e-002 1.620536e-001 -2.268818e-001 6.641093e-001 -1.588570e+000 1.147955e+000 4.590495e-001 -2.155075e-001 1.453431e+000 -8.944101e-001 1.243337e+000 2.654355e-001 -2.330654e-001 2.814119e-001 -4.613284e-001
<VARIANCE> 39
 4.822417e+000 1.194608e+001 3.429551e+001 6.896003e+000 2.519905e+001 1.925930e+001 1.801039e+001 1.403361e+001 1.505036e+001 1.091919e+001 1.909791e+001 9.400000e+000 4.389641e+000 8.018386e-001 1.355328e+000 3.357053e+000 3.464626e+000 8.092413e-001 2.170269e+000 5.762803e+000 2.340206e+000 2.811242e+000 2.092742e+000 3.140808e+000 1.169967e+000 3.287154e-001 2.080606e-001 2.172738e-001 3.799998e-001 8.513332e-001 2.160814e-001 6.616020e-001 4.012307e-001 4.131898e-001 3.183162e-001 3.094911e-001 6.716776e-001 1.345209e-001 1.938102e-001
<GCONST> 9.801847e+001
<TRANSP> 5
 0.000000e+000 1.000000e+000 0.000000e+000 0.000000e+000 0.000000e+000
 0.000000e+000 8.960943e-001 1.039057e-001 0.000000e+000 0.000000e+000
 0.000000e+000 0.000000e+000 7.378478e-001 2.621523e-001 0.000000e+000
 0.000000e+000 0.000000e+000 0.000000e+000 7.058914e-001 2.941086e-001
 0.000000e+000 0.000000e+000 0.000000e+000 0.000000e+000 0.000000e+000
<ENDHMM>
~h "c'"
<BEGINHMM>
<NUMSTATES> 5
<STATE> 2
<MEAN> 39
 -2.572326e+001 9.925488e+000 9.158552e-001 -5.269471e+000 3.853170e+000 -4.549678e+000 9.017657e+000 -8.848661e+000 1.266986e+001 -8.964419e+000 8.997198e+000 -9.467399e-001 5.141171e+001 -1.739800e+000 3.408898e-001 5.899049e-001 -2.184687e+000 -5.734727e-001 -9.289259e-001 2.028029e+000 -6.705989e-001 6.588771e-001 -8.440740e-001 5.722949e-001 1.051514e+000 4.143978e+000 5.445353e-001 -1.064862e+000 8.989614e-001 -1.081545e-001 -1.257089e-001 -1.235249e-001 2.423741e-001 3.013816e-001 -5.409359e-001 2.579807e-001 -2.370762e-002 3.839765e-001 6.170995e-001
<VARIANCE> 39
 2.716668e+001 3.001714e+001 1.133189e+002 7.873930e+001 4.436894e+001 7.423264e+001 1.500925e+002 4.736658e+001 2.969217e+001 4.706570e+001 2.489644e+001 2.583378e+001 6.510847e+001 4.118707e+000 6.726152e+000 6.541472e+000 6.903746e+000 5.328397e+000 6.829345e+000 4.634990e+000 6.986318e+000 4.882238e+000 5.605216e+000 3.718298e+000 4.722813e+000 2.665301e+000 7.257674e-001 6.415049e-001 1.084752e+000 2.212104e+000 9.739324e-001 1.353667e+000 1.081161e+000 1.053200e+000 8.071471e-001 9.066106e-001 6.897427e-001 6.955915e-001 1.182586e+000
<GCONST> 1.433281e+002
<STATE> 3
<MEAN> 39
 -2.429649e+001 1.010752e+000 1.115627e+001 -9.220802e+000 2.032551e+000 -7.960821e+000 1.417068e+001 -6.891111e+000 9.931518e+000 -1.149784e+001 1.043241e+001 4.191185e+000 6.623782e+001 2.244489e+000 -9.084498e-001 2.442542e+000 4.617363e-001 -8.307009e-001 -9.789777e-001 -1.760292e-002 4.467383e-001 -1.274264e+000 -4.674154e-001 -2.787397e-001 -3.049582e-001 6.644160e-001 7.114025e-001 2.954823e-001 2.073549e-001 2.049442e-001 -3.442363e-001 -4.129854e-002 -7.625257e-001 1.521027e-001 -4.397652e-001 -7.496076e-002 -1.633506e-001 -5.256405e-001 -6.993678e-001
<VARIANCE> 39
 3.260305e+001 2.788439e+001 4.705874e+001 4.004908e+001 3.644270e+001 5.314302e+001 8.240678e+001 7.789077e+001 5.858515e+001 7.783181e+001 4.391854e+001 3.674406e+001 2.042698e+001 3.926557e+000 3.569893e+000 7.959883e+000 4.359679e+000 5.953684e+000 3.793166e+000 6.512389e+000 4.026186e+000 6.259825e+000 5.001804e+000 4.579514e+000 3.942248e+000 4.737012e+000 6.336527e-001 5.543297e-001 5.265657e-001 9.273537e-001 7.957366e-001 8.344558e-001 1.035370e+000 8.073066e-001 1.055049e+000 1.036525e+000 9.382212e-001 8.379295e-001 4.756006e-001
<GCONST> 1.384125e+002
<STATE> 4
<MEAN> 39
 -1.695792e+001 1.049257e-001 5.269037e+000 6.006090e-001 3.909328e+000 1.510744e+000 6.604331e+000 1.791394e+000 7.057743e+000 -3.184015e-001 5.648316e+000 4.017354e+000 3.769583e+001 7.936311e-001 1.380195e-001 3.153199e-002 -5.680172e-002 -5.498093e-001 1.935227e-002 -6.153384e-001 5.805998e-002 -8.184625e-001 3.603059e-001 -1.428872e-001 -3.645265e-001 -5.860687e-001 1.050415e-001 4.548373e-002 -3.390497e-002 -1.890987e-001 -1.354129e-001 -5.375316e-002 -1.166063e-001 2.197368e-002 -1.827590e-002 -1.180489e-001 -5.536660e-003 -5.942894e-002 2.710183e-001
<VARIANCE> 39
 1.880548e+001 1.652890e+001 7.623405e+001 2.908024e+001 3.160428e+001 6.630569e+001 2.854804e+001 5.355101e+001 3.829101e+001 7.352797e+001 1.766636e+001 2.600750e+001 1.851527e+002 4.198846e+000 2.036424e+000 4.962499e+000 2.506093e+000 3.734942e+000 5.026416e+000 4.185509e+000 4.441836e+000 4.250301e+000 5.226405e+000 1.902740e+000 2.981819e+000 6.541934e+000 5.206721e-001 4.740341e-001 5.066929e-001 5.426289e-001 4.656121e-001 8.204097e-001 5.726753e-001 8.353565e-001 5.264749e-001 7.077640e-001 3.930071e-001 5.308505e-001 7.281209e-001
<GCONST> 1.293691e+002
<TRANSP> 5
 0.000000e+000 1.000000e+000 0.000000e+000 0.000000e+000 0.000000e+000
 0.000000e+000 7.388962e-001 2.611038e-001 0.000000e+000 0.000000e+000
 0.000000e+000 0.000000e+000 8.123645e-001 1.876356e-001 0.000000e+000
 0.000000e+000 0.000000e+000 0.000000e+000 8.859414e-001 1.140586e-001
 0.000000e+000 0.000000e+000 0.000000e+000 0.000000e+000 0.000000e+000
<ENDHMM>
~h "aj"
<BEGINHMM>
<NUMSTATES> 5
<STATE> 2
<MEAN> 39
 5.863047e+000 -1.292188e+001 2.011905e+001 -1.267766e+001 -1.389543e+001 -3.386400e+000 -4.661657e-001 1.321118e+001 -1.226958e+001 -9.801015e+000 7.356434e+000 -8.120396e+000 6.868966e+001 -1.166219e+000 1.708511e+000 3.615435e+000 -1.883060e+000 -2.804216e+000 1.449279e+000 9.957523e-001 -9.207821e-001 -1.231745e+000 -6.499125e-001 1.090689e+000 1.010398e+000 -7.106703e-001 1.140019e-001 7.457210e-001 -4.865682e-001 5.966197e-002 4.986490e-001 -5.855983e-002 -4.285556e-001 -3.481694e-001 3.971873e-001 2.943686e-001 -3.196625e-001 -2.304853e-001 -4.482955e-001
<VARIANCE> 39
 8.035278e+000 2.229292e+001 5.184258e+001 3.147219e+001 4.211325e+001 2.108811e+001 2.038426e+001 1.709891e+001 1.509750e+001 2.587795e+001 2.511451e+001 1.167001e+001 8.250371e+000 2.738042e-001 2.162929e+000 1.791216e+000 1.257172e+000 2.732721e+000 1.393402e+000 2.849949e+000 1.569487e+000 1.422374e+000 1.549142e+000 1.744355e+000 9.375066e-001 6.714728e-001 3.808480e-002 1.998485e-001 2.324390e-001 3.210436e-001 3.871748e-001 4.492565e-001 3.586950e-001 7.828421e-001 2.288888e-001 4.118602e-001 2.697569e-001 1.079658e-001 4.904473e-002
<GCONST> 9.526532e+001
<STATE> 3
<MEAN> 39
 1.216848e+000 5.376978e+000 3.060901e+001 -1.616471e+001 -1.828303e+001 -1.057354e+000 -4.853081e+000 6.395907e+000 -9.664495e+000 -9.588792e+000 8.905299e+000 -5.482259e+000 5.826260e+001 -5.583686e-001 3.097234e+000 -7.182400e-001 2.208991e+000 1.352216e+000 -9.936832e-001 -9.068862e-001 -1.699658e+000 1.959315e+000 1.532402e+000 -3.359774e-001 3.033994e-001 -2.411070e+000 -8.514877e-002 -4.332578e-001 -8.021921e-001 8.339518e-001 6.858295e-001 -2.838584e-001 2.487649e-001 -1.744948e-001 2.411470e-001 3.702558e-001 -1.156202e-001 1.247489e-001 -8.055178e-002
<VARIANCE> 39
 6.544463e+000 4.692484e+001 4.716001e+001 4.024598e+001 1.595635e+001 2.183671e+001 3.385759e+001 3.061638e+001 3.838877e+001 2.682570e+001 1.551767e+001 1.329248e+001 2.198391e+001 2.301051e-001 1.023483e+000 4.424286e+000 4.614944e+000 3.015910e+000 2.081532e+000 2.124018e+000 1.313995e+000 2.915053e+000 2.169904e+000 1.355682e+000 9.160458e-001 2.703235e-001 9.848873e-002 3.624513e-001 2.676027e-001 4.596218e-001 2.276773e-001 4.143693e-001 3.116822e-001 2.725551e-001 8.240746e-001 4.525179e-001 3.124878e-001 1.832635e-001 6.309755e-002
<GCONST> 1.014292e+002
<STATE> 4
<MEAN> 39
 -1.414388e+001 1.822054e+000 3.758927e+000 9.208081e-001 1.634370e+000 3.255201e-001 1.466261e+000 8.012785e-001 1.990867e+000 7.255756e-001 3.784267e+000 1.837907e+000 3.417141e+001 -8.341516e-001 -6.615331e-001 -1.076403e+000 4.418896e-001 6.489349e-001 3.240309e-001 4.607322e-001 8.306257e-002 2.658339e-001 2.832976e-001 -1.430962e-001 4.128674e-001 -1.048492e+000 1.115848e-001 -1.830008e-002 1.976868e-001 -1.536193e-001 -1.339108e-001 6.842549e-002 8.158402e-003 8.873538e-002 -7.300650e-002 -9.761529e-002 1.490577e-002 -6.139871e-002 1.876206e-001
<VARIANCE> 39
 4.810848e+001 4.534932e+001 7.547784e+001 1.278642e+001 2.586887e+001 3.127857e+001 3.622660e+001 3.073092e+001 1.925063e+001 2.673890e+001 1.477577e+001 2.541953e+001 1.038936e+002 1.160354e+000 1.787380e+000 2.509322e+000 2.630871e+000 3.349820e+000 2.015825e+000 2.719453e+000 2.808265e+000 1.430720e+000 2.114574e+000 1.731287e+000 1.639796e+000 2.677907e+000 2.143086e-001 4.604942e-001 2.875522e-001 4.598015e-001 3.931040e-001 4.368319e-001 4.976063e-001 5.011524e-001 3.159582e-001 4.279685e-001 3.295680e-001 3.175898e-001 5.697130e-001
<GCONST> 1.141489e+002
<TRANSP> 5
 0.000000e+000 1.000000e+000 0.000000e+000 0.000000e+000 0.000000e+000
 0.000000e+000 8.310605e-001 1.689395e-001 0.000000e+000 0.000000e+000
 0.000000e+000 0.000000e+000 8.211120e-001 1.788880e-001 0.000000e+000
 0.000000e+000 0.000000e+000 0.000000e+000 9.464670e-001 5.353294e-002
 0.000000e+000 0.000000e+000 0.000000e+000 0.000000e+000 0.000000e+000
<ENDHMM>
~h "ch"
<BEGINHMM>
<NUMSTATES> 5
<STATE> 2
<MEAN> 39
 -2.684549e+001 -1.265431e+001 2.441011e+001 -3.605551e+000 3.828442e+000 -1.470534e+001 7.755895e+000 -1.296670e+001 1.752976e+001 -9.196709e+000 -2.087042e+000 -2.455133e+000 7.078944e+001 -1.954302e+000 -1.500305e+000 -1.257545e+000 1.146307e-001 1.713317e+000 -1.442578e+000 7.867128e-001 -7.209550e-001 1.310177e+000 3.220851e-001 -5.159501e-001 -8.232046e-001 2.299277e+000 9.143627e-001 1.844595e-001 -1.210406e-001 9.698482e-004 -4.549317e-001 2.878893e-001 -6.751710e-001 5.498450e-001 -4.946897e-001 -1.086533e-001 4.961110e-002 -8.668855e-002 -1.793043e-001
<VARIANCE> 39
 3.117490e+001 3.149978e+001 4.602625e+001 4.471001e+001 3.068281e+001 9.101027e+001 6.029889e+001 3.113111e+001 3.355253e+001 3.684740e+001 2.421857e+001 2.420610e+001 4.134336e+001 8.782687e+000 2.650541e+000 3.390340e+000 3.303834e+000 5.500409e+000 4.360301e+000 1.024198e+001 4.132534e+000 4.010187e+000 2.535317e+000 2.557731e+000 1.721766e+000 1.839732e+000 6.269432e-001 8.099588e-001 5.888652e-001 8.368178e-001 7.073517e-001 9.733452e-001 1.330967e+000 9.586160e-001 7.402848e-001 5.510263e-001 4.897892e-001 4.130953e-001 4.999967e-001
<GCONST> 1.310788e+002
<STATE> 3
<MEAN> 39
 -2.548988e+001 -1.171605e+001 1.678717e+001 -6.114337e+000 7.987895e+000 -1.524625e+001 3.152400e+000 -9.817303e+000 2.005723e+001 -1.121484e+001 -2.322882e+000 -5.815269e+000 7.591053e+001 1.237735e+000 2.278101e+000 -9.743488e-001 -4.249369e-001 5.214244e-001 1.024115e+000 -1.271844e-001 1.821214e+000 -5.693527e-001 -5.360540e-001 1.183187e+000 2.303016e-001 -1.550979e+000 4.128347e-001 3.387116e-001 1.623507e-001 3.735080e-001 -8.219549e-002 1.121406e-001 3.785432e-001 2.075253e-001 -3.839193e-001 2.971677e-001 2.623012e-001 2.919763e-001 -7.423665e-001
<VARIANCE> 39
 1.051192e+001 3.070900e+001 1.406771e+001 1.902717e+001 1.976917e+001 3.240516e+001 3.102623e+001 3.681200e+001 3.084967e+001 3.018627e+001 2.707241e+001 2.184466e+001 1.069544e+001 1.612663e+000 2.579074e+000 2.020702e+000 3.082282e+000 2.003194e+000 2.988993e+000 3.799569e+000 3.071353e+000 4.019058e+000 3.736915e+000 2.676431e+000 2.206115e+000 2.874207e+000 2.559182e-001 4.874710e-001 3.893503e-001 5.650551e-001 5.870557e-001 3.663122e-001 6.255477e-001 8.742636e-001 7.297667e-001 6.974084e-001 5.891653e-001 4.474150e-001 1.666387e-001
<GCONST> 1.156412e+002
<STATE> 4
<MEAN> 39
 -1.345912e+001 1.161057e+000 1.515863e+001 -2.306930e+000 7.602480e+000 -7.633911e+000 6.317398e+000 -4.721953e+000 1.263947e+001 -7.105615e+000 2.058284e+000 -8.641110e-001 5.983250e+001 4.348498e+000 1.750531e+000 6.627853e-003 -2.573760e-002 -2.230009e+000 1.544500e+000 -3.318887e-001 -9.431838e-001 -2.614048e+000 1.475888e+000 -3.764914e-001 1.990741e-001 -1.960326e+000 4.988171e-001 -6.341073e-001 -3.216862e-001 -6.223431e-001 -5.830376e-001 4.234077e-003 -5.977011e-001 -4.839571e-001 -4.301757e-001 2.555223e-001 -3.363283e-001 -7.397935e-001 9.688197e-001
<VARIANCE> 39
 5.301189e+001 5.370737e+001 3.853488e+001 4.040136e+001 4.297965e+001 4.839674e+001 4.496168e+001 2.356340e+001 3.334116e+001 2.856630e+001 2.209661e+001 2.225632e+001 6.326229e+001 5.175205e+000 3.133984e+000 5.338953e+000 4.916452e+000 7.010995e+000 3.245404e+000 5.120376e+000 5.525220e+000 5.411189e+000 2.684264e+000 2.954011e+000 5.428753e+000 5.653630e+000 8.785814e-001 1.019767e+000 1.437422e+000 7.179191e-001 1.111315e+000 7.954622e-001 7.555453e-001 1.046738e+000 8.778049e-001 4.966669e-001 5.785880e-001 9.226456e-001 6.597768e-001
<GCONST> 1.361858e+002
<TRANSP> 5
 0.000000e+000 1.000000e+000 0.000000e+000 0.000000e+000 0.000000e+000
 0.000000e+000 8.566272e-001 1.433728e-001 0.000000e+000 0.000000e+000
 0.000000e+000 0.000000e+000 8.075939e-001 1.924061e-001 0.000000e+000
 0.000000e+000 0.000000e+000 0.000000e+000 7.896817e-001 2.103183e-001
 0.000000e+000 0.000000e+000 0.000000e+000 0.000000e+000 0.000000e+000
<ENDHMM>
~h "f'"
<BEGINHMM>
<NUMSTATES> 5
<STATE> 2
<MEAN> 39
 -7.045574e+000 9.641665e+000 1.214783e+001 5.631553e+000 3.771595e+000 -3.530528e-001 2.534023e+000 -1.092752e+000 2.542801e+000 2.166952e-001 2.493271e+000 1.043658e+000 4.186629e+001 7.631461e-001 5.749272e-001 1.255818e+000 -2.302360e-001 -6.084067e-001 -3.729765e-001 1.261881e-001 -7.859034e-001 1.197671e-001 9.518147e-002 -5.055247e-001 -1.589731e-001 1.298774e+000 -1.059113e-001 -1.432788e-001 1.350185e-001 -2.782820e-001 -2.490080e-001 -5.023072e-002 8.215887e-002 -1.412652e-001 4.506306e-002 5.653643e-002 -1.005577e-001 9.649544e-003 6.922203e-002
<VARIANCE> 39
 3.869810e+001 6.099558e+001 6.865929e+001 4.800287e+001 6.971604e+001 6.802979e+001 5.826003e+001 4.338305e+001 2.462627e+001 2.412099e+001 2.404845e+001 2.291502e+001 4.931360e+001 2.489498e+000 4.642912e+000 4.036273e+000 5.913372e+000 7.951169e+000 5.562095e+000 5.892988e+000 4.631655e+000 3.516369e+000 3.417647e+000 3.293214e+000 2.113287e+000 2.635459e+000 2.975338e-001 5.645627e-001 6.475015e-001 9.337400e-001 1.273504e+000 1.013799e+000 1.251882e+000 8.714858e-001 7.636119e-001 6.721193e-001 6.537476e-001 3.894660e-001 4.379467e-001
<GCONST> 1.337468e+002
<STATE> 3
<MEAN> 39
 -9.503170e+000 3.574121e+000 3.095012e+001 -9.667223e+000 -1.223363e+001 -9.636023e+000 1.211214e+001 -1.024546e+001 1.757521e+000 -4.385874e-001 6.357682e-001 1.833339e+000 5.866780e+001 -1.056495e-002 -8.189256e-001 1.700860e+000 -7.860758e-001 -1.074546e+000 -6.715555e-001 9.253462e-002 1.851200e-001 -6.934468e-001 -1.103894e+000 7.735583e-001 -1.345764e-002 1.458311e+000 3.651845e-001 -2.624989e-002 -6.883306e-002 2.152475e-001 -3.217082e-002 -4.091325e-002 -6.576787e-001 4.919660e-001 -4.225808e-001 -4.757869e-001 3.682680e-001 -1.246715e-001 2.861336e-002
<VARIANCE> 39
 1.675060e+001 5.733822e+001 5.669284e+001 6.522430e+001 4.954054e+001 4.836194e+001 6.538325e+001 7.949565e+001 6.150602e+001 5.694894e+001 6.196254e+001 2.299121e+001 2.552399e+001 3.229776e+000 1.653758e+000 4.554509e+000 6.085469e+000 5.053077e+000 4.362044e+000 1.031157e+001 4.101089e+000 5.089576e+000 5.131408e+000 5.466115e+000 2.402379e+000 1.819660e+000 2.807145e-001 3.150921e-001 3.769905e-001 8.982447e-001 9.276270e-001 9.585547e-001 1.341970e+000 7.675646e-001 6.931751e-001 9.237226e-001 1.043644e+000 5.225574e-001 1.698254e-001
<GCONST> 1.336102e+002
<STATE> 4
<MEAN> 39
 -6.728342e-001 -4.803169e+000 4.084458e+001 -9.629623e+000 -2.376254e+001 -1.185411e+001 -3.701260e-001 6.300231e-001 -1.137637e+001 -1.422494e+001 9.809624e+000 -1.434699e+000 6.822837e+001 1.408703e+000 -2.128356e+000 -3.455800e-001 2.071666e-001 -9.813545e-001 5.229252e-002 -2.481444e+000 2.584713e+000 -2.242724e+000 -1.730323e+000 1.489695e+000 -1.211649e+000 1.101725e+000 -4.045559e-001 9.689184e-002 -7.950590e-001 3.201280e-001 9.765152e-001 1.794638e-001 5.370873e-001 -1.161745e-001 4.925191e-001 6.085671e-001 -3.714892e-001 -1.034154e-001 -3.400879e-001
<VARIANCE> 39
 9.479180e+000 2.953333e+001 3.020203e+001 3.290417e+001 3.304489e+001 1.535677e+001 2.448814e+001 2.954313e+001 1.475120e+001 1.631794e+001 1.801811e+001 1.734284e+001 8.379008e+000 1.252077e+000 4.776778e-001 2.940747e+000 3.757534e+000 5.742857e+000 3.844591e+000 3.454003e+000 2.941141e+000 1.562756e+000 4.890508e+000 1.989089e+000 1.185451e+000 1.042600e+000 1.174018e-001 1.659244e-001 4.029048e-001 5.295680e-001 4.454215e-001 6.630713e-001 6.342136e-001 4.103691e-001 2.554138e-001 5.292448e-001 3.863122e-001 1.938228e-001 7.723759e-002
<GCONST> 1.054125e+002
<TRANSP> 5
 0.000000e+000 1.000000e+000 0.000000e+000 0.000000e+000 0.000000e+000
 0.000000e+000 9.213479e-001 7.865208e-002 0.000000e+000 0.000000e+000
 0.000000e+000 0.000000e+000 8.936657e-001 1.063343e-001 0.000000e+000
 0.000000e+000 0.000000e+000 0.000000e+000 7.550049e-001 2.449950e-001
 0.000000e+000 0.000000e+000 0.000000e+000 0.000000e+000 0.000000e+000
<ENDHMM>
~h "g'"
<BEGINHMM>
<NUMSTATES> 5
<STATE> 2
<MEAN> 39
 -4.812507e+000 1.015765e+001 2.670444e+001 -8.969270e+000 -4.359187e+000 1.761112e-001 -4.816803e+000 -5.205778e-001 -2.511000e+000 -4.121326e+000 5.699362e+000 -1.248998e+000 5.106936e+001 -5.725206e-002 1.319988e+000 4.577340e+000 -2.624042e+000 -8.565605e-001 -1.158446e+000 -4.906219e-001 -1.396827e+000 -8.087039e-001 -1.013104e+000 2.300271e-003 -6.770512e-002 3.009603e+000 -6.260458e-001 -1.265988e-001 -5.162984e-001 5.638075e-003 4.593575e-001 -2.307297e-001 4.874105e-001 -3.229444e-001 4.587321e-001 9.251954e-002 -6.849606e-002 2.324997e-001 -1.383832e-001
<VARIANCE> 39
 3.348315e+001 4.478066e+001 2.964515e+002 1.582980e+002 9.604694e+001 4.775705e+001 1.268828e+002 3.856791e+001 5.837898e+001 4.002403e+001 4.639525e+001 3.043950e+001 9.941545e+001 9.861425e+000 7.221041e+000 1.636353e+001 1.180667e+001 1.663065e+001 6.967547e+000 2.334449e+001 6.519930e+000 7.641140e+000 4.289601e+000 5.760243e+000 5.328114e+000 3.953012e+000 1.066547e+000 1.535651e+000 3.805521e+000 3.067212e+000 3.194865e+000 1.288829e+000 4.299811e+000 1.160124e+000 1.522960e+000 7.957273e-001 1.086524e+000 7.948613e-001 7.778937e-001
<GCONST> 1.596444e+002
<STATE> 3
<MEAN> 39
 -2.283738e+001 1.609033e+001 3.335824e+001 -1.839856e+001 8.127372e+000 -6.093860e+000 3.146380e+000 -1.698569e+001 7.417389e+000 -8.265458e+000 2.923870e+000 2.587802e+000 6.375149e+001 -6.840759e-001 4.657341e-001 -4.117417e-001 3.689178e-001 5.126460e-001 -3.334266e-001 -2.746635e-002 -9.662457e-001 5.526569e-001 -4.796931e-001 2.146258e-001 -3.616936e-002 3.134337e-001 6.109256e-001 -2.356823e-001 3.464929e-001 -2.923897e-002 -8.256877e-001 2.755473e-002 -2.043829e-001 4.941052e-001 -5.673619e-001 -7.779808e-002 2.970485e-001 -2.335985e-001 -1.744031e-002
<VARIANCE> 39
 3.242901e+001 2.143342e+001 4.748640e+001 2.490182e+001 7.848226e+001 2.813760e+001 4.030933e+001 3.532283e+001 5.144923e+001 2.882232e+001 3.268511e+001 3.109363e+001 9.427461e+000 5.374858e+000 1.385863e+000 5.528124e+000 9.909137e-001 7.974538e+000 3.489217e+000 2.586236e+000 3.229068e+000 5.323774e+000 1.551591e+000 2.007144e+000 1.578080e+000 2.844105e-001 1.332095e-001 3.543645e-001 5.509348e-001 2.013048e-001 6.623529e-001 8.015821e-001 6.567695e-001 6.526035e-001 3.210946e-001 3.525942e-001 3.517303e-001 3.705825e-001 7.823945e-002
<GCONST> 1.143945e+002
<STATE> 4
<MEAN> 39
 -1.137672e+001 1.039270e+001 4.159814e+001 -1.766593e+001 -1.127554e+001 -1.278482e+001 3.631862e+000 -1.088310e+001 -4.117157e+000 -1.397386e+001 1.108933e+001 -1.789292e+000 6.730609e+001 2.807257e+000 -3.349618e+000 4.246708e-001 -7.134756e-001 -4.593922e+000 -4.830856e-002 7.953156e-001 3.336846e+000 -2.441885e+000 -1.047961e+000 1.032168e+000 -7.133101e-001 9.460468e-001 5.500747e-003 -5.464278e-001 -8.844742e-001 -4.318037e-002 6.062391e-001 5.369444e-001 -3.098392e-001 2.915162e-001 3.560166e-001 1.521090e-001 -4.170561e-001 2.845448e-001 6.005417e-002
<VARIANCE> 39
 3.100534e+001 4.826701e+001 1.740712e+001 2.999416e+001 9.172343e+001 1.343423e+001 3.013690e+001 5.541762e+001 3.168628e+001 2.210507e+001 1.892290e+001 1.226062e+001 6.800668e+000 8.922927e-001 1.832333e+000 4.198913e+000 1.372765e+000 5.558236e+000 3.292222e+000 2.292500e+000 2.231494e+000 2.792327e+000 1.362023e+000 3.049837e+000 1.959206e+000 5.552601e-001 1.343533e-001 5.459975e-001 4.951126e-001 3.174947e-001 1.149151e+000 4.597903e-001 6.024002e-001 7.711300e-001 4.478482e-001 3.304185e-001 4.048639e-001 3.073049e-001 5.406225e-002
<GCONST> 1.102365e+002
<TRANSP> 5
 0.000000e+000 1.000000e+000 0.000000e+000 0.000000e+000 0.000000e+000
 0.000000e+000 8.843153e-001 1.156848e-001 0.000000e+000 0.000000e+000
 0.000000e+000 0.000000e+000 9.035656e-001 9.643438e-002 0.000000e+000
 0.000000e+000 0.000000e+000 0.000000e+000 7.968551e-001 2.031449e-001
 0.000000e+000 0.000000e+000 0.000000e+000 0.000000e+000 0.000000e+000
<ENDHMM>
~h "k'"
<BEGINHMM>
<NUMSTATES> 5
<STATE> 2
<MEAN> 39
 -1.724524e+001 -2.885445e-001 1.134932e+001 -2.086502e+001 4.929958e-001 -8.025552e+000 -3.177016e+000 -8.983791e+000 5.043876e+000 -4.421459e+000 3.611169e+000 5.880453e-001 5.336314e+001 -1.539113e+000 -5.284017e-002 7.314997e-001 -3.703198e+000 1.984722e+000 -1.810081e-001 1.544853e+000 -1.243390e+000 1.834849e+000 -1.520350e+000 1.026372e-001 -6.365157e-001 3.558346e+000 -6.143483e-002 2.951480e-001 1.350821e-001 3.991016e-001 1.814092e-001 -8.271177e-003 3.926117e-001 1.727183e-001 1.185257e-001 1.630519e-001 2.880977e-001 -2.319355e-002 1.771598e-001
<VARIANCE> 39
 1.608499e+001 2.779389e+001 4.524192e+001 1.865994e+002 3.743613e+001 3.569301e+001 5.454242e+001 5.208266e+001 5.519965e+001 4.043518e+001 2.531038e+001 3.439720e+001 1.537117e+002 1.163171e+000 3.318738e+000 6.666253e+000 1.754981e+001 2.712933e+000 4.679189e+000 5.587287e+000 5.069954e+000 4.333305e+000 3.802091e+000 4.084383e+000 3.774460e+000 1.149454e+001 2.332347e-001 5.942510e-001 1.896775e+000 5.362653e+000 5.700631e-001 1.123834e+000 1.057279e+000 1.211352e+000 1.005648e+000 9.032333e-001 7.175506e-001 8.745781e-001 4.112730e+000
<GCONST> 1.424599e+002
<STATE> 3
<MEAN> 39
 -2.516254e+001 5.495089e+000 1.524301e+001 -2.510581e+001 1.203575e+001 -6.448266e+000 7.222104e+000 -1.225180e+001 1.363168e+001 -8.024353e+000 7.484562e+000 -2.159227e+000 6.452859e+001 9.093808e-001 2.074743e+000 3.340112e+000 2.131009e+000 -3.708918e-001 7.865195e-001 -1.945491e-001 -4.337670e-001 -1.689327e+000 -3.452157e-001 1.149297e-001 -1.083022e+000 -5.458370e-001 1.155024e+000 6.303286e-003 1.528520e+000 -1.432487e-001 -1.573709e+000 -1.478486e-001 -8.901020e-001 6.162445e-003 -1.441955e+000 -1.880734e-001 -2.110032e-001 -5.690064e-001 7.861217e-003
<VARIANCE> 39
 1.680948e+001 3.476929e+001 4.429395e+001 4.526323e+001 2.680172e+001 2.486430e+001 2.743195e+001 2.372918e+001 2.198894e+001 2.222046e+001 2.203774e+001 2.750170e+001 1.746653e+001 6.212182e+000 2.157089e+000 1.074900e+001 2.402764e+000 8.137022e+000 2.245903e+000 4.360718e+000 2.774366e+000 8.427636e+000 2.751813e+000 2.310185e+000 3.759490e+000 1.410398e+000 4.058664e-001 4.824628e-001 7.997683e-001 8.785081e-001 8.275557e-001 6.280903e-001 3.368375e-001 5.466508e-001 5.571173e-001 5.782900e-001 5.740795e-001 4.807805e-001 7.327111e-001
<GCONST> 1.239239e+002
<STATE> 4
<MEAN> 39
 -1.215007e+001 1.181686e+001 3.937770e+001 -2.162844e+001 -4.431911e+000 -7.143138e+000 -7.424766e-001 -1.378774e+001 -4.578538e+000 -1.130679e+001 8.889433e+000 -1.112798e+001 6.628625e+001 2.654523e+000 -6.336775e-001 4.292696e+000 -8.837486e-001 -5.179124e+000 1.685642e-002 -1.372993e+000 1.411061e+000 -4.100665e+000 1.455444e-001 6.508744e-001 -1.468507e+000 8.187820e-001 -6.100059e-001 -8.923978e-001 -1.434532e+000 -4.179467e-001 5.856657e-001 3.170658e-001 4.094421e-001 5.775831e-001 7.964657e-001 4.242703e-001 -1.604479e-001 6.931860e-001 -6.982595e-002
<VARIANCE> 39
 9.715655e+000 1.676415e+001 4.008043e+001 2.330404e+001 7.171394e+001 1.194747e+001 4.334988e+001 2.673779e+001 2.825391e+001 1.296418e+001 1.215568e+001 1.793615e+001 1.108534e+001 2.154241e+000 2.556573e+000 7.453025e+000 1.721928e+000 4.717154e+000 1.967239e+000 2.048798e+000 2.483071e+000 4.031172e+000 2.747482e+000 1.459756e+000 2.802873e+000 6.063321e-001 1.756368e-001 3.376949e-001 6.459073e-001 5.125124e-001 1.219788e+000 2.374920e-001 2.703851e-001 4.491411e-001 4.279992e-001 2.582580e-001 2.968538e-001 3.112430e-001 9.884084e-002
<GCONST> 1.083619e+002
<TRANSP> 5
 0.000000e+000 1.000000e+000 0.000000e+000 0.000000e+000 0.000000e+000
 0.000000e+000 8.500711e-001 1.499289e-001 0.000000e+000 0.000000e+000
 0.000000e+000 0.000000e+000 7.747642e-001 2.252357e-001 0.000000e+000
 0.000000e+000 0.000000e+000 0.000000e+000 7.103763e-001 2.896236e-001
 0.000000e+000 0.000000e+000 0.000000e+000 0.000000e+000 0.000000e+000
<ENDHMM>
~h "ja"
<BEGINHMM>
<NUMSTATES> 5
<STATE> 2
<MEAN> 39
 -4.465127e+000 8.532797e+000 4.134412e+001 -2.274149e+001 -1.074798e+001 -4.634787e+000 -6.337280e+000 -1.324398e+000 -1.009671e+001 -6.722325e+000 7.643140e+000 -4.866427e+000 6.293206e+001 3.165485e-001 -1.160481e+000 8.031745e-002 -8.727618e-001 -5.503355e-001 -6.219115e-001 4.096481e-001 6.450361e-001 -4.839499e-001 -1.920517e-001 1.182913e-001 5.657894e-001 1.069546e+000 -2.468436e-004 -3.947842e-001 -5.373206e-001 2.450373e-001 1.926957e-001 -5.971446e-002 1.408885e-001 1.125853e-001 1.345538e-001 1.114923e-001 -1.030403e-001 5.624081e-002 -2.841135e-002
<VARIANCE> 39
 2.704337e+001 6.210271e+001 6.483601e+001 4.726865e+001 9.717622e+001 4.408355e+001 1.017464e+002 6.037980e+001 6.219798e+001 2.880022e+001 2.097450e+001 3.137996e+001 2.985820e+001 2.306844e+000 5.015830e+000 8.424857e+000 7.077814e+000 6.405106e+000 2.473857e+000 8.026758e+000 5.303820e+000 3.384964e+000 2.374506e+000 1.914134e+000 2.181001e+000 1.702943e+000 4.095107e-001 6.965646e-001 4.175257e-001 8.501078e-001 1.165433e+000 4.452113e-001 1.376858e+000 7.685018e-001 6.160288e-001 4.066238e-001 3.760771e-001 3.422296e-001 1.811250e-001
<GCONST> 1.306568e+002
<STATE> 3
<MEAN> 39
 3.664906e+000 -1.437798e+001 2.120572e+001 -1.875189e+001 -7.365721e+000 -1.039719e+001 -3.995722e+000 1.080218e+001 -9.073013e+000 -2.029294e+000 2.200614e+000 -2.157523e+000 7.246822e+001 2.110984e-001 -5.818970e-001 -1.400726e+000 8.411939e-001 1.298857e+000 2.128323e-001 -2.705438e-001 3.921950e-001 1.911035e-001 7.485473e-001 -7.718894e-001 -6.794397e-001 -3.105294e-001 -2.995951e-001 6.721033e-001 3.927417e-001 4.503021e-002 -8.079539e-002 1.522366e-001 2.694907e-001 -3.348503e-001 -4.083838e-002 -1.395357e-001 9.006494e-002 -5.281119e-002 -4.297774e-001
<VARIANCE> 39
